-0.08234994
-0.03517185
-0.06617654
-0.027283955
0.0033205617
-0.050992977
0.19197148
0.14855237
0.00050234114
0.04493519
0.15815686
-0.09419095
0.31456265
0.10238166
0.010216873
0.016552338
0.066134155
-0.07760945
-0.013493225
0.093642734
-0.071862884
-0.019014603
0.014918974
-0.016408363
0.013060175
-0.021569043
0.07476443
-0.05622335
0.037223104
-0.055309266
0.16524565
0.08294654
0.14320078
-0.103715055
-0.049035206
0.12752049
0.07249335
-0.038409594
0.039694652
0.106575176
0.08470337
0.16613604
-0.06731802
-0.06163867
-0.02137117
0.1500983
0.005187509
0.03485247
-0.040137198
0.07537736
0.015846655
0.1555354
0.030523885
0.062963225
0.04012766
-0.015868746
0.173029
-0.031064078
0.026594583
-0.017459555
-0.020428248
0.0782137
0.18859011
-0.030732129
0.060491323
0.04298243
0.045303814
0.288523
-0.004370068
-0.110307716
0.050704163
0.04070749
0.04817808
-0.07187945
0.053444847
-0.010301172
0.09964135
0.011107742
-0.03635279
-0.019515313
-0.022911431
-0.13442066
0.026503528
-0.024099384
-0.09901527
0.20650592
0.039004933
-0.04147648
-0.028715696
-0.025439436
-0.03247334
-0.013978452
-0.09323677
-0.045891743
0.043476164
-0.0044234055
-0.021109661
-0.081493236
-0.062391322
0.02121275
0.026234984
0.0021552471
-0.009314922
0.018475585
-0.036417153
0.16121775
0.19549607
0.06290236
-0.0580805
0.11980738
-0.040790316
-0.16219388
-0.024068618
0.1717437
-0.06367144
-0.038949747
0.0059430506
-0.0011144741
0.036154162
0.21640898
-0.00051061326
-0.19556661
-0.22183076
-0.028772213
0.176392
-0.03591896
-0.02010762
-0.10332156
0.058879763
0.105707854
-0.07741427
0.11124289
-0.0499846
0.017283171
-0.009965752
0.072664924
0.31645384
0.19651295
0.08417095
0.14414702
0.054975793
0.06541168
-0.10123419
0.235567
0.09299191
-0.056764174
0.068476975
0.096064255
-0.017478611
-0.042587284
0.017342351
-0.042003516
0.018866617
-0.19059244
0.10992669
0.12869321
0.022919815
0.025301984
-0.13246006
0.022690108
-0.08138498
0.037526403
-0.039037038
0.13877131
0.03296458
-0.07643284
-0.02831629
0.051016964
-0.046529252
0.020932231
-0.004824237
0.0031238827
-0.030365953
-0.114202015
0.07558916
0.04956192
0.0009911732
0.23063546
-0.002817213
0.026076535
0.0501225
-0.04174559
-0.047576007
-0.10312956
0.12003335
0.018572062
0.015030781
0.034767773
-0.04258712
-0.16370198
0.10064001
-0.058865745
0.38018525
-0.045584027
0.0018410026
0.25144503
0.071317784
-0.17919658
-0.05727995
0.14131543
-0.08339196
0.052380703
0.08485809
-0.02223881
0.00260846
0.036100768
0.0077965152
0.0062089004
0.08639784
0.0030468453
0.19973025
0.17030883
0.10368821
0.023990238
0.06344427
-0.0824446
0.083631136
-0.1277335
-0.031340808
0.10241288
-0.023664067
-0.047209755
0.034557097
0.06089465
0.057838317
-0.041620858
-0.11385273
0.0075180745
-0.122801736
-0.04783004
0.040597785
0.04979562
0.00609521
-0.049933665
0.06980596
0.05539771
-0.010707324
0.10043059
0.106875226
-0.08181807
-0.02140806
0.21307784
0.055595886
-0.09062515
-0.007515254
-0.04768315
0.08005497
0.10947219
0.18857819
0.17042099
0.023654634
-0.06886266
0.09325999
-0.010417035
-0.003785384
0.0093489755
0.022009378
-0.043501418
0.12891985
0.07019481
0.106805824
-0.026185304
-0.054006018
0.001086463
0.023235247
0.023414176
0.054895386
0.07827705
-0.030524714
-0.056450628
-0.036206376
0.23995067
-0.13323623
-0.1217064
0.05103692
-0.06754989
0.07175465
-0.010310251
-0.0186942
0.046923023
-0.054440234
-0.01984168
0.13608599
0.15194458
-0.021232646
0.051975388
0.103615455
-0.019888094
-0.085659124
-0.027606143
-0.038565386
0.12545465
-0.045474924
-0.09291093
0.004741147
0.05036929
0.013228731
-0.22175719
0.020684205
-0.022617798
-0.021711046
0.03164454
-0.041892152
-0.03274511
0.14219756
0.10544459
0.21994835
-0.029500496
-0.23507577
-0.12379654
-0.039184306
0.026734332
0.059154723
0.13488108
0.025889318
0.20436615
0.12786481
-0.09282595
-0.016506318
-0.01461696
0.010706957
0.12746264
0.0066669835
0.039821133
0.05935352
-0.0061598066
0.05851574
-0.24016029
-0.18752064
-0.003642082
0.00055231707
0.045318212
-0.17081273
-0.03622031
-0.014067535
0.032397944
0.036843758
-0.043645147
0.14929837
0.0060043205
0.12832424
0.055036176
0.16967452
0.031359322
0.065859064
0.1227579
-0.012612367
-0.020656526
-0.012355959
0.014849725
-0.011919419
0.17615192
-0.046178095
-0.0280385
-0.022756238
0.035911445
-0.0032075215
0.023132127
-0.004258046
-0.006723788
-0.018205563
-0.015738996
0.04820073
-0.0029006617
-0.009001563
0.09140977
-0.1616848
-0.073335305
-0.032722346
0.146627
0.019495027
0.092964195
-0.11216702
0.008792461
0.09254709
-0.05500425
-0.096453756
0.13779221
-0.12780456
0.021121953
0.041424338
-0.088201925
-0.018923547
-0.111709975
-0.015295081
0.05484493
0.049896535
0.108724564
0.059830964
-0.07093557
-0.0889709
-0.0047745546
0.039098974
-0.014647162
0.030378835
0.061139014
0.031749077
0.0071103694
-0.0067069423
0.0050923564
0.05398277
0.14229943
0.019533444
-0.0461473
-0.033193026
0.046368808
-0.07424179
0.010894018
0.036254425
0.029513171
-0.0151809575
-0.026890144
0.0069156927
-0.07700397
-0.04296518
0.11404698
0.044084802
-0.058664206
-0.035753068
-0.09157925
-0.017172066
0.042584915
0.041206524
-0.10057977
-0.05268528
0.006913944
-0.0030184858
0.14789817
-0.13069908
-0.027453065
0.017138435
-0.025365392
-0.011523509
-0.0206563
0.04001124
-0.03832458
0.010922887
-0.03801481
0.17601809
-0.008688189
-0.09563345
-0.014204534
-0.0027874785
0.014028202
0.009194385
0.028284123
-0.046953324
-0.06661834
0.07075281
-0.002396769
-0.04542642
-0.09684569
0.04560235
-0.083276734
0.22709829
0.08347138
-0.03651342
0.048396543
-0.037977394
-0.026835851
0.039022665
0.03160925
0.0445359
-0.06402453
0.09954657
0.008256432
-0.05137382
-0.019114064
0.109809145
-0.040153485
-0.043317627
0.023517592
-0.006696621
0.11434145
0.02132013
-0.11270498
-0.037865907
-0.046483878
0.054616142
0.032582313
-0.106613405
0.03343731
0.086816885
-0.009086831
0.04527786
0.23558117
0.12298584
-0.071702935
0.017984992
-0.12695655
0.12669785
0.15286395
0.041239318
-0.36377418
-0.10326624
0.014312684
0.3354425
0.084696256
0.08016115
-0.0085777715
0.024771819
0.005596558
-0.06557049
0.07334164
-0.02563286
-0.069281764
-0.031952135
-0.040667363
0.016810646
-0.007804323
-0.09302906
0.0019232385
-0.021662148
-0.023671154
-0.020728178
0.0033516313
0.07249885
-0.053710077
0.07908641
0.17573674
0.08413342
-0.019242644
0.07974761
0.084528
-0.018644895
0.21444671
-0.034656934
0.15429498
0.06971258
-0.0045530936
-0.020517588
0.017755141
-0.025367863
-0.14946403
0.058060687
-0.0147719765
-0.15644291
-0.025047392
0.06495086
-0.18269135
0.16613121
0.06512318
0.14385799
0.00045762956
0.12755749
-0.081610054
0.09188424
0.038462386
-0.057901893
-0.042297747
-0.013435282
-0.06892146
-0.037645333
-0.024294756
0.23286174
0.056528576
0.13236515
-0.008303363
0.056372143
0.1290087
0.03380098
0.10287361
-0.55192536
-0.036130358
0.2223747
0.31665868
0.03559487
0.114663996
-0.15663376
0.039183483
-0.008940877
-0.010554664
0.06568218
-0.16099082
-0.069217704
-0.058326647
0.0469838
-0.07944047
