0.20772265
0.24929412
-0.0063753473
-0.026646659
0.090994485
0.16556275
0.0034495948
0.116654545
0.031382583
-0.0727861
-0.14704755
0.028876547
0.021043198
0.013779253
0.053087253
-0.072400704
0.03505471
-0.103661485
0.06617479
0.1983534
-0.04264966
0.11170287
0.010316675
0.15858756
-0.07335298
-0.04812664
0.11621875
-0.031860452
0.047844376
0.046844497
-0.07083365
0.07065113
-0.06040929
0.14871937
-0.029280907
0.018867057
0.10714964
0.055269737
0.07267777
-0.04098121
-0.0912391
0.10956023
0.08101335
-0.006603765
-0.021706393
0.09186848
0.020082468
0.13478783
0.051431105
0.050082207
0.07262473
-0.04295281
0.059567373
-0.0019927272
0.19600046
-0.026362574
-0.08970345
-0.023237433
-0.04025815
-0.083851725
-0.044392265
0.09469175
0.10953092
-0.024218336
0.0474132
-0.033740807
0.11751952
0.105003625
0.07520205
-0.122069925
-0.06033323
-0.008759259
0.07672438
0.017521016
0.10066461
0.09465249
0.11029515
0.10132086
0.032252796
0.03054586
0.048491612
0.14356029
0.06546574
-0.0021581142
0.073997624
0.09558465
-0.04956949
0.01428953
0.012652689
0.07015547
0.061194215
0.025934055
-0.081225246
0.13474958
0.08859508
-0.064286776
-0.030912895
0.1876079
0.029200686
0.095754944
0.15075082
0.10380236
-0.10119913
-0.042205557
-0.0022799245
-0.21245836
0.010733261
0.019603208
0.021901928
-0.053945158
0.011730541
0.038530502
0.14335938
-0.078081995
0.18914592
0.1771683
-0.020943062
-0.013968643
-0.0009993277
0.11430345
0.10448102
0.091478325
0.041197162
-0.0865242
-0.008574142
0.038837
0.035501983
-0.030487942
0.09762402
-0.09614075
0.02395334
0.023987226
0.13016495
0.1300787
-0.03847651
-0.041887887
-0.011579022
0.19835384
0.14290138
-0.019387437
0.12847342
0.17076269
-0.070398755
0.23009428
0.09359224
0.011520584
0.15071958
0.04078534
-0.034375995
0.0041566626
-0.013465047
0.15946065
-0.06504827
-0.010899637
-0.03805892
0.08663648
-0.009320759
0.037763864
0.14041962
-0.059248652
0.079113886
-0.05360188
0.11505442
0.02673875
0.013126264
0.097744025
0.121749714
-0.16070038
-0.039385725
0.054004375
-0.10051218
0.10290369
0.11979666
0.073558845
0.0007217272
0.12601902
0.23207107
-0.010909295
0.17876333
-0.17562924
0.009828712
0.05429348
-0.0124675585
-0.045005195
0.20323351
-0.16130772
0.22504887
0.10913859
0.0053369273
0.09326522
0.109784715
0.02674207
-0.09677985
0.009209234
-0.04971009
0.08446575
0.08702374
-0.012267941
0.08372811
0.17580281
0.10759314
0.0439142
0.020305108
0.027760208
-0.05844576
0.054235473
0.058398064
-0.069348544
0.110866554
0.07745491
-0.0032484862
-0.08053422
0.0029388648
-0.032155234
0.10098472
0.12520039
0.07002307
-0.09192049
-0.12164355
0.08257511
-0.084086575
0.05393576
-0.033087872
0.09276968
-0.037175395
0.0029675558
0.11652596
0.10650652
-0.114651054
-0.016352195
0.026609499
0.09470281
0.028984914
-0.06232338
-0.0039713453
-0.040860396
-0.1919297
0.07995744
0.043684307
0.08474131
0.082534894
0.06589301
0.076105595
0.0411288
-0.0069544017
-0.09272114
0.1518258
-0.045214787
0.12810665
-0.028615145
0.1188631
0.051840875
0.028671473
-0.05988516
0.048263088
0.13178313
0.07627236
0.003410292
0.21401244
0.14605471
0.022386678
0.042341266
0.095101506
-0.004511763
0.19418497
0.10439074
0.022721203
0.12019484
0.018585589
0.05760696
0.042790703
-0.040456135
0.0015039223
0.07716894
-0.10252499
0.19688019
0.122598745
0.08488146
0.05234249
0.028069763
-0.073415376
-0.07926374
-0.0032675057
-0.02108056
0.025554925
-0.08605362
-0.035275944
0.20062117
0.044048853
