0.01839862,0.01553737,0.01527882,-0.02138964,-0.05558442,-0.00047617,-0.06310625,-0.05799097,0.03440865,0.06599250,-0.03709089,-0.03123049,-0.02735655,0.01207790,-0.00448762,-0.02216011,-0.05996476,-0.04699323,-0.05373314,-0.03992546,0.02164149,0.03914965,0.00190131,-0.03809522,-0.01693592,-0.02598376,-0.02093143,-0.04974949,-0.00123249,-0.03328603,-0.02108494,-0.04045149,0.01265356,-0.04242982,-0.02390132,-0.01600979,-0.02541753,0.02890550,-0.02466683,0.00377964,0.09006254,-0.03881667,0.11258634,-0.05425857,-0.00743474,-0.03151025,-0.02099120,-0.02617263,-0.01191113,-0.03806381,-0.02104673,0.00643016,-0.03891443,0.03103728,0.00578555,-0.03265865,0.00909124,-0.00901311,0.03535138,-0.04573375,-0.04004480,-0.04231223,0.02369819,-0.02242872,-0.09784247,0.03966380,-0.01455525,-0.06519414,-0.01952886,-0.00892144,0.01568122,-0.03011873,0.01613194,0.00413710,-0.08061843,-0.02996532,-0.01170801,-0.01718283,-0.04476759,-0.06597569,0.00747092,0.01082626,-0.02887942,0.03069252,-0.02047349,-0.01493885,-0.03850945,-0.07379518,0.02420367,0.02976655,-0.03120802,0.00757219,-0.04749909,0.03707257,-0.02820857,-0.06489070,-0.00777083,-0.00795124,0.01522649,-0.00428245,-0.00787309,0.01684365,-0.04833295,-0.06921088,-0.17995736,-0.05910894,0.00417355,0.12938802,0.01224573,-0.03410567,0.00181873,0.02944669,-0.00815030,-0.02370282,-0.01853612,-0.05630541,-0.03266600,-0.36509725,-0.05390344,0.02397407,-0.02741052,0.00180562,-0.05373365,0.07511045,-0.01595144,-0.04416946,-0.03542706,-0.01151423,0.00674751,-0.03745034,-0.01043741,-0.04375955,-0.02373856,0.02586991,0.02310582,-0.00161083,0.06753472,0.02481660,-0.04018962,-0.03962207,-0.02017060,-0.02714784,-0.07333001,-0.05727425,-0.01596728,-0.06167020,-0.14917018,0.00726546,0.02072988,-0.08742722,-0.00697323,-0.02668757,0.11335213,-0.02005629,-0.48595351,-0.02666898,-0.03874744,-0.02525151,-0.02636385,-0.02955630,-0.03814654,0.00767169,-0.04654610,0.01843824,0.01578979,0.02649175,-0.05316700,-0.07798757,-0.03496638,-0.01541146,-0.06067641,0.01000561,-0.01594798,0.02327454,-0.02681969,0.00085369,0.00952222,-0.00922052,-0.01977053,-0.00093591,-0.03071601,0.03062091,-0.01382418,-0.03307375,-0.01890824,0.01334470,-0.06674670,0.06524678,-0.08476535,0.00900946,0.00069223,0.01083281,-0.00644796,-0.05520506,0.01558855,0.00935397,0.01571380,-0.08625539,0.01518879,-0.01807527,-0.04835995,0.46707281,-0.04014967,-0.01822514,-0.00283853,-0.03566600,-0.01653131,-0.03602345,-0.03614856,-0.03945124,-0.02808239,-0.05538383,0.01547811,-0.02271481,-0.06304016,0.02199054,-0.02677796,0.01135019,-0.03291281,0.00370458,0.03032837,0.00078852,0.01094943,-0.00190894,-0.03123690,-0.00858446,-0.00756398,-0.03208565,-0.06458764,-0.06612075,-0.00837185,0.00120805,0.01397675,0.08790118,0.51163405,-0.04844108,-0.02534879,0.03850473,-0.05648100,-0.04122175,-0.05748742,-0.05290714,0.01928463,-0.01883055,-0.06135586,0.49639648,-0.03066502,0.00286262,0.02722252,-0.02424987,-0.00292632,0.00583532,0.01838856,-0.00479514,0.01049444,0.02391356,0.03502960,-0.04984779,-0.04503687,-0.01841209,0.00493074,-0.02825735,-0.02770382,0.02714810,-0.00302756,-0.05003393,-0.04342708,-0.00108819,-0.06120282,0.01163405,0.01665701,-0.01735303,-0.01665442,-0.03673384,0.02642318,-0.03113790,-0.00180587,-0.04839097,-0.07859459,-0.06979942,-0.02153041,0.01333410,0.01271712,-0.14910485,-0.00964536,-0.04467419,0.00026799,-0.03711537,-0.02358120,-0.00334875,-0.03136752,0.00932488,0.07799519,0.00469083,-0.00986491,-0.01855343,-0.03372488,-0.03681104,-0.02915693,0.00030257,-0.03173866,0.01272724,-0.03853860,-0.24530458,0.00046213,-0.06503819,-0.00391121,-0.03227836,0.01558516,0.01059752,-0.03309030,-0.03791527,0.00745152,-0.02705374,-0.00962888,-0.15991017,0.02939929,-0.06247324,-0.06703784,-0.02802166,0.01591921,0.01240155,0.22455814,-0.01781561,0.01372463,-0.01803451,-0.03697827,-0.00513626,-0.01338173,-0.02607536,-0.01077105,0.05238546,0.00292917,-0.05427098,-0.00640261,-0.04848145,-0.02820751,-0.09424727,0.03057467,0.01176274,0.00074606,-0.02777703,-0.05502588,-0.01155607,-0.02335936,-0.00490424,-0.01040088,-0.02835831,-0.05875861,-0.04099452,-0.00567954,-0.04201967,-0.02082927,0.02752304,-0.01596984,-0.01170790,0.01451379,0.01955506,0.04825614,-0.05409097,0.71816355,-0.00662415,0.07790960,-0.00005478,0.02121055,-0.02132259,-0.04555244,-0.00273631,-0.02905482,-0.04051625,-0.02946129,-0.00056122,-0.03809253,-0.04769975,-0.02946066,-0.02493561,-0.03841325,0.00363280,-0.04783139,-0.02485805,0.02525364,0.02809884,-0.02116202,0.12214504,-0.06064141,0.09886071,-0.03786147,0.01676702,-0.04799444,-0.00105174,-0.00562554,-0.04714817,-0.03641270,-0.02313663,0.00962387,-0.01825640,-0.04860767,-0.02225244,-0.04274842,0.02201572,-0.04625037,0.01723531,-0.00610685,0.01188420,-0.05210757,0.01196501,-0.05275008,-0.03510347,0.00845973,0.01320742,-0.01717125,0.00512790,-0.01136118,-0.12975724,-0.00216198,-0.06982806,-0.05268432,0.00264515,0.00388043,0.00326197,-0.02144393,-0.00579257,0.28341609,-0.05632946,0.00865609,0.01974244,0.47823885,-0.00388609,-0.02265983,-0.02629671,0.00163646,0.00398150,0.09553082,0.00404183,0.04300593,-0.02970191,-0.05861254,0.04234120,0.01895824,0.03190542,0.00535604,0.02008916,-0.01556100,-0.03342987,0.24639764,-0.05103919,-0.02257672,-0.02181945,0.13906397,-0.01076861,-0.01495010,-0.00038804,-0.06334596,-0.03867047,-0.02643497,0.01567238,-0.04309372,-0.00651436,-0.00787015,-0.02724496,0.01154448,-0.00266445,-0.04519125,0.00371912,0.00014713,-0.04182902,-0.00448737,-0.02118144,-0.03780679,-0.00704871,-0.08323694,0.00079647,-0.00155413,-0.10382118,0.01063767,0.01055147,-0.05761284,0.01628508,-0.01403104,-0.01643909,-0.02729342,-0.05754041,-0.21744128,-0.02789917,-0.03151017,-0.07187247,-0.01533006,0.02564427,0.01358586,-0.03431966,-0.05941158,-0.05541013,-0.00660766,0.01948033,-0.05302283,-0.00506422,-0.03851075,0.00853496,-0.00053875,0.01275391,0.02373746,-0.02225694,0.04414341,-0.00915015,-0.05184774,0.01216443,-0.01768474,-0.03665985,0.02610963,0.01562332,-0.04155778,-0.02444499,0.00269789,0.01315819,0.03749264,-0.00940602,0.00673220,0.01087999,0.00555711,-0.05287711,-0.00897557,0.04971056,-0.00422828,-0.05397736,-0.04251819,-0.09631445,0.01328268,0.00223578,0.01421582,0.02226830,-0.04205768,-0.00907298,0.01633810,0.00585886,0.00029136,-0.00828940,0.02105200,-0.33621657,-0.01565366,0.01049079,-0.01265679,-0.02540063,-0.01832631,0.00715154,-0.04781115,-0.02641164,-0.03347732,-0.04706363,0.00059133,-0.01232189,-0.00219220,-0.05047337,-0.02062362,-0.02373234,-0.05818658,-0.06784698,-0.52810001,-0.08580351,0.02187208,-0.02120863,0.44848117,0.01275843,0.37057036,0.21132170,-0.05783729,-0.00126138,-0.01109825,-0.03558072,-0.00148277,0.00760934,-0.36714077,-0.04545705,-0.02095594,0.00143569,-0.05949869,0.02449107,-0.03024421,0.19477680
0.03231299,-0.02170009,0.21128261,0.16450880,-0.00041898,0.14351936,-0.08598530,-0.22077732,0.07744811,-0.38930058,0.10243468,0.06082681,0.02701407,0.03877243,0.11340489,0.18605229,0.02169737,0.01352093,-0.10700860,0.06906211,-0.18264575,0.21983583,0.09097894,0.07595085,0.05677164,-0.09227156,0.15627219,0.09973650,0.02447840,-0.34279248,-0.07005939,0.16256300,-0.02083640,-0.05327830,0.02449570,-0.09887246,-0.39071584,0.16119815,0.10795087,-0.01428924,-0.17541589,-0.34920689,-0.15187761,-0.00905475,0.10616402,0.10734067,0.04837304,0.27481967,0.17586143,0.19891442,0.17893340,-0.02295693,0.06833950,0.02458545,0.06789232,0.03747085,-0.19317444,0.04303878,-0.00332055,0.08920833,-0.04859535,0.00742373,0.23548801,-0.28556964,-0.27600667,0.10776794,0.11215051,0.08083766,0.22800513,-0.03984462,0.01001314,0.09329408,0.22243947,0.03756495,0.15832512,0.29474121,0.01090803,0.26439008,0.13070783,0.11283123,0.08712319,0.05187730,0.13588321,-0.27004024,0.00352262,0.06721262,-0.03453766,-0.03230627,0.14816907,0.02245713,0.04393489,0.05793573,-0.12133426,-0.03487815,0.11520820,-0.36664414,0.03173477,0.09806364,0.23474431,0.16009405,0.09973059,0.06234536,-0.27565265,-0.08274993,-0.00256121,-0.03362206,-0.24605855,-0.03230826,0.12948497,0.11648404,0.10387941,-0.14697129,-0.00018824,0.18967068,0.10245360,0.25325504,0.03057174,-0.20044760,0.01056262,0.09476075,0.06542776,0.03791657,-0.03949533,-0.13165267,0.16544066,0.28664491,0.02179207,0.24821198,0.14824067,-0.13844399,0.20089729,-0.18141410,0.04247063,0.10259812,0.14855307,-0.20487861,-0.00779450,0.27100930,0.05988957,0.07673772,0.10771097,0.10879483,-0.57343656,0.14699613,0.01729793,0.06414376,-0.12137521,-0.10787943,0.18229885,0.09648835,-0.04378562,-0.04153447,-0.28460065,0.26858950,-0.43112490,-0.03804801,0.12991472,0.00189544,-0.19857584,0.18312761,-0.06883426,0.05994148,-0.08971645,-0.02503222,0.05218749,0.03935238,-0.01483483,-0.18843831,0.07652028,0.07037989,0.09014475,0.12341572,-0.07526103,0.05996591,-0.18630281,0.14692312,0.13755035,0.18033631,0.04940348,0.02334035,0.04017890,0.10718784,0.02168238,0.03579751,0.16416109,-0.03665651,0.01737330,-0.10090210,0.13818337,-0.02362237,-0.27940282,0.05773862,-0.03524790,-0.02032400,-0.08318435,0.20578481,0.02213621,0.04643711,0.10758958,0.09491991,0.01475048,-0.29829553,0.12407922,0.05296353,0.20165874,-0.08172773,0.08444249,0.00404738,0.09097999,0.10517576,-0.00012631,0.03744704,-0.01967396,-0.01916639,0.27848211,0.00812091,-0.21760802,0.13112892,-0.01173798,0.25205228,-0.19651502,-0.24139188,0.21819596,0.10816129,0.10265233,0.25946850,0.16815008,0.28924984,0.14079019,-0.22577472,0.10105433,-0.02664960,-0.14296843,-0.06567606,0.14420693,0.01508936,-0.05897958,-0.04331814,0.08338282,-0.06799032,0.02856334,0.07918408,-0.07474723,-0.06806443,0.07830484,0.13781935,-0.08199222,0.07408511,0.02510097,0.12209436,-0.20030488,0.01402588,-0.35970062,0.03968952,0.12324122,-0.07905503,0.18105967,0.03754637,0.04150271,0.15861601,0.23763913,0.18107930,0.00623624,0.08959892,0.27424046,-0.00797661,-0.11362290,0.10840616,-0.03034007,0.24144985,0.16270921,-0.05551583,-0.00222322,0.02429366,-0.16848196,-0.07338049,0.32735139,-0.03795093,-0.30334267,0.12046987,0.02796336,-0.03050365,0.09543524,-0.06061151,0.08386780,0.26220691,-0.08378959,0.04611073,0.05180030,-0.11032245,0.15853179,0.16607432,-0.18376628,0.10546546,-0.03314690,0.15996598,-0.02615754,-0.03389866,-0.18869086,0.03986793,0.11385206,0.12344586,-0.07796277,0.03583458,0.02181998,-0.37653843,0.07472938,-0.08722074,0.11825531,0.21287276,0.04114610,-0.04195694,0.01700775,0.13102958,0.12099522,0.15659085,0.08208481,0.25207654,0.07134827,0.06359030,-0.02725142,-0.06598398,0.03585580,0.21234298,0.11686382,0.06574142,0.10623885,0.28676060,0.06274538,-0.38936350,0.04800443,-0.12295204,0.12968926,0.03523208,0.17623232,-0.10838106,0.08877136,-0.03408791,0.13353096,0.20016775,-0.39621124,-0.04337158,-0.03514279,0.13531218,0.01524862,0.06219209,0.08356780,0.14948174,0.06331936,0.14323571,-0.09899229,-0.06198949,0.00260587,-0.10898530,0.24522372,0.06322126,-0.31988505,-0.03113961,-0.05098698,0.04093098,-0.01023753,-0.09661626,-0.24221165,-0.10858543,-0.13404609,0.05511770,-0.21634509,0.00203746,0.09720762,0.07457823,0.05573748,-0.03267140,-0.36104873,0.03568430,0.04922198,0.18593866,-0.08787769,0.09329500,0.10889151,0.08124334,-0.11738568,-0.05941018,0.18449737,0.07897523,0.04413431,-0.20136370,0.08737014,0.02983334,0.18636382,0.16435939,0.08395161,-0.07072378,-0.09691390,-0.12979963,-0.59901106,0.03123175,0.07301039,-0.40043283,0.13094380,-0.00762126,0.05428341,0.10034218,-0.19326657,0.03898076,0.07588960,0.13015874,-0.01928203,0.05054718,0.03878673,0.05288376,-0.02814332,0.04223827,0.16459613,-0.06142600,0.08310148,0.33966434,0.09651782,0.08780058,-0.02752917,-0.13337781,-0.33352861,-0.04874745,-0.29686552,0.01416984,0.29769909,0.15155612,-0.58019090,0.01310228,0.15626453,-0.21674012,-0.03196646,0.15225142,0.03083644,0.28675106,0.09882108,0.08243755,0.04133807,0.00659980,0.14967465,-0.02101127,0.13855028,0.02631283,0.10532650,-0.30394137,-0.26090887,0.15134671,0.11189917,0.01020725,-0.32795936,0.02780433,0.00452405,0.06466550,0.10594754,-0.00895294,0.12914062,0.13608810,0.06489956,0.18190186,0.12679377,-0.14850667,-0.17624542,0.05504795,0.00683724,0.07541429,0.07579424,0.16457701,0.05160780,-0.01065482,0.09291317,0.06535732,0.09637536,0.12280639,0.13649093,0.08468920,0.20520316,0.13235696,0.02501196,-0.03367145,0.16508430,0.04342328,-0.10159165,0.14695823,-0.06394133,-0.00000857,-0.08274344,-0.05087588,-0.03339420,0.13975123,0.01157862,0.13455328,0.18707144,0.03371507,0.14397690,0.24201395,0.06996347,-0.06929558,0.08944493,0.04844231,0.20688756,0.06722805,-0.08817391,0.00126138,-0.09942678,-0.00506356,0.21436568,-0.31777340,0.06281482,0.20073555,-0.05463543,-0.16928951,0.00359560,0.00223422,-0.02913460,0.13150001,0.18795356,0.16132081,0.03630774,-0.11363793,0.08706842,0.11597876,-0.11721771,-0.09934518,0.03149291,0.14702190,0.06788600,-0.13671267,0.07888553,-0.04356301,0.11593267,0.00805037,0.07398458,-0.43278360,0.09443934,-0.07342380,0.18357778,-0.04031787,0.05008981,-0.55192614,0.09064461,-0.02799467,0.07828164,-0.04403828,0.02691963,-0.00368772,0.14966111,0.08747839,0.13416830,0.13509870,0.00820767,0.04661193,0.00615818,0.07285743,0.11166488,0.12328421,-0.10202719,0.14108376,-0.44818544,0.07975625,0.09654933,0.04889005,-0.02438114,0.08974739,-0.31169271,-0.43426824,0.07534804,-0.10888070,0.34332174,-0.06166735,0.13070513,-0.03007567,-0.05580693,0.05204045,-0.04607290,-0.00092290,0.12930553,-0.04994274,0.04112991,-0.20596547
0.09033958,0.19991080,0.03964439,0.09082059,0.04528866,0.02300827,0.05133529,-0.13719189,0.00627668,-0.35318410,0.00907434,0.11765716,0.10135514,-0.05728520,0.03949023,0.01278556,0.07002750,0.09068345,-0.05156192,-0.04966423,0.17622736,0.13545108,0.05023826,0.08066463,-0.14440998,-0.09221547,0.08172677,0.04139930,0.15304671,0.23297861,0.09049444,-0.12125246,-0.12461990,0.03137446,0.04087888,0.00982717,0.20182271,0.10307040,0.01662265,0.15761693,-0.22214493,-0.10711755,-0.06232670,0.21290101,0.04692442,0.09848443,-0.02375231,-0.21507551,0.00682318,-0.04807799,0.27999184,0.04175851,-0.07438421,0.20746106,-0.30345362,-0.03096751,0.16053022,0.01801020,0.11503887,0.10251731,-0.00772339,0.04955693,-0.09909251,-0.23820141,-0.08341662,0.15377983,0.03492476,-0.02293032,0.02888569,-0.21169983,0.02565580,-0.06219453,-0.10602544,0.23895893,0.13180964,0.16700888,0.26550314,0.02152695,0.03997624,-0.02649464,0.04358303,0.07518800,0.10611136,0.16329068,0.33606756,0.15626752,-0.06952740,0.10101264,-0.04554201,0.20669128,0.03740486,-0.04328568,0.17522620,-0.00700100,0.12587231,-0.03017907,0.01123372,0.07806367,0.03415211,0.31702802,0.06983178,0.06543609,0.10020675,0.14971706,0.07230106,-0.00328055,0.09810170,-0.00857527,0.07427882,0.21428676,0.07056869,0.12942798,0.16308320,0.10983939,0.03592343,-0.13166592,0.22664402,-0.36117893,0.22804664,-0.03365231,-0.00283506,0.08092624,-0.09001458,-0.06508821,0.10747666,-0.04247078,0.10284693,-0.06812342,-0.11825304,0.03158394,-0.03533188,0.04838435,0.17178173,0.09448996,-0.13566451,-0.06910836,0.06055347,-0.19286449,0.01312571,0.02966335,0.10339738,0.06936550,-0.41546196,0.19515596,0.03593270,0.03130986,-0.04784758,-0.02593212,0.05767468,0.03669799,0.03555141,0.02030790,-0.00497668,-0.01651330,-0.44149765,0.11729081,-0.00264424,0.07396218,0.20474850,-0.04270131,0.10846777,0.00110409,0.30149674,0.04957619,0.11428004,0.18940061,0.09086738,-0.29066598,0.06318383,0.02813349,0.09961227,0.03078771,0.20518811,-0.05399363,0.26733124,-0.15206540,0.03922711,-0.08399349,-0.09985239,0.33963710,-0.08967140,0.00831854,0.09996624,0.02069786,-0.03830884,0.19285570,0.30209813,0.13179234,0.19875696,0.20830081,-0.03492210,0.05796263,0.21615532,-0.01519132,-0.27565697,0.10590031,0.16228123,0.01260696,0.10203478,-0.09114675,-0.09074438,-0.03300829,0.03463082,0.14650643,-0.00207900,0.16555716,0.10538168,-0.07409684,0.03523859,0.08713347,0.16167280,-0.00044609,-0.21739173,0.14051166,0.06507315,0.23124877,-0.01384408,0.16032633,0.10152267,0.24932313,0.38266370,-0.19422519,0.00248489,0.02707939,0.07749022,-0.35519075,0.26857436,-0.14396107,0.01853498,-0.19626009,0.07118327,0.05159732,0.04158401,0.07810137,-0.16601425,0.17174025,-0.02400208,-0.00338293,0.04460459,0.02966696,-0.00773129,0.02108247,0.20843971,0.14243379,0.05867607,-0.07207848,0.04977804,0.05718886,-0.03989228,0.01109858,-0.12326508,0.01808159,0.20078635,0.15072376,0.00179445,-0.11279159,0.13132435,0.19840825,0.09886016,-0.23218125,0.02533755,0.03007440,0.01894482,0.07707493,0.18074843,-0.14887241,-0.04233363,0.03954460,0.12651686,0.02682386,0.24208619,0.13882151,-0.02128003,0.13158694,0.29242536,0.12623523,0.08421263,0.14406557,0.15018557,0.12222164,0.07163233,0.09061491,-0.45463929,-0.05777208,0.09841680,-0.08141313,0.22789271,0.01280610,0.05692652,-0.07921081,-0.16000636,0.09976969,-0.05428068,-0.01254362,0.24665153,0.05341128,-0.08718411,0.01413165,-0.26249790,0.03598048,0.15782726,0.10934056,0.15478030,-0.48523924,0.02916514,-0.00335112,0.15736902,0.08873260,0.11725724,0.24284445,0.00915156,0.23999925,-0.04236868,-0.04646669,0.02578194,0.17209865,0.18851058,0.12813179,0.03025689,-0.22171982,0.23391202,0.07009120,0.10332426,0.04191116,0.03605401,0.05188762,-0.06773575,0.10397568,0.08087254,-0.01329327,0.09453171,-0.07375092,0.08460094,0.04782830,-0.23728056,0.01959000,0.06717353,-0.01370056,-0.10685688,-0.05794018,-0.24211568,0.08377592,0.01526875,0.07309639,-0.03316310,0.01675017,-0.10846453,-0.12710591,0.03862043,-0.15797733,0.06246457,0.13847381,0.31455052,-0.03343176,0.20239128,0.04094999,0.25208673,-0.01822807,0.14545102,0.09645930,-0.15901807,0.05854886,-0.03283757,-0.10981955,-0.18948610,0.28074434,0.14555925,-0.04783056,0.21507712,0.00593651,0.02066812,-0.08441418,0.12576354,0.07886326,0.03411184,0.01979546,0.02947265,0.04566155,0.35339150,0.09960567,0.03872363,-0.00321840,0.09128396,0.06799593,0.15866736,-0.13152437,0.07221003,0.02936309,0.16737628,0.06762723,0.08676148,0.11196170,0.11154260,0.16586304,0.02719378,-0.02600358,-0.01096422,-0.03904289,0.11356985,-0.33770311,0.10199571,0.07665935,0.04181883,0.05527039,0.10268401,0.08080564,0.23186669,0.02247360,0.05679737,0.03510520,0.08577324,0.01419135,0.20036002,-0.21979441,-0.13443416,0.07728340,-0.07207912,-0.04961286,-0.00867958,-0.10605548,-0.03719133,0.16538949,-0.27100903,-0.00167543,0.00939258,-0.08239447,-0.21890411,0.01822675,0.11482884,0.01873064,0.05928897,-0.01887258,-0.05123991,-0.02953087,0.02978541,0.11929747,0.01673317,0.33410934,0.17591082,0.08745368,-0.02491767,0.07582575,0.16368952,0.20757706,-0.37449402,0.20612511,0.08999868,-0.17219219,0.05952879,0.19890693,0.05610422,0.01590976,0.04709025,-0.35636488,0.00253751,0.26513299,0.01849878,-0.15122734,0.22701439,0.11721539,0.11437231,0.22364837,0.21109173,0.04965070,0.12964837,0.01610631,0.08340209,-0.03159264,0.24909820,0.05377574,-0.06177658,0.17424779,0.00303584,0.24227777,0.04096624,0.04602569,0.13997222,-0.05420583,-0.01290133,0.06766762,0.15907976,0.12403428,-0.07960085,0.10935315,-0.03157550,0.09234767,-0.08062798,0.07118642,0.11809774,0.33004045,0.18122393,0.12822275,0.07662428,0.15713543,0.02927457,0.09355196,-0.05248000,-0.00356336,0.01463272,0.12384093,-0.09554624,0.23365110,-0.11498987,-0.23925649,-0.04384487,-0.10503338,-0.07571023,0.27866626,-0.17695749,-0.09569010,-0.00926742,0.11552666,0.08234847,0.16134056,0.06880204,0.05275195,0.05980427,0.01066866,0.17439863,0.02367149,-0.08379828,-0.26999220,-0.04214548,0.04801251,-0.03560698,-0.17077157,-0.14749134,0.06024067,0.09491063,0.17404498,0.08428038,0.21187697,0.05995058,0.03582202,0.13808008,-0.08377405,-0.04311320,-0.23717870,0.01320992,0.14186047,0.00357553,-0.00758109,-0.15162010,-0.21642949,0.14881369,-0.18138197,-0.10506434,0.02711392,-0.01616505,0.02358586,0.08021761,0.16579396,0.13198350,0.05798136,0.11508165,0.27801841,-0.30514219,-0.04757587,0.03585615,-0.00155757,-0.03994732,0.07958623,0.10885374,-0.05247314,-0.06368857,-0.19026497,0.10771698,-0.00594794,0.21549031,-0.15337382,0.18122154,0.08962606,0.03492694,0.02406373,0.03650522,-0.03126132,-0.28854033,0.05037095
0.00407560,-0.00041513,-0.03278811,0.02124131,0.00781601,0.02575739,-0.07171873,0.18622802,-0.00003798,0.05068775,-0.11662773,-0.04091803,-0.25534165,0.05897712,-0.02483776,-0.04164329,-0.03581767,-0.04110842,0.10399392,0.00893126,-0.05654761,-0.06668105,0.00048528,-0.06442405,0.00147020,0.05635687,-0.08646969,-0.06537368,0.02558271,-0.08692442,-0.12120534,0.04953765,0.01681486,-0.21777977,-0.05839533,-0.00399580,0.58652693,0.05113196,0.08101550,0.00901833,0.40225622,0.10341866,0.05434755,-0.16967833,0.05489736,-0.00806140,-0.05033567,0.07267355,-0.00999099,0.01613009,-0.08342461,-0.03434052,0.05879422,-0.10653918,0.00773124,-0.00318537,0.06236634,0.08151350,-0.05548561,-0.13134637,-0.02733339,-0.06924009,-0.07321719,0.51405615,0.27967399,-0.09768696,0.01039865,-0.05896063,-0.08200156,0.08664652,0.02034687,0.02492546,0.23559366,-0.05154329,0.22308950,-0.03336820,-0.07760227,0.05716377,0.09212432,0.00368836,0.01921078,-0.06630243,-0.02848649,0.02550818,-0.04425108,-0.12072550,-0.15799475,-0.08484554,0.08508702,-0.07154001,-0.17080313,-0.06380925,0.00408263,-0.15618503,-0.00912429,0.35228395,0.06675167,-0.01179998,0.01645574,0.04204957,-0.03359140,-0.02026413,-0.00067853,-0.03616449,0.18048783,-0.05080133,-0.08343758,0.06374914,-0.03136721,-0.00271995,-0.03285719,0.03610940,-0.08734734,-0.12182897,-0.09211077,0.01563343,-0.00343305,-0.19545732,-0.03823474,-0.04238478,-0.02246388,-0.04025839,-0.04336201,-0.01943593,-0.07327513,-0.01121514,0.02983338,-0.06974230,-0.04297111,0.14718537,-0.09341191,-0.05744659,0.07191163,-0.03826335,-0.12209614,0.05578180,-0.15610516,-0.08743687,-0.00287848,-0.08163994,-0.10074040,0.12551287,0.56723034,-0.06192936,0.05143420,-0.05102626,0.02474991,0.00110465,-0.16408700,-0.03878012,0.00204372,-0.04016688,0.56259292,-0.01843618,0.63541496,0.03099898,-0.04984371,-0.03449859,-0.08008395,0.03417417,-0.03144278,-0.03139102,-0.08703438,0.00691943,-0.09030781,-0.02502290,-0.01207271,0.30177864,-0.12262744,-0.01359654,-0.07810298,-0.10916745,-0.05443871,0.09424164,-0.00465580,-0.04496807,-0.01214519,0.04538294,0.05883681,-0.12707639,0.03566166,0.04672708,-0.03019694,-0.00010204,-0.01448424,-0.08065760,-0.05417974,-0.10682476,-0.08063886,-0.02740842,-0.12519613,-0.04892568,-0.02917797,-0.05906669,0.16003916,-0.12062573,-0.06756903,0.02659675,0.02586330,0.12273715,0.11129423,0.73638308,-0.03227062,-0.13763396,0.02740301,-0.09687126,-0.03790002,0.02821627,-0.11314874,0.02350199,-0.09530950,-0.04410344,0.02449570,-0.06579000,0.00640245,0.00847463,-0.05151441,0.01084215,0.00247894,-0.00201818,-0.07639061,0.03035069,0.01209164,0.03210187,-0.02042468,-0.01865399,-0.04312252,-0.00835138,0.01037010,0.07738844,-0.02369320,0.01166650,-0.00192262,-0.12385616,-0.12365095,-0.05891612,-0.09406126,0.02859254,0.00507560,0.08072987,-0.05199567,-0.06619535,-0.01704460,-0.07471680,-0.02592114,-0.16770071,-0.16190743,-0.00472815,-0.04689677,-0.08834432,0.02064690,-0.00457692,-0.13601425,-0.01315028,0.01534758,0.14165331,-0.02856259,-0.02443906,-0.03371423,0.11072379,-0.00798166,-0.03582571,0.01296132,-0.03325774,-0.07433358,0.10645229,0.02102257,-0.03240944,-0.13923860,0.01732370,0.00911342,-0.01674074,0.06738535,-0.02874437,-0.04810271,-0.00589359,-0.03536516,-0.08456879,-0.03012285,-0.07459859,-0.01809953,-0.03662146,0.18152006,-0.21284834,-0.09240057,-0.11446917,-0.04335370,0.03198507,-0.03172640,0.04278618,-0.00307846,0.02337312,-0.16136286,-0.04583196,-0.04411976,-0.04668917,-0.01190603,0.00018600,-0.01549302,-0.00548571,0.00077602,0.01643156,0.02052169,0.13231802,-0.02504713,0.13063282,-0.02392957,-0.10882756,-0.03494082,-0.10860888,-0.04440589,-0.00054913,-0.09931720,0.02942492,-0.04423280,-0.34960535,0.00367183,-0.05587188,-0.08819463,0.13369657,-0.11148446,-0.10474203,-0.15930867,-0.06092362,-0.03961735,-0.07147052,0.17085008,-0.18969844,0.03277829,-0.19885768,-0.06228445,0.08865508,0.01453063,-0.04948685,0.00443600,0.02488634,-0.07845461,-0.04116908,-0.10100153,0.07021289,0.04259515,-0.09900542,-0.06602629,0.01899511,0.06002305,0.07880793,0.00906617,-0.04357882,-0.05259633,-0.03317177,-0.09962419,-0.15434185,-0.00011636,-0.04863725,-0.05547133,-0.02065369,0.02015737,-0.01873374,-0.10690057,-0.02452603,-0.34679556,-0.06534016,0.00829216,0.26492673,0.06751687,-0.02494034,0.02050439,0.01055316,-0.03342675,-0.02075283,-0.02693712,-0.04685420,-0.03820038,-0.05555933,0.02703604,-0.03999853,-0.07710165,-0.05898605,-0.11169337,-0.04422101,-0.07315943,-0.11138589,-0.18408789,-0.07975008,-0.05205815,0.07907891,-0.00548072,-0.07184087,-0.09217829,-0.05062237,-0.01872857,-0.07606460,0.00296600,-0.10811704,0.31468430,-0.00492772,-0.00363862,-0.08001911,0.03918033,-0.01977041,-0.06889113,0.00566002,-0.00500795,-0.11378869,-0.18211991,0.01568585,-0.06380827,-0.03472417,0.08120375,-0.00899501,-0.03439345,0.02671277,-0.00862873,0.10823999,-0.00318724,-0.10736769,-0.09381749,0.03402221,-0.07012146,-0.03413712,0.09140410,-0.09440869,0.13229923,0.00358321,-0.05170681,0.00516820,0.49098444,-0.02707450,-0.09309044,0.38928711,-0.08177318,-0.11450951,-0.06174233,-0.12705155,0.01029688,-0.01463078,0.04191123,0.01424793,-0.09258865,-0.08762869,-0.04461730,-0.07832621,-0.03406498,-0.01044557,0.37954736,-0.11855293,-0.04505599,-0.01325992,-0.01850565,-0.04546788,-0.03835075,0.03532874,-0.02862502,0.09970728,-0.07715579,-0.04321627,-0.08677846,0.00922746,-0.13930474,-0.14539693,-0.11888634,-0.05812128,-0.08778000,-0.01850880,0.00403478,0.05357796,-0.04516995,-0.04503980,-0.12410194,-0.07452606,-0.04587752,-0.06701331,0.01508970,-0.23558977,-0.03394583,-0.03617696,-0.11567742,0.08087242,0.05281761,0.11353643,-0.06089001,-0.06186228,0.17962638,-0.05645238,-0.08344617,-0.15548097,-0.10923454,-0.04660235,0.03270344,-0.00951656,0.04453593,-0.13926792,-0.06119142,0.03097854,-0.05957660,0.01934783,-0.05359572,0.11204048,0.00994904,-0.01086553,-0.06587737,-0.04648291,-0.11978367,0.15184341,-0.06292572,-0.04034301,-0.07437354,-0.05325393,-0.00938786,-0.06130851,-0.05073572,0.04437985,-0.02346593,-0.07462661,-0.12681426,-0.11447281,-0.09140073,-0.03043357,-0.01651639,-0.03152206,0.07416305,0.36213541,-0.02909130,-0.01336027,-0.02895383,0.08310623,0.00454778,-0.24067278,0.00655288,-0.01565010,0.04988249,0.01740270,-0.16485459,-0.01749462,-0.04966841,0.10579164,0.05495553,0.48085257,0.00506093,-0.01551760,-0.03401140,-0.00019069,0.13354512,-0.00667133,0.00596703,-0.08258569,0.06030476,0.00267679,-0.00275457,0.03218810,-0.03756036,-0.09200498,-0.13147384,0.01501763,-0.00412787,-0.04014109,0.36222371,0.00055329,-0.02440675,-0.06650611,0.17931613,0.07809234,-0.06735101,0.84887940,-0.18257900,0.09129145,-0.05895063,0.07471913,-0.00784003,-0.05738216,-0.23228055,-0.02104080,-0.03632864,-0.01583603,-0.18538389,0.04567290,-0.06790353,-0.21069235
-0.00633500,-0.14537516,-0.35417825,-0.20327058,0.09332548,-0.14514580,-0.07366571,0.09664591,-0.16993137,0.49099147,-0.04950662,-0.27269119,0.06740292,-0.17187881,-0.05754524,-0.07023504,0.10474687,-0.01814915,-0.04685958,0.18693629,0.00061762,0.07276098,-0.04632478,-0.25759229,0.09316933,-0.11349849,-0.21194936,-0.10747606,-0.15042922,0.05895345,0.18108027,0.48610586,0.06033494,0.23051974,-0.23128806,-0.03441676,-0.25020969,-0.33802259,-0.20314549,0.07830448,0.40228778,0.29700869,0.11338772,-0.06074533,0.01646324,0.05330644,-0.01412622,-0.00549927,0.24839672,0.33529502,0.03344453,0.20705727,0.09132174,-0.18547791,0.08309876,-0.02486650,0.28191569,-0.18301888,-0.02855142,0.02339035,-0.04943550,-0.07304615,0.21753475,-0.27605489,-0.03945069,0.40572613,-0.23515089,0.01442225,-0.15138726,0.14534324,-0.16994716,0.13244934,-0.26879725,-0.30526692,0.11644402,0.15809613,-0.15353917,-0.43466634,-0.20486084,0.00762745,0.06458775,-0.14018260,-0.32947859,0.14797784,-0.13318656,-0.10809199,0.08237777,0.00837998,0.13653210,-0.13714837,0.14733388,-0.00311814,-0.11482896,0.29905543,-0.25019005,-0.44754568,0.10722140,-0.16700724,0.02121335,-0.22831093,0.00227039,0.00800625,-0.05388261,0.14781028,-0.20403323,0.02397600,0.12528422,0.20876400,0.00562730,-0.12197786,0.09727407,0.24279301,-0.09838251,-0.04408801,-0.09554026,0.00383487,-0.24604110,0.74911451,-0.04535524,0.26567057,0.02860470,0.42837366,0.13671474,0.17961314,0.28471205,0.40045908,-0.19679034,0.30117247,0.30464458,-0.01007192,0.05431837,0.20106991,-0.30799776,-0.12618744,0.22912771,-0.00838546,-0.09368606,0.15283787,-0.03433692,-0.00756505,0.04496277,-0.22317781,0.74992907,-0.08663989,-0.19111775,0.01565684,0.30560517,-0.33541068,-0.17682993,-0.02181946,-0.05143856,0.45524558,-0.25952375,0.21327940,0.89000076,0.19205387,-0.25006074,0.08101609,0.05106095,0.32709977,-0.25651410,0.28396922,0.05621301,-0.31051281,-0.01563135,-0.27900672,0.02396474,0.39926231,0.08703372,-0.02791181,0.10845440,0.09399547,0.24346963,-0.19651413,0.21208744,0.16884193,-0.04843017,0.21698347,-0.20459925,-0.00280448,-0.30571833,-0.06893402,0.03260032,0.02081039,-0.01875394,0.14713056,-0.08431084,0.06144240,0.11880318,0.02794545,0.53437233,-0.07885436,-0.03988022,-0.01676685,0.20141503,0.05285733,-0.15927029,0.35167956,-0.17960902,-0.15222783,0.14374164,-0.26379815,0.22651912,0.17640381,-0.26128107,0.35365236,0.02029552,-0.14276564,-0.27290654,-0.06111071,0.02882120,-0.20942868,-0.22072494,0.10928351,-0.10230887,-0.07749038,0.09521558,0.04028842,-0.47930267,-0.15437669,0.15496230,0.00623690,-0.30702916,0.04980037,-0.26789555,0.71500540,-0.28740090,0.43660396,0.08008213,0.13660496,0.07649525,-0.28185472,0.17115168,-0.01607960,0.79216701,-0.01704985,0.33325577,-0.13996263,-0.15297271,-0.19582140,0.02441396,0.08841082,-0.28595126,-0.15370026,0.08244114,0.36450022,0.21610120,-0.29986453,-0.06634294,-0.13545127,0.30621880,0.08478259,0.05646568,-0.27081069,-0.19505103,0.24674015,-0.19540606,-0.10007502,-0.01013715,0.12920573,-0.12131326,0.03336784,-0.26460052,-0.02733663,-0.25523451,0.66711038,0.15017205,0.16790837,-0.15707549,0.33753458,-0.21411702,0.16929623,0.06097930,-0.12039900,0.03089367,-0.37877944,-0.09573200,-0.13651891,0.28975782,-0.24162656,0.29725823,-0.31462303,-0.09578981,0.36625350,-0.12504113,0.28462583,-0.04686254,-0.24954839,0.10875800,0.13964134,0.33593214,-0.09744485,0.06499694,-0.03416336,0.47547820,-0.04980690,-0.08975084,0.01926038,0.22559373,0.14226533,-0.13508916,-0.07859223,0.07556871,0.11180086,0.01896392,-0.10379364,-0.17213753,-0.03608728,-0.03297161,-0.19725297,-0.00371790,-0.15935601,-0.37772542,-0.08512942,-0.10918494,-0.03972447,-0.15950248,0.29229853,0.06481945,0.00475036,0.32907510,0.01744754,-0.21746749,-0.15547471,-0.16075706,-0.05237714,0.09138311,0.06748276,-0.28020164,0.23368895,0.02922885,0.07930957,-0.26438987,0.00416294,0.26495451,-0.12696788,0.03695877,0.24810289,0.12626313,0.02124932,0.05116458,0.03019702,0.13243780,0.17826612,-0.11337228,-0.22400026,-0.12128720,0.11782487,0.07672102,-0.08496816,-0.23040310,0.13736182,-0.13879131,0.21073999,-0.15475805,0.05521712,-0.10663192,0.03985538,-0.03880555,0.15854128,0.25870866,0.27679193,0.06832948,-0.03123602,-0.20412408,-0.16572769,-0.04183042,-0.06801751,-0.27897418,0.28990808,0.00076921,0.00118601,-0.11445845,-0.00198326,0.16619113,-0.00388954,0.07057392,-0.20465231,-0.18568118,0.14860752,0.03262772,0.22701475,-0.08469456,-0.18533686,0.20920137,0.35041499,-0.17837402,-0.04801570,-0.08575054,-0.15214039,0.00725545,0.52963328,0.11269093,-0.21764942,0.11939319,0.00976871,-0.00901892,-0.01348671,-0.40006426,0.28713006,0.02467126,-0.02463289,0.11344821,0.02986375,0.35977516,0.05780600,0.06416208,-0.04860948,-0.15266216,-0.01338772,-0.10079414,-0.07930683,-0.21115698,0.50532061,0.15643968,0.53455323,0.26961556,-0.19396360,0.07293983,0.04298618,0.07835657,0.06597922,0.47198734,-0.08917029,-0.19578312,0.16100216,0.25148946,-0.06442253,0.02504751,-0.17055570,0.05975386,0.22267517,0.08404771,0.37162715,-0.16584939,0.28430963,-0.08142959,-0.24942657,-0.24042775,0.19555338,0.03374911,0.06844426,-0.04153464,0.08707375,0.43364552,-0.19935364,-0.27680615,0.19201878,0.53235191,0.14930262,-0.14805442,0.05082842,-0.03408263,0.48042950,0.09158885,-0.06481675,-0.05294414,-0.22034866,0.07483333,0.22248167,0.00479603,-0.16961209,-0.06784695,0.06473511,-0.03703419,-0.03409988,0.01497675,-0.05361317,0.00419825,0.00386340,0.21790043,-0.30848637,0.00167558,-0.01614408,-0.01186426,-0.31571889,-0.09652046,-0.03429250,0.08978659,-0.10931953,0.34042686,0.02032356,0.46512684,-0.01251165,-0.18004343,0.17351265,-0.01717699,-0.12506191,0.01680864,0.41682446,-0.13592908,0.06884243,-0.14833319,-0.29723743,0.07541323,-0.00374682,0.09463964,-0.13335685,-0.03761805,-0.13484341,-0.10762466,-0.00055629,0.05558794,-0.14245345,0.05871748,0.09427854,-0.00534209,-0.16032793,-0.06498795,0.05395978,-0.23443557,-0.00990677,-0.02929166,-0.31921405,0.11550005,-0.08922264,-0.15955377,0.09800604,-0.15261972,-0.01435694,0.15745291,0.30044982,0.05526285,0.01624498,0.11366970,0.22900303,0.14015904,0.19914047,0.01999840,0.11366918,-0.11201877,-0.21852070,0.07530662,-0.04911641,-0.03048384,-0.10912909,-0.19444755,0.97081244,0.00493581,0.10250062,0.04978979,0.11189596,0.12517576,-0.20585483,-0.31925693,0.21032046,0.18738919,-0.27931815,-0.32825023,-0.11483785,-0.12609348,0.10103873,0.07717210,0.04399001,-0.13552879,-0.22492991,1.02967894,-0.09018849,0.00143947,0.00322082,0.04903977,-0.15994114,0.39119080,0.02685332,-0.06229234,0.43433291,-0.10230813,-0.06408876,-0.10415342,-0.14026490,0.08390961,-0.00582126,-0.10170307,-0.04552555,0.10868794,-0.11362935,-0.17886321,0.22021982
0.02926954,-0.04998986,0.01628448,-0.00154815,-0.03255682,-0.00463101,0.00009558,-0.10986024,-0.05371428,-0.16069236,-0.02411927,-0.04321822,-0.06713548,-0.01839258,-0.02565782,-0.01317192,-0.03946111,0.00217103,-0.09381813,-0.06877060,-0.01545998,-0.04506186,-0.04177866,-0.01299540,-0.05217527,-0.05918533,-0.05061570,-0.01240370,-0.01036392,-0.00826571,0.01397972,-0.00794670,-0.07942633,-0.06821489,0.00561521,-0.01771268,0.00337119,-0.03295295,0.03053065,-0.00112938,-0.02946110,-0.04191891,0.05397608,0.02624907,-0.01400334,-0.03338607,-0.03033641,0.02086123,-0.00075088,-0.01561041,-0.03771692,-0.03027127,-0.02227272,0.00740203,-0.09016617,-0.05829386,0.01738175,-0.00232742,-0.01331324,-0.06742743,-0.02803987,-0.02838250,-0.05439176,-0.06852867,0.00680214,0.03188426,0.00873731,-0.04907224,-0.04959632,-0.05299620,-0.00056906,-0.02043173,-0.05064765,0.00943989,0.02714621,0.00412506,-0.05588675,-0.03678998,0.00399873,0.02080428,-0.04174813,0.01129021,-0.03025199,-0.01926115,-0.01531857,-0.04174108,-0.04199945,-0.03812644,-0.07781783,-0.04880029,-0.05316144,-0.04754118,0.00618791,-0.14203623,0.01707529,-0.07901917,-0.03504176,0.00719503,-0.00836053,-0.00461407,0.03081335,-0.00695938,0.01663587,0.01597148,0.09220816,-0.01814778,-0.05173992,-0.04983375,-0.02784290,-0.01510849,0.00586521,0.00598946,-0.01184819,0.00390147,-0.03531237,-0.01274342,-0.00843554,-0.39749432,0.01808525,-0.04087831,-0.03444428,-0.04319630,-0.06043193,0.09078373,-0.01833119,-0.01096088,0.00041660,-0.02443756,-0.05515365,-0.04737568,-0.00333021,0.37534198,0.02660177,-0.02411798,-0.03304886,0.00170491,-0.07073443,-0.01181657,0.00262067,-0.05509362,-0.07529350,-0.02925316,-0.51483089,0.00705750,-0.05319580,-0.00935940,-0.11249100,-0.07277483,-0.03913731,0.02738512,0.03110086,-0.08960635,-0.20851675,-0.02398299,-0.49608999,0.02771427,0.01070083,-0.04115140,-0.03498503,0.01138999,-0.05249390,0.00688717,-0.00755934,-0.02413801,-0.06785582,-0.03162782,-0.00396324,-0.30841371,-0.00215316,0.01385022,-0.00181151,-0.00257532,-0.04198310,-0.03138586,0.00325639,-0.01891752,-0.04701751,-0.04930731,-0.07988836,-0.01497098,-0.01359372,0.01898540,0.00966129,0.00674029,-0.03779866,-0.04380105,-0.01562711,0.06922086,0.00890521,0.00226547,-0.06431243,-0.00266601,0.01480710,-0.03192456,-0.03483160,-0.02364228,0.00376486,-0.03981683,0.01970742,-0.08893568,0.01571743,-0.33094120,-0.03154096,-0.01002391,-0.01193634,-0.00042969,0.00179388,-0.02429176,-0.01431000,-0.04245010,-0.06303333,-0.01491642,-0.00312067,-0.00866041,-0.03265080,0.00408946,-0.04318650,0.02022351,0.02769366,0.01666615,-0.02968968,0.00683506,-0.02106040,-0.08244485,0.01101315,0.00219004,-0.04592266,0.01058101,-0.06928609,-0.02760335,-0.08318756,-0.01083040,-0.00895967,-0.06861824,-0.14655696,-0.00910143,-0.07920037,-0.02753890,-0.00335265,0.01167381,-0.00814339,0.02856014,-0.00232821,-0.03874690,-0.04177169,-0.02687853,-0.02907477,-0.02568840,-0.01841488,-0.02166360,-0.00461278,-0.06356169,-0.03797259,0.01456271,-0.05230105,-0.02182650,-0.02634891,0.01140199,-0.03059386,-0.00799365,0.00247621,-0.03384349,-0.05390911,-0.01700885,0.01877646,-0.02418361,-0.00532934,-0.09895501,-0.03282314,-0.00724802,0.01112700,-0.03528974,-0.01497237,-0.01302757,-0.01168767,-0.01353564,-0.04455097,-0.03598625,-0.04445749,-0.00224294,-0.07519757,0.01683617,-0.07193713,-0.10455864,-0.07010633,-0.06267811,0.00507381,-0.00642436,-0.06139055,-0.06128090,-0.01388555,0.01897435,-0.08144338,0.02589724,0.00059044,-0.00043444,-0.03950148,-0.06367364,0.00864722,0.01406079,0.01666760,-0.00852067,0.01219099,-0.45061019,-0.03612905,-0.02838476,0.00612371,-0.01673489,0.00241726,0.00883006,0.01944411,-0.04068199,-0.03383091,-0.08247426,0.00846492,0.27418506,-0.05241705,-0.01425111,-0.01361463,-0.02026714,-0.00753390,-0.07304784,-0.15662016,-0.04723956,-0.05521021,0.02037187,-0.02928371,-0.04604000,-0.03831599,0.01165404,0.00993722,-0.10065116,0.01464198,0.03014779,-0.02933704,-0.01380183,0.04474096,-0.06925301,0.02220722,-0.05055491,-0.01511524,-0.06608368,-0.04342528,-0.03477250,0.25174418,-0.02737784,-0.04297295,-0.04380324,-0.04320658,-0.01669280,-0.00367615,-0.00910723,0.01330935,-0.06890795,0.02464701,-0.02010235,-0.01162053,-0.05714710,-0.00956436,0.00371323,-0.15183310,-0.05820807,0.03021077,-0.01293009,-0.02824337,-0.03796624,0.00127092,-0.10596512,-0.00648512,0.01820918,-0.02135369,-0.01483050,0.01429760,0.03452555,-0.02728754,-0.01315022,-0.07504425,-0.01984489,0.03003702,-0.07420696,-0.05868493,-0.02844842,0.02669641,-0.17354470,0.03613539,-0.09955373,-0.02763877,-0.02677916,-0.02740971,-0.02245915,0.00851043,0.01810738,0.00830562,-0.01849667,-0.04385389,-0.01587988,-0.00729696,-0.06345213,-0.01911047,-0.00243994,-0.03652938,0.00082251,0.00010963,-0.02053563,-0.06855590,-0.03670401,-0.06289586,0.02952785,-0.01549583,0.00921317,-0.00910204,-0.06060835,0.02181172,-0.19707303,-0.04207809,-0.02536803,-0.09157353,-0.04872946,-0.03142890,-0.02122153,-0.01168080,-0.07586933,-0.46418267,-0.04512867,0.02264315,-0.05002799,-0.60287106,-0.00501697,0.00957093,-0.02241498,-0.07693641,0.01308706,-0.02355858,-0.06052716,-0.01466848,-0.01431515,-0.03921849,-0.03793662,0.02361739,-0.03945570,-0.00442140,-0.05218142,-0.00460619,0.01698817,-0.13565856,-0.00238867,0.01101502,0.00299492,-0.07781745,0.00347137,-0.03079829,-0.06377918,0.00140545,-0.13609067,-0.03374333,-0.01886411,0.01392565,-0.03060238,-0.06453698,-0.06554697,-0.04005728,-0.05809136,0.00654594,0.01184649,0.00784922,-0.02080402,0.02144955,-0.02783063,0.00520774,-0.06364977,-0.00745250,0.01973949,0.00009564,0.00863660,-0.03736223,-0.00815603,-0.07225336,0.02290073,-0.05029602,0.00716515,0.00042770,0.00621216,0.03929187,-0.05362717,-0.06217692,-0.01079301,-0.00093942,-0.00575653,0.01971198,0.00373309,0.01436870,-0.03025034,-0.02411347,-0.03547750,0.01402432,-0.06775609,-0.09229980,0.01229844,-0.03086072,-0.02614556,-0.04595154,-0.01423154,-0.06927693,-0.03458433,-0.06174021,-0.01707986,-0.01925197,-0.00647333,0.00060201,0.01842218,-0.03879429,-0.01663862,0.01297495,0.00557893,-0.01136754,0.01728347,-0.03428767,-0.12918250,0.00832876,0.01909417,-0.01364854,-0.13689992,-0.06878730,-0.07740176,-0.05953046,-0.25242803,-0.07484686,-0.10556272,-0.04235842,-0.00753001,0.01151860,-0.01624668,-0.05380059,-0.05946400,-0.00509768,0.00924247,-0.03438708,-0.41098452,0.00948645,-0.00564193,-0.04444255,0.00669410,-0.00956006,0.02547994,0.01538401,-0.04813741,-0.05325163,-0.00105867,0.01266890,-0.00429779,-0.00917322,-0.04380276,-0.04140293,0.01706433,0.03052077,-0.00295502,-0.44946679,0.00568776,0.01066024,-0.02165642,-0.12169223,-0.01805859,-0.14617753,-0.17037877,-0.07780344,-0.06433332,-0.01514139,0.00565422,0.01263386,-0.08110362,0.34276333,0.00194873,-0.02600282,-0.03995632,-0.02601964,0.01338706,-0.03768715,0.33205381
-0.03084828,0.00567358,-0.04723347,0.11270319,0.06387170,0.16497444,-0.10596848,0.01332619,0.18590565,-0.01069262,0.06233437,0.12624177,0.03024281,0.15432112,0.03145470,0.01634382,0.26648742,0.00248422,0.06734623,-0.05000049,0.00680103,-0.04328661,0.03179954,0.12123469,0.15231413,0.09647179,-0.31223115,0.12377828,0.04844660,-0.07950209,-0.13663198,0.10677468,0.02465011,-0.02480342,-0.03331270,0.11267230,0.20751177,0.14370523,-0.02930255,-0.04355175,-0.11586182,-0.02588902,0.02713866,-0.24978086,0.20303364,0.19494715,0.01455946,0.15807152,0.06459026,-0.05067625,0.09109642,-0.27349699,0.21153744,0.19064370,-0.12673011,0.04445133,0.19229348,0.12196079,-0.07976554,0.12171442,0.19454470,-0.01012861,-0.12503433,-0.06885265,0.04370243,-0.02935779,0.20583797,0.05066277,-0.14567658,0.12298645,0.07351959,0.09078492,-0.33238596,0.08985983,0.04831583,0.44281945,-0.09805889,0.10253914,0.15233283,-0.00073106,0.13134257,0.07806639,0.12813234,-0.15324745,0.09947501,0.07840911,0.12735768,0.11752257,-0.13132268,0.01584361,0.03075404,-0.14632241,0.09940054,-0.22900587,0.15637752,0.11398206,0.05509652,0.17138945,0.16335899,0.09649749,-0.04789114,0.15992430,0.00911712,0.01287193,0.03492383,0.23727979,-0.00022320,0.04852159,0.08017857,0.06671715,-0.13805625,-0.08561584,0.06655225,-0.03407576,-0.08269714,-0.08586302,0.14054403,0.20491149,-0.15228967,0.12141481,0.01001227,0.12211169,0.17106521,0.03628451,0.09413339,0.16466582,0.07844543,-0.08620392,-0.16860841,-0.10260012,-0.12555806,-0.06973617,0.11184491,0.00780284,-0.31086299,-0.00120801,-0.26902238,-0.20843992,0.05419800,0.01193752,0.09160145,-0.05882201,-0.63531381,-0.03576692,0.24453585,0.11578565,-0.00970598,0.11799551,-0.19206280,0.04891278,-0.25889030,-0.07033088,0.02217576,0.09532831,-0.47292978,-0.06460962,0.05613210,0.12604459,0.12437555,-0.08124392,0.08616088,-0.08945504,0.03883116,0.10292247,-0.23133551,0.01650073,0.02775133,0.00563093,-0.05313569,0.01960039,0.10257547,0.13048422,-0.01962585,-0.07542407,-0.19974017,0.26377761,0.05732635,0.22986916,0.18228878,-0.02988026,0.10299774,0.00293279,0.03819858,-0.00415705,0.04019756,-0.03978970,0.01496899,0.15609166,-0.03576468,-0.00603876,-0.00521685,-0.30991328,0.00276045,-0.00271060,-0.18980311,-0.05038774,0.00179516,-0.02965838,0.09347235,0.01229278,-0.55727571,-0.08823332,0.22286005,-0.05216409,-0.17529123,-0.09248314,0.13495874,0.05861139,0.10225496,0.15027151,0.13697551,0.17190801,-0.10999290,-0.25536025,0.11176603,0.02756236,0.07761808,0.02546434,0.02542399,-0.08038865,0.01358841,0.25625914,-0.07879497,0.22196387,0.09800765,-0.06674735,-0.29669282,0.16645695,0.03374227,-0.28848532,0.17373462,0.13742457,-0.27516311,-0.06999278,-0.55414712,0.17059578,0.15111263,0.17149442,0.15599865,0.02798363,0.00718567,0.06238536,0.01052129,0.06307296,0.02740591,-0.32377091,-0.09637848,0.12430368,-0.13535669,-0.21862368,0.31911722,-0.02825038,0.01578840,0.04113036,0.11279041,0.01140717,0.16074143,0.06182590,0.01184434,0.08800774,0.03618973,-0.01135521,0.06425466,0.19465083,-0.19536577,0.09981962,-0.07709791,-0.01529547,0.02142855,0.02754154,0.01529802,-0.26072180,0.11592244,-0.01128904,-0.15807432,0.00786010,0.06965642,0.12824446,-0.23517783,-0.11475136,0.01670382,0.06973901,-0.24491268,0.04657218,-0.28798360,0.17717813,0.04648717,0.23332211,-0.17732887,-0.00654715,-0.27643013,0.19890200,-0.10202569,0.01801142,0.16162652,-0.23130845,-0.09348583,0.10471653,0.02800279,0.19830108,0.03153123,0.29285365,0.04461957,-0.22493370,0.07037767,0.33841097,0.01284121,-0.26948792,-0.03817196,-0.10006797,0.01438266,0.00198460,0.10164832,-0.11008378,0.13057643,0.00819521,0.10779779,-0.08355600,0.15903611,0.08281126,0.06536727,0.16094406,-0.31852734,-0.12888333,0.13368385,0.20443366,0.01668662,-0.16412039,0.12165504,0.21026431,0.16341037,-0.17874910,0.06565915,-0.01520022,-0.18548159,0.00123292,-0.01113313,0.18626581,-0.10643121,-0.01038104,-0.08456474,0.15254898,0.05563933,-0.01801516,0.12570989,0.13706768,-0.00976569,-0.40883783,0.15004221,-0.19954081,-0.05115701,-0.29891166,-0.00402039,0.08722311,-0.01898620,-0.26996556,0.20274338,0.02695679,-0.00615584,0.08277383,-0.43708158,0.03473573,0.20631057,-0.04137988,-0.19528261,0.05255464,-0.07487316,-0.00109395,-0.02654076,-0.16301328,0.07106805,-0.32772261,0.12801358,0.02496732,0.16665661,0.01582124,0.01444040,0.19030555,0.04069646,0.06361199,-0.06655219,-0.03917962,-0.24362156,-0.14185435,0.10426675,0.05945492,0.15169521,0.20270424,-0.05682140,-0.06798873,-0.04488261,-0.37966481,-0.24801897,-0.03933583,0.17454965,-0.21229500,0.04142340,0.15661645,0.15604070,0.03203669,0.09066691,0.16046427,-0.04990815,0.08839610,0.22135554,0.02386873,-0.22603416,-0.00170047,0.17006093,-0.01295302,-0.31408083,0.07943825,0.13066155,0.10823337,-0.02072334,0.16039333,0.21825966,0.07980675,-0.20273004,-0.32138342,0.11514115,0.03670342,0.03720845,0.16637471,-0.23085417,-0.00047684,-0.02426481,0.07900985,-0.03884752,0.25670725,0.14719500,0.08434020,-0.06672625,0.22003567,0.16091499,-0.26019186,0.10200673,-0.10604670,0.15017362,-0.04567645,-0.02649498,0.08387604,0.04721095,0.16708884,0.09028324,0.03367073,0.17083424,0.28464010,-0.07132286,0.10646904,0.10321358,0.17912951,0.00871845,0.18351021,0.05426124,0.08030635,0.03162628,-0.23636839,0.02168471,0.08684006,-0.02263375,0.05471473,0.06549244,0.18839297,0.06033166,-0.13020033,-0.03410758,0.30098039,0.02879766,0.08718552,0.12576388,0.00931980,0.01820369,-0.03618076,-0.01678732,0.09235863,0.12049414,-0.26766416,-0.01698085,0.16986620,0.32863069,-0.03741720,0.02399786,-0.14713879,0.30512983,-0.03659736,0.22195469,0.28478846,0.01047000,-0.03820285,-0.04353474,0.11738867,0.15806231,0.07677382,-0.00869351,0.12883733,0.16777624,0.06031873,0.17537242,0.12647021,0.09748487,-0.04953189,-0.21643174,-0.18298499,0.16318819,0.05035333,0.31801963,0.01822455,-0.23790941,0.15495519,0.13032958,-0.34837803,-0.17023569,0.05347376,-0.16932969,-0.00811295,-0.07770062,0.09139539,-0.01027452,0.01771484,0.27792427,0.02938366,0.08824874,-0.21650827,0.26682922,0.23534271,-0.36377326,-0.11717431,0.18669422,0.07284613,0.18028677,0.05694155,-0.05029836,0.06768783,0.01124113,-0.01107840,-0.03545687,-0.44718191,0.00978975,-0.40658352,0.18906602,-0.14928907,0.09795658,-0.03213342,0.13939184,-0.03211887,0.24859755,0.18206982,-0.02135979,0.16543368,-0.06985886,0.00822466,0.12767075,-0.04013157,0.17692813,0.00907399,-0.28028163,0.29410392,0.17682171,0.05574604,0.00088930,-0.00983153,-0.09217346,0.14592887,0.05683372,0.12441385,-0.09141307,0.01219197,0.06132871,-0.09541573,-0.01965589,-0.05801642,0.03530244,0.04515158,-0.09269110,-0.32165259,-0.11270512,-0.00128062
-0.03070280,-0.02337404,0.00978007,0.13395007,0.11322924,0.11162244,0.03045102,0.14920589,-0.01496513,0.00097400,0.04996091,0.05663249,-0.10227513,0.15937182,0.00886105,0.02416561,0.00373722,0.06181888,-0.01873572,0.18318102,-0.05902287,0.09022144,0.01420862,0.04571223,0.25132856,0.30262548,0.12007730,0.10524958,-0.03229743,-0.08945207,0.14072560,0.05614604,0.16663608,-0.23813526,0.14508468,0.14613603,-0.14132385,0.05439053,0.09779333,-0.16453514,0.29751688,-0.01449011,-0.06007709,-0.02411175,0.13259140,0.04723342,-0.02963649,0.24726549,-0.08415040,0.13198599,-0.10095866,0.09543224,0.10119564,-0.07767567,0.32086879,-0.01781469,-0.08025953,0.04730740,-0.09796812,0.05523667,-0.11771517,-0.09893522,0.21541139,-0.04062749,-0.07907289,0.13329470,0.09031814,-0.03808198,0.18673980,0.21785371,0.00464265,0.07702225,0.16654572,-0.07374260,0.21759303,0.09100873,-0.15661089,0.15482630,0.07273187,0.05641796,0.05047084,0.07098969,0.10023583,-0.03148652,-0.05901718,0.00468926,-0.08305693,-0.06472375,0.05910125,0.01108877,-0.06091500,0.10091295,-0.12934308,-0.09919500,0.09904833,0.04147871,0.00653893,0.09754236,0.10980813,-0.03740322,0.02452843,0.08161765,-0.20226593,-0.15197529,-0.03545599,-0.02191730,-0.05833145,-0.05332690,0.01166876,-0.12059453,0.05905841,-0.07276732,-0.06604502,0.07681604,-0.02047020,-0.10886797,0.01412768,0.07131813,0.18331186,0.10903239,0.01137205,0.08972489,0.15059952,-0.19361554,0.15014383,0.21935204,0.05354302,0.07139122,0.11706298,0.28898856,-0.13750859,-0.05241657,-0.05295105,0.11990386,-0.10136582,0.18479732,0.10581239,0.22811849,-0.02464913,-0.05541249,0.01566518,0.04154449,0.25478578,-0.11416594,0.01912860,0.00328309,0.09219444,-0.00298786,0.00671206,-0.01703963,-0.04186792,-0.01752241,-0.05315872,0.28275502,-0.34741980,0.01777927,-0.03618149,0.04768000,-0.11389557,0.15187755,-0.02866202,0.18014471,-0.04966416,-0.01560618,-0.00721444,-0.13430740,0.06986090,0.16356926,0.00670686,-0.03834470,0.06785440,0.03301135,-0.16290063,0.16167124,0.01857429,0.08943210,-0.06088094,0.13604560,0.16448423,-0.08709917,0.05274951,0.08252665,-0.09144158,0.08494020,0.19113915,-0.07198003,-0.06822449,-0.06936344,-0.08797608,0.01256336,-0.03993154,0.06518387,0.00668923,-0.04286658,0.20554550,-0.00353842,-0.04112265,-0.05104982,0.10067388,0.16939287,-0.14602502,0.04648202,0.25358269,-0.15608057,0.14878464,-0.00641524,0.04356318,0.06727481,0.10857148,0.03151121,-0.10386416,0.08567172,0.06024811,0.16513263,0.22248718,-0.05722015,-0.08671143,0.09417834,0.01292538,0.18641710,-0.11328813,0.06354660,0.10256707,0.09222329,0.16239224,0.29409200,0.21243095,0.18116796,0.06775139,-0.08401769,0.08290032,0.01784117,0.04669371,0.14041024,0.47634435,-0.07896663,0.00186347,0.06254923,0.05686112,-0.08798116,-0.01171656,0.07186868,-0.09648173,-0.09966502,0.07686459,0.08923110,-0.09347864,0.02286408,-0.04244873,0.01714259,0.17191781,-0.11140738,-0.10176082,0.00772202,0.11522099,0.33287954,0.07129063,-0.10749696,0.03161321,0.41282007,0.03684031,0.25303310,0.05165786,0.09805415,0.09999913,0.15136279,-0.10976152,0.07013451,0.00701486,0.21181297,-0.01936671,0.11044218,0.08246785,-0.02917055,0.05744145,-0.08305352,0.16667917,-0.12291434,-0.03766660,0.03354548,-0.04601673,-0.00436026,0.62977302,-0.05120951,0.03703417,0.21899235,-0.06648368,0.02384630,0.06100420,0.25162953,0.16607495,0.04145931,0.00617059,-0.01048754,0.21435475,0.11641786,0.19508082,-0.01157245,0.12444657,0.05275550,-0.13883789,0.07004629,-0.04041980,0.24209563,0.02698174,-0.28986195,0.00686465,0.07969332,0.09316105,0.00262662,-0.05119319,-0.04409579,0.08112353,0.25017139,0.11141510,-0.06891239,-0.11820491,0.07423355,0.04325292,0.35855535,-0.11194156,0.01407315,0.21004394,0.12434027,0.09941401,-0.03561487,0.13778496,0.12759818,0.04174342,-0.21815789,0.04834924,0.00128349,0.00533406,0.05323487,0.14666513,0.06105644,-0.03400948,-0.03482015,0.21328413,0.10451299,0.03807311,0.03332685,-0.00207624,-0.02949049,-0.03870136,0.05939689,0.20738630,0.09956323,0.05394435,0.33923250,-0.03238338,0.19485046,-0.07894406,0.03301256,0.00835586,0.14871345,-0.37701103,0.02752024,-0.05615207,0.06609061,-0.08475354,-0.12736620,-0.06092805,0.12559815,0.18469788,-0.12535681,-0.07866462,0.15528953,-0.08792464,0.08710407,0.01978176,0.00175907,-0.14804421,-0.01086121,-0.15164532,0.15246569,0.03880670,0.05662454,0.02450519,-0.00787568,0.03619774,-0.05882583,0.10466798,-0.10621005,-0.00488043,0.13751811,0.08272105,0.02374387,-0.04034491,-0.00750378,0.06092250,-0.05904993,0.02150581,0.06749681,-0.12504685,0.15084417,-0.01605826,-0.09248535,0.09785939,0.40766802,-0.03690132,0.07013629,-0.06582224,0.03416638,-0.20175648,0.08322389,0.15305586,0.03031684,0.01281528,-0.01683387,0.13726866,0.10590737,-0.02110455,0.08142661,0.27872857,0.06059483,0.12221728,0.08435362,0.13467093,0.09119982,-0.08651686,-0.05741384,0.18849550,0.08540043,0.20677571,0.13070047,-0.00237411,-0.00914848,-0.00746047,-0.20737219,0.01036024,0.00512870,0.01333392,0.20666195,0.17404793,-0.06526813,0.03422908,0.01262821,0.04190431,0.05030226,0.17336217,0.06529847,0.02857656,-0.17960785,0.19759630,-0.06520135,0.03804037,0.28784031,-0.01047505,-0.00225410,-0.00961289,0.07459079,-0.00148079,0.45418683,0.04980160,-0.09388728,-0.01848500,0.11437110,-0.16219902,-0.20032988,0.19939888,-0.12592618,-0.09954312,0.05373765,-0.08550147,0.05760667,-0.00942061,0.09601712,-0.17101285,0.04949905,0.07159022,0.01291078,-0.06012557,-0.08667033,0.08988424,0.02546095,-0.05303896,-0.05143092,0.11208551,0.08474554,-0.04213954,0.07810825,-0.04239413,0.03063914,-0.04368559,-0.03234245,0.11861098,0.10187389,0.11158218,0.21015133,0.04349627,-0.03516623,0.03335683,0.03017511,0.08618547,0.01381228,0.19651990,0.09479981,0.06605790,0.04280747,0.09491336,0.06031182,0.15059274,0.23645134,0.18943024,-0.04820485,0.04138711,0.01533202,0.27752599,0.04361950,0.09125694,-0.07593124,0.00377894,-0.13653518,0.05634603,0.03754614,-0.01387470,-0.03531308,-0.03494619,0.14212631,-0.03890569,0.18443328,0.02578166,0.06550299,0.01870382,0.08257741,0.29891872,-0.05689778,0.07921216,-0.07191887,0.08145016,-0.09388240,0.11341164,-0.00530071,0.19653323,0.01122897,0.00705369,-0.30855829,-0.03589493,0.02240332,0.07286068,0.13210367,0.18288505,0.27856028,0.05710745,0.43978214,0.18046142,0.09403080,0.11406744,0.11292297,-0.05751599,-0.09033408,-0.03061217,0.06769703,-0.14211528,-0.18480001,-0.11150203,-0.04228882,0.10934589,-0.03710517,0.12643783,-0.00614465,-0.37391123,-0.05632022,0.06599059,0.09473261,0.12752929,-0.00684358,-0.02466512,0.23109128,0.11599975,-0.00973630,0.00516443,0.00479158,-0.14875236,-0.05303745,0.13336997,-0.23078480
0.07831072,0.02897220,0.03152766,0.04898156,-0.01635703,0.04611043,-0.07211092,0.02011393,0.06586947,0.11608918,0.16888624,-0.01160593,-0.14107022,0.06319652,0.02840855,0.16852292,-0.10160565,-0.03057470,0.02086261,0.10009650,0.08440831,0.07392459,0.01876859,0.07914060,0.24865721,0.20185281,0.34673825,-0.03633053,-0.05706072,-0.11246112,0.25731006,0.27806118,0.08999322,-0.05549559,0.07717982,0.14286208,0.00653452,0.07666604,0.06897175,-0.04859018,0.17082703,-0.05667876,0.02891410,0.08195013,0.08349517,0.04999647,-0.01135628,0.25737935,0.11133608,0.06541002,-0.01382487,0.11224752,0.06667964,-0.06461623,0.27120629,0.01552152,0.02454267,0.04009286,0.05621882,0.01161727,-0.17948110,-0.00722822,0.26509982,0.45041278,-0.32355967,0.21276939,0.05735156,0.03604781,0.26414430,0.23382455,0.04031896,0.00219057,0.40412611,-0.04096702,-0.05399987,-0.18355289,-0.01234820,0.22707488,0.07007213,0.03718819,-0.00533176,0.00393723,0.13450217,-0.07104129,-0.06829944,0.05323738,-0.05605111,-0.10397694,0.26940510,0.02919908,-0.00777279,0.13454555,-0.08728235,0.10510839,0.04218234,-0.06635349,0.01670108,0.01335655,0.02365024,-0.09828987,0.06496286,0.09896875,0.04022264,-0.06003522,-0.00848112,-0.08718920,0.11423221,0.10922276,0.03469108,-0.15825427,0.17179866,-0.07132822,0.08311353,0.06069551,0.02174024,0.19301216,-0.13466394,-0.17942515,-0.15872851,0.13633004,0.00048234,-0.00328368,0.07484078,0.00432732,0.09446535,0.09927373,0.07287341,0.39946330,0.18542989,0.08014216,0.04150462,-0.09487212,-0.03276001,0.10113758,-0.07452860,0.13032328,0.25487635,0.16967475,-0.01002460,0.00369139,-0.02592662,0.25117692,0.10060097,-0.06106702,0.01473649,-0.02016596,-0.02235146,-0.01476874,0.18913996,-0.03613888,0.13404790,-0.03615108,0.30176774,0.09695392,-0.33288583,0.17955118,0.05855354,0.07342879,-0.14440086,0.23233983,-0.16326487,0.10002962,-0.13879324,-0.01868458,0.28262571,0.02056751,-0.13866682,0.01114924,0.07963164,0.05214790,0.01068055,0.04926139,-0.06066955,0.34881267,0.02571604,0.17545532,0.07857075,0.08769883,0.09157219,-0.14699505,0.05642990,0.00738760,-0.11146908,0.10373964,0.15536991,-0.07704101,-0.04106188,-0.15183634,-0.03841470,-0.01378179,-0.04158764,0.07258102,0.01425509,-0.00580426,0.44270983,-0.00144806,-0.03828927,0.00890059,0.06619411,0.10848735,0.43230700,0.48212272,-0.04124869,-0.09055068,0.13438809,0.06720360,0.01716018,0.08686649,0.04551436,0.10049383,-0.05280241,0.04458221,0.31493199,0.06140390,0.14388394,-0.12493133,-0.00218864,0.01463649,0.02623745,-0.00505689,-0.10004655,0.05545369,0.12855102,0.04999031,0.09303249,0.36302140,0.19065689,0.27676359,0.15729272,0.23471695,-0.02879578,0.06842529,0.33672160,0.02517385,0.45797402,-0.08414408,-0.10879655,0.11758171,0.05648457,-0.03326793,0.01758426,0.08409298,-0.06340658,-0.14947090,-0.01800229,0.49868682,-0.08992622,0.01980856,0.13918985,0.12421967,-0.09527293,0.01003155,-0.12934600,-0.08637673,0.12801757,0.28043634,0.07940067,-0.05653828,0.01445995,0.29572225,0.02036093,0.11533077,0.07698928,0.04491583,0.24391767,0.11862455,-0.03494029,0.12119541,-0.12912115,0.18860020,-0.03433016,0.23050815,0.01893218,-0.00368653,0.00418513,-0.08373436,-0.04314070,-0.07375624,-0.11263396,0.01921736,-0.01797066,0.00726442,0.46401799,-0.11012211,0.13087372,0.27596903,-0.02365358,0.07139298,0.11337569,0.07832014,0.44706118,0.05358352,-0.02957323,0.04094968,-0.21961704,0.23052636,0.13874167,-0.12014242,-0.07306975,-0.00267717,-0.00098264,-0.00657276,-0.05953556,0.25109875,-0.04551721,0.14738792,-0.07788395,0.07398852,-0.00142758,-0.07099514,-0.02739412,-0.02749319,-0.04949883,0.27591568,0.09890587,-0.24961974,-0.02661197,-0.08142836,0.02727711,0.22717080,0.01636431,-0.02224458,0.22420527,0.35011700,0.09291085,-0.01434909,0.08583997,0.30741796,0.02663484,-0.15593094,0.03168165,0.29055589,0.02461958,0.03086732,0.27859539,-0.03386882,-0.00305765,-0.05482109,0.16325879,0.06327300,-0.07765615,0.02643843,0.00644642,0.06315108,-0.17882933,0.01906944,0.21996120,0.34528422,0.04669283,0.66715491,0.14752501,0.17760505,-0.08516959,0.04159212,-0.01313054,0.17346971,-0.12242139,0.00118513,-0.00224304,0.04344107,0.30775970,-0.04644728,-0.00617880,0.26587123,0.29082698,-0.12065734,-0.09288647,0.17506790,0.00900179,0.15172657,0.01917321,0.20378727,-0.13573800,-0.00744829,-0.11055253,0.21549577,-0.01588078,0.07729299,-0.00185371,0.02982137,0.02400834,0.08303154,0.19686155,0.10494775,-0.12834772,0.06315525,0.05279684,0.00817826,-0.04495423,0.01262306,0.00487560,0.15918991,0.16277640,0.02438451,0.09639914,0.24107486,-0.00652600,-0.09218901,0.03209107,0.23364802,0.07136636,0.04431765,0.08782908,0.02506783,-0.31253400,0.11383937,0.12734509,0.01082480,0.01756290,0.00321502,0.18448712,0.07086501,-0.00302969,0.04490114,0.25182128,-0.20185943,-0.00999537,0.03410152,0.16541559,0.25281450,-0.24240649,-0.13579535,0.13983516,-0.00824389,0.21753936,0.02204122,0.42236599,0.03183033,0.29724881,-0.08385969,-0.02800142,0.01855874,0.09732560,0.09163224,0.11086687,0.22337388,-0.05748829,0.06221760,0.06883102,0.14031444,0.16007750,0.00626000,0.07126424,-0.21770291,0.13845788,-0.16448356,0.08964916,0.12998614,-0.08284526,0.01046290,-0.02094870,0.04680919,0.03873586,0.31610036,0.03624802,-0.02323722,-0.01204520,0.38593075,-0.10056489,-0.20903689,-0.13477114,-0.11246676,-0.07196426,0.02933721,-0.06516980,0.17322598,0.00539776,0.01916759,-0.11134413,0.08483218,-0.01249799,-0.02076517,0.08672158,-0.24202274,0.15673628,0.07577581,-0.15123685,0.27800286,0.12468335,0.05494870,-0.23110728,0.27916259,-0.24422595,0.02058339,0.02352374,-0.17308444,0.00208194,0.10551707,-0.03443832,-0.23167270,-0.04888433,0.00758709,0.07028437,0.13302496,0.07005028,0.04495626,0.05561765,0.12077202,0.11591090,0.03798408,0.02167930,-0.04075427,0.19456890,0.46429205,0.07282137,-0.10266218,-0.00474987,-0.05194803,0.25399733,-0.02764751,0.06781461,0.37345433,0.21633562,-0.03261918,0.10088658,0.08427981,-0.03979598,0.09591158,-0.06521992,0.08243319,0.01620888,0.13010204,-0.03396729,0.12388790,-0.07992636,0.00305896,0.31237197,-0.02971172,0.04542822,0.04987110,0.02494023,-0.13610092,0.03947894,0.06511815,-0.07915810,0.08639202,0.24280342,-0.27220875,0.02741306,0.32683858,0.03908471,0.17169805,0.18373951,0.16805474,0.03611544,0.37605742,0.05918641,-0.04163959,0.11099806,0.08975756,0.11019079,-0.05161079,-0.03362811,0.06824091,-0.09872799,-0.01430788,-0.17471458,-0.05752691,0.08235914,-0.02308309,0.30378163,0.00837899,-0.43553099,-0.18095997,0.02152748,0.13932216,0.16285256,0.00662445,0.01606465,0.16947779,-0.30328098,0.03964834,-0.01733043,0.11869042,0.00775736,0.44285032,0.28472310,-0.15003556
-0.02444411,0.01710635,0.00365925,0.01228121,0.03634904,-0.02899419,-0.13337231,-0.01224981,0.03848997,-0.09781995,-0.00420140,0.02568516,-0.03605161,0.03666609,0.01565829,0.04127746,0.01472465,-0.05157216,0.00353089,0.04802787,-0.03948713,0.02575843,-0.02717906,0.01209056,0.08733506,0.05959833,-0.09267689,-0.03026769,-0.08685859,0.04950686,-0.05832817,0.07633844,0.02055033,-0.08012562,-0.00074186,0.08071013,-0.01824250,-0.00220086,0.03690987,-0.05922656,0.07941038,-0.05020854,0.06172072,-0.01795603,0.05850714,0.04336451,-0.05348494,0.05632472,0.00019034,-0.02541068,-0.05825297,-0.09217211,0.04201684,-0.05609003,0.08322876,0.05442483,0.02801284,0.02715323,0.02607269,-0.01583395,0.02695463,-0.00010685,-0.03586299,-0.02212252,-0.07075965,-0.01368750,-0.02236311,0.00115367,-0.04216402,0.10441702,-0.04057026,-0.02060252,0.07834868,-0.07121153,-0.03475340,0.04228081,-0.02609528,0.03167273,-0.00961179,-0.04596224,-0.02034882,0.00679360,-0.04534176,-0.05015544,-0.02003877,0.00282185,0.01600537,-0.02314809,-0.03223137,-0.00837793,-0.00795668,-0.02061954,-0.08975085,-0.18152234,0.03017737,-0.07770290,-0.04550082,-0.02976353,0.00123438,-0.00174725,0.03883996,0.04942650,0.00713876,-0.08265083,-0.13765307,0.01794899,-0.01694470,-0.03447947,-0.03740470,-0.04059497,-0.03664928,0.03744700,-0.00668515,-0.04313017,-0.09143455,0.00847153,-0.10185760,0.00168011,0.02371667,0.02577093,0.02701192,-0.02654127,0.09236176,0.07728907,0.03524578,0.06400228,-0.03611803,0.04745461,-0.07126431,-0.01339951,-0.03723880,0.46733826,-0.08073141,0.01175680,0.00221250,0.05751257,-0.12648414,-0.02672944,-0.03009474,-0.01879698,-0.04182320,0.00251463,-0.19279993,-0.05444664,-0.01114065,0.02106390,-0.03366612,-0.05532369,-0.05351969,-0.01473482,-0.06243128,-0.02077741,0.02973182,0.08108876,-0.08008880,-0.02073318,-0.02285377,0.01680966,0.03417607,0.00695010,-0.00803263,-0.01096313,-0.04055395,-0.09085045,-0.02285498,-0.06472675,-0.07572109,0.05438604,-0.04330858,0.02025776,-0.02554869,-0.00730957,-0.04720585,-0.04866181,-0.06548654,0.06440310,0.00629732,0.06996527,-0.02106592,-0.01189108,-0.02318831,-0.04473639,-0.04349433,0.00093477,0.02211714,-0.09749707,-0.05074944,-0.02587751,-0.03459763,0.03890944,-0.03785865,0.01997024,-0.02819908,0.02741295,0.04162038,-0.07668968,-0.04822597,-0.03245802,-0.03883851,0.01841217,0.02556501,-0.24907584,0.07088419,-0.06570864,-0.05934006,-0.00623107,-0.03208093,-0.01327654,0.03492013,0.00067565,-0.08551997,0.05050422,0.01424908,-0.00068488,0.01026150,0.00482937,-0.01076514,-0.04771555,0.00736648,-0.02588357,0.01430812,0.04941199,0.02887147,0.04123646,0.04555597,0.12139446,-0.02194700,0.01511977,-0.00547644,0.02123332,0.05047685,0.04795251,-0.05529934,-0.07662833,0.34986305,-0.05539608,0.02307416,0.04914847,0.04074984,-0.00708881,-0.01762468,0.03109562,-0.04202750,0.00784827,0.04558961,0.13719423,-0.12147847,0.00564729,-0.02279292,-0.08389600,0.04477580,-0.05078286,-0.00855627,-0.08402105,-0.01203681,-0.01327936,-0.02348476,-0.01997395,-0.01966894,0.02474858,0.00901149,-0.00112392,0.02098471,0.01532576,-0.01895146,0.04579669,-0.09047284,-0.04402743,-0.07527231,0.00049737,-0.03570601,-0.00116419,0.02631697,-0.05072747,-0.04728884,-0.05490563,0.02744909,-0.09650187,-0.04841288,-0.05823750,-0.03115608,-0.03757488,0.04205055,-0.07214078,-0.12044661,0.06943458,-0.11027759,0.02225741,-0.02556567,0.03030878,-0.04562543,0.00635357,-0.14130400,0.02349794,-0.02181121,-0.00477728,0.02161806,-0.02813517,-0.05891623,-0.00806850,-0.03406393,0.04902799,-0.06058062,0.26537371,0.02948827,-0.03001215,-0.04923147,-0.01793247,-0.03775822,-0.08674280,0.04910379,-0.08544835,-0.01378609,0.02760036,0.04646312,0.20753787,-0.02979756,0.03370594,-0.01255675,0.09826088,-0.01781994,0.00318799,-0.11236069,-0.05036150,-0.01887901,0.04032242,-0.03696919,-0.06244488,0.04824195,0.00848635,0.02271640,-0.12477981,0.01291990,0.03056530,0.12300458,-0.04565088,0.03435453,-0.01679724,-0.00400501,0.04970357,-0.12206295,-0.03121584,-0.03565842,-0.00842090,-0.08124362,0.01989524,0.07643022,0.05084104,-0.01959070,0.06451789,0.00647025,-0.07589844,-0.05652278,-0.00240004,0.00950925,-0.09708706,0.03204602,0.02744128,-0.10829130,0.02215692,0.19321552,-0.00051733,0.05353329,-0.02582217,-0.04841918,-0.10387956,-0.00231377,0.04618088,-0.07095206,0.02260356,0.04000530,-0.04810794,-0.01997857,0.04254818,0.00243032,-0.02503695,-0.01863772,0.03748782,-0.05755340,-0.00455427,-0.01984148,-0.01108440,-0.06061837,-0.13313459,-0.04761424,0.06012691,0.04049398,-0.03070468,-0.05038537,-0.04669546,-0.04140536,0.02620378,-0.03980311,-0.01159129,0.06657483,-0.02353027,0.00506875,0.03920413,0.02025111,0.07774410,-0.03387129,0.02027102,-0.01305867,-0.01351844,-0.04769897,-0.04303823,-0.00320508,0.00915584,0.00855892,0.01665586,0.01495677,-0.02190069,-0.05913462,0.02099641,0.05859261,-0.02641048,-0.01892206,0.04661202,-0.06450900,-0.06513759,-0.01281741,-0.12403987,-0.02444079,0.02217792,0.05646292,0.06222954,0.05010137,-0.04264666,-0.03738336,-0.07626638,-0.00060331,0.01233782,-0.04659909,0.00850337,-0.00552831,-0.02864611,0.03177134,0.01085518,0.00223318,-0.01045460,0.01077559,0.00922262,0.01407789,0.01543387,0.10518715,-0.02855097,-0.00000210,0.06791217,-0.02933354,-0.01698687,0.01703555,0.01017967,0.03420684,0.13225113,0.01361400,-0.01157075,0.01320023,0.03443079,-0.10122296,-0.09831060,-0.10205493,-0.04342838,-0.08114406,-0.03063275,-0.03059055,0.01068887,0.00046744,0.00067988,-0.05298172,0.01561726,0.00554282,-0.03769389,-0.05240742,-0.06391209,-0.04549252,0.01129358,-0.10511775,0.03732259,-0.01424509,0.01791795,-0.00109512,0.01494165,0.01717828,0.01021350,-0.01812433,-0.08916309,0.09331848,-0.00211838,-0.04497723,-0.01746269,-0.09312042,-0.03805846,-0.02203630,0.04359252,0.02635371,-0.01306059,0.03648670,0.01540660,0.03807614,0.03513212,-0.03529906,-0.05007615,-0.03479216,-0.05032672,0.02067254,0.02013931,0.02846717,-0.01330162,0.05201053,0.00712443,0.02453497,-0.00915043,0.02193287,-0.08396497,-0.00518717,-0.04158232,-0.01351252,-0.03040603,-0.03328791,0.00614201,0.00013116,0.10546634,-0.01050945,-0.12079758,0.03791998,0.02277036,-0.05635624,-0.10779640,0.02203922,0.03034282,0.02466286,-0.01322257,-0.03693650,-0.05729569,-0.04697534,-0.03330071,0.00284257,-0.37323716,0.00249608,0.02144838,0.04451125,-0.00840428,0.06108636,0.00438565,-0.02919208,0.08023618,0.02257276,0.01139121,0.02798599,0.02571839,-0.03574997,-0.01394757,-0.02486885,0.04611834,0.03272469,-0.03480219,-0.33780247,0.04829279,0.03304582,0.02937541,0.12528862,-0.00821246,-0.68672240,0.06877247,-0.02882320,0.05288010,-0.00389895,0.00116669,-0.00389414,0.05215138,-0.00898105,-0.01984214,-0.08394039,-0.02578694,-0.03822903,-0.02631115,-0.04629426,0.07933243
-0.00884227,-0.02675769,-0.05185048,-0.00917721,-0.29801276,-0.01222178,0.09114119,-0.18635444,0.17671415,0.30866140,0.02314748,0.01261222,0.27348572,0.01780855,0.01397712,-0.10388254,0.13142136,-0.08690736,0.19567335,0.10158672,0.12246536,-0.20775700,-0.00986845,-0.02998163,-0.16590124,-0.01702569,-0.00922526,-0.01817073,-0.08248457,-0.19691294,-0.36258477,-0.12267115,-0.00563162,0.36973602,-0.19956307,-0.18508723,-0.44948816,0.03973890,-0.08845837,0.10797136,-0.06920871,0.15354322,0.16746536,-0.18550844,-0.28840351,0.07292931,0.00711373,0.07864265,0.03542831,0.08637903,0.08257581,0.06658500,0.07689196,0.12281858,-0.06184313,0.01009614,-0.06947502,0.02848901,0.06564447,0.11433451,0.16564590,-0.07106192,-0.22141638,-0.16208741,0.23931551,-0.36961284,-0.00471620,0.00230873,-0.15078445,-0.08523399,0.00846923,0.07438525,0.12021982,-0.02519896,-0.43166929,-0.19435738,0.08331974,-0.44058070,0.08778551,-0.11473343,0.09405433,-0.18134135,-0.02121190,-0.18536676,-0.10992289,0.01620699,0.35928971,0.19943361,0.15165377,-0.15527532,0.04733748,-0.19838312,0.13751958,0.35095066,-0.00485527,-0.51518118,0.05803328,0.00063861,-0.11093042,-0.15819749,-0.08132275,0.09072790,-0.49255463,0.07346840,-0.06458540,0.12065401,-0.17838618,0.04236034,0.03814325,0.01873777,-0.09464240,-0.16742061,0.04810970,-0.06121886,0.16606914,0.02674049,-0.26543733,0.40801048,-0.22638999,-0.03926167,-0.00723571,-0.00723580,-0.10322102,0.29107505,-0.11404962,-0.25509241,0.06625007,0.02498820,0.04096674,-0.34459069,0.30790570,-0.28851801,0.06878897,-0.16700251,-0.08212165,-0.14090556,-0.01751567,-0.20353110,0.02641749,0.00510032,0.11752844,-0.24336036,-0.19897701,-0.02839845,0.05703456,-0.19508956,0.05056685,0.09567155,0.23660283,0.02418629,-0.36641708,0.15440217,-0.24815029,-0.27194405,0.23898169,-0.25692776,0.01007871,0.13324594,-0.20515464,-0.16103001,-0.00868853,0.06248652,-0.01925014,0.15644889,0.13045569,0.02933379,-0.14061835,0.05104721,-0.07202848,-0.00512054,0.08903142,0.07070009,0.04260294,-0.44916928,-0.29073957,0.16709830,0.16002443,0.03694346,0.04801315,0.02888854,-0.06020918,-0.02976105,0.02083115,-0.15254979,0.02890470,-0.16428442,0.11296870,0.25592458,0.05839955,-0.29531381,0.32249975,-0.11508923,-0.21421780,0.06975648,-0.16822356,0.19402720,-0.00522534,0.10462606,0.04688048,-0.04675098,-0.27471823,0.17822213,-0.12300361,0.13834211,-0.24110427,-0.10537984,0.06348085,0.02428200,0.02170304,0.07962940,0.19588076,0.17063658,-0.41864252,0.01205776,0.00885287,-0.13112324,-0.22901623,-0.11386616,-0.17486897,-0.01526065,-0.11628147,-0.22425346,-0.03949397,0.12673180,-0.01029440,-0.27359366,-0.39863315,0.01379736,0.24325070,0.06670325,0.15947205,0.03615435,-0.15835454,0.12530467,-0.55489033,-0.04328662,0.13277575,0.00306984,0.04112035,-0.01553733,0.03388188,-0.06297575,0.03463295,0.07776685,-0.08993632,-0.16397557,0.33837208,-0.11023203,0.01918935,0.09370556,0.20566113,0.11690202,-0.06892449,-0.16712467,0.04384872,-0.11920791,0.02083382,0.14238717,-0.07490742,-0.17356208,-0.01765618,-0.08555517,0.01675011,0.07859623,-0.09242285,-0.01306547,0.02985344,0.09711153,0.11260318,-0.15101312,-0.06019882,-0.20136774,0.04309499,0.09992338,-0.38264966,-0.00200255,0.23958018,0.14022434,-0.25608507,0.16157253,0.06281587,0.11846087,-0.25971815,0.18077384,0.15636100,-0.27235916,0.18742120,-0.00301728,0.13784935,-0.11470590,-0.47404656,0.06051900,0.35037848,-0.04980309,-0.27371067,-0.18522318,-0.42941517,0.07050502,-0.19114414,0.11347792,0.13246444,0.08937364,0.02037696,0.57359129,0.05662970,0.18434869,-0.02558876,-0.27698290,-0.01481464,0.08102436,-0.01517685,-0.00100311,-0.16798401,-0.17411263,0.10148998,0.04377456,0.01960373,-0.04267455,0.16272709,-0.13337342,-0.07761669,0.10705978,-0.15329972,0.03508618,-0.02596274,0.01309001,0.23432373,-0.01708885,-0.11652996,0.11602674,0.13798498,0.40196079,0.00697199,-0.05738218,-0.12088837,-0.12453603,-0.05627830,0.23503186,-0.43004271,0.08413973,-0.08449947,0.09360186,0.16220511,0.06568918,-0.00048785,-0.04145386,0.01178701,-0.15658854,0.10416331,-0.44637185,-0.08076080,-0.22906879,-0.04300404,0.14701337,-0.41175473,-0.09556431,0.18771189,0.04331842,0.27504957,0.13442810,-0.31434631,0.05932702,-0.05738773,-0.00803755,-0.36399081,0.02800954,-0.15817276,-0.09305989,0.00246571,-0.16709779,0.00152035,-0.19119458,-0.11564977,-0.05932205,-0.07020538,-0.21483062,0.11277623,0.04288322,-0.15382688,0.13980560,-0.11692690,0.11080393,-0.26142642,0.07935361,-0.07140211,0.02754163,-0.03597031,0.15365951,0.09638640,-0.04728507,0.07218613,-0.18038717,-0.18394449,-0.10496699,-0.23015103,-0.27508935,0.02745553,0.07439753,-0.09302552,-0.15010731,0.14181761,-0.06102499,-0.00341359,0.07922011,0.32022375,-0.21472967,-0.17234696,-0.03760220,0.16430728,-0.02644883,-0.32683155,0.07179022,-0.03241937,0.07579976,-0.42825043,-0.30396131,0.15477161,-0.01161723,-0.19435953,-0.09375099,0.04418613,0.14373259,0.07014118,0.04363060,-0.36950731,0.08547859,-0.21524329,0.03550477,-0.01799227,0.05973488,0.14668311,0.12240723,0.01877075,0.12891394,-0.02399805,-0.33397561,0.00066465,-0.09815984,-0.05707397,0.28385735,0.00643775,0.12546019,-0.36282566,-0.04877104,-0.32240522,-0.09454276,0.09511358,0.03298970,-0.00552228,-0.16012935,0.04400235,0.08341599,-0.05083413,0.00534413,-0.14837162,-0.04817890,-0.06505840,-0.44182739,0.18271203,0.12094026,0.11714447,0.17107032,0.18405688,0.13502528,0.04030324,0.06813534,-0.02211207,-0.17763083,0.15521961,0.20778058,0.16578412,-0.19822438,-0.01189199,0.15195517,-0.00584064,-0.05804325,0.21324082,-0.48316073,0.06876574,-0.01786610,-0.25137475,-0.15163195,-0.09119791,0.03783720,0.06449011,0.25309008,-0.06741436,0.05415517,-0.22677016,-0.40732360,0.04049677,0.19735812,0.03704346,0.00681414,0.11878117,0.08826501,0.07479111,-0.15367930,0.15249947,-0.00978347,-0.11521338,-0.23184885,0.14189984,-0.46269822,0.13367742,0.03375955,0.06783181,-0.18443543,-0.15490778,-0.19082172,-0.06467932,-0.11399472,-0.06569568,0.06577338,0.21540569,-0.07232901,-0.19163948,0.16840422,-0.01540132,0.09070151,0.11430758,0.03619542,0.02654956,0.11578267,0.18018405,0.12042540,-0.41482535,0.21360640,0.07753470,-0.11762457,0.02280141,-0.21546312,0.04250832,0.23261914,-0.06273105,-0.29511783,-0.14587785,0.12584414,-0.02386850,0.03228201,0.14866523,-0.30395439,-0.17906532,-0.45987570,0.05913732,-0.10980877,0.00964980,-0.34348837,-0.28307316,0.02191393,0.01630642,0.15476115,0.16183335,-0.06302849,0.09355924,0.14652446,0.28573138,0.12068824,0.07862630,-0.05189421,0.15041363,0.00815449,-0.13271035,-0.25600767,0.04722567,0.12117632,-0.22922041,-0.03080359,0.02575900,-0.10027888,-0.05489249,-0.05131281,-0.04262249,-0.01673328,0.15305467,-0.25005162,-0.34733742,-0.04503194
0.02110585,-0.00276254,-0.02035311,-0.11479775,0.17919350,-0.05112763,0.02424282,0.05860466,-0.07505506,-0.04652377,0.01621648,-0.01094590,0.09574126,0.03336787,0.03134995,-0.04693625,-0.08056916,0.01489632,-0.00958696,-0.00204772,-0.05896074,0.13105297,-0.02121034,-0.04262276,0.10034063,0.03458605,0.05905703,-0.06128773,-0.01814301,-0.06931671,-0.10869151,-0.07076686,-0.07289825,0.08334523,-0.00321415,-0.10889017,-0.18936193,-0.10998987,0.02996090,-0.06749518,0.10724439,0.06290469,-0.00705853,-0.06038816,-0.01201222,-0.07219007,-0.05470307,0.03789855,0.10451732,0.06249647,-0.00830941,0.05021501,-0.05679754,-0.07824387,-0.11304204,0.07247868,0.00347414,-0.04265787,-0.05210808,-0.01962647,-0.02564038,-0.04047388,-0.02173431,-0.40161389,-0.09546140,-0.10228680,-0.08536979,0.00863163,-0.06148546,0.03364744,-0.05374920,-0.02337019,-0.13980903,0.00205276,0.39251220,-0.01386463,-0.07119974,0.03785620,-0.02681752,-0.01707232,-0.05291355,-0.02845478,-0.08778027,-0.08017048,-0.11018730,-0.09340400,0.00054342,0.04752161,0.05918768,-0.05221176,0.02057241,-0.08632054,-0.07574965,0.11735271,-0.09876580,-0.22086044,-0.05745503,-0.11116257,0.05702036,0.05836393,0.05960869,-0.12614970,-0.05154772,-0.01896898,0.26752353,-0.06475649,-0.06669300,0.06877449,0.01169970,0.01285547,0.02260192,-0.09326972,0.04669077,0.00657817,0.05239309,0.04341219,0.07438800,-0.12426477,0.02867451,0.04673536,0.10115581,0.00715817,-0.07509509,-0.07981059,-0.05312826,-0.02468476,-0.05488319,-0.14332265,-0.08311433,-0.00212469,-0.04840351,0.17148365,-0.10647275,0.00131622,0.01513201,-0.05571844,-0.10416472,-0.02713859,-0.01265534,-0.00977518,-0.01624285,-0.00016260,0.22247326,-0.05928085,-0.05497088,0.05140648,0.06715167,-0.06449032,-0.04164528,0.00021829,-0.00870593,0.00138805,-0.21488616,0.00885256,0.16306536,-0.01721439,0.02164250,-0.08599780,-0.08149022,-0.01071911,0.02637140,-0.00418437,-0.02669949,-0.07728661,-0.10692637,-0.01220963,-0.01920013,0.08305878,-0.01853352,-0.00699484,-0.07483187,0.05801466,-0.02571265,-0.02750492,0.04231291,0.02903459,-0.09094869,0.00958423,-0.02304875,-0.00646646,-0.03341787,-0.06058465,-0.02823531,0.01995933,0.07536919,-0.09675566,0.01745079,-0.03630621,-0.01520535,-0.04362555,-0.05528220,0.04101801,-0.06342471,-0.03272146,-0.01313413,0.03887308,-0.00724209,0.00465740,-0.11860746,0.02263222,-0.02657253,-0.69459838,-0.04313801,-0.00455539,-0.00140238,-0.04682652,-0.08785943,0.00835094,-0.04335589,-0.04129139,0.01782308,-0.10323286,0.02202238,0.09166211,0.05187790,-0.02613043,0.01419535,-0.00279549,0.02576016,0.11052979,-0.08592322,0.02453706,0.01122020,-0.06317020,-0.03901942,-0.04818064,-0.03120357,-0.07608014,-0.01912352,0.00614030,-0.02652383,-0.04325512,0.01220184,-0.01977339,-0.37074956,-0.07403868,0.09945498,-0.06965051,-0.06857202,-0.01712496,-0.03704980,-0.02673069,-0.02153568,-0.11276658,-0.03251336,-0.24372897,0.10289346,-0.04724455,-0.03577225,-0.07066268,-0.10025331,0.02673320,-0.13453758,-0.01619131,-0.05726155,0.07083089,-0.09476192,-0.06881750,0.03865394,0.13886398,-0.00552844,0.05493554,-0.05943391,-0.06272604,-0.03887278,0.00269294,-0.01802648,-0.01083017,-0.03572877,0.04567537,0.00896120,-0.11973730,-0.03306096,-0.07439402,-0.05015423,0.01824632,0.06439932,-0.07926490,0.20333044,0.05217713,-0.03800309,-0.06053281,0.17642201,0.02986084,-0.03136091,-0.07902522,-0.01552666,-0.09982461,0.03550788,-0.06832177,0.06463747,-0.06813904,0.11894708,0.04998794,0.04083014,0.06133607,-0.04500372,-0.06648286,-0.00019477,-0.06796133,-0.04108787,-0.11809047,-0.06837963,0.11631196,0.03151356,-0.11310139,-0.03045550,-0.06626011,-0.03289939,-0.04801605,0.03655338,0.00912926,0.00197846,-0.04030267,-0.04553550,-0.20828903,-0.07101825,-0.06816050,0.02947069,-0.03622108,-0.03824202,-0.11346262,-0.04537594,0.02201329,-0.09129310,-0.14460258,0.00871584,-0.02843764,-0.12477906,-0.11629372,-0.01122446,0.13471960,-0.09350968,0.02153493,0.03072446,-0.07034694,0.07391352,-0.00605721,-0.00696217,0.05232013,-0.09199940,-0.03494000,0.02045562,0.04680775,-0.25890589,-0.08693739,-0.05257260,0.00994661,-0.01658324,0.00458396,0.09767494,0.06147246,0.11827365,-0.00283023,-0.11862977,0.01567510,-0.12025236,0.03834134,0.02982146,0.03142782,-0.59459889,0.00093746,-0.09839107,-0.42534384,0.04923606,0.00406640,-0.03024766,-0.01010097,-0.07833870,0.04080693,-0.00596239,0.00250430,-0.12894404,0.03968291,-0.04227180,-0.04028223,-0.08053812,-0.04736091,-0.02040931,0.01700227,-0.04325633,-0.03116864,-0.01190091,0.04998389,0.00050408,0.02027402,-0.14968851,-0.11310095,-0.06678683,0.03837868,-0.01115073,-0.08972777,-0.08553353,-0.03229424,-0.34628934,-0.04602231,-0.04074961,-0.15053752,-0.13532540,-0.10416096,-0.04361206,-0.03414588,0.04438287,-0.07987002,-0.04094011,0.02607710,-0.05095558,-0.00211565,-0.07992167,-0.02051641,-0.00516503,0.00254043,-0.00584835,0.00636399,0.04211435,0.11198132,0.00783497,0.06355374,-0.03745485,-0.09145585,-0.19382209,-0.02007821,-0.31934553,0.01124356,0.03773459,-0.03782800,-0.69036442,-0.02541556,0.11234109,-0.15672259,-0.03538634,0.02516883,-0.07636966,-0.14312050,-0.06527164,0.00353978,-0.04422326,-0.04680800,-0.06294896,0.08754430,-0.00175350,0.00639415,-0.10851173,-0.04200053,0.13226572,0.02496327,-0.08124582,-0.07975751,-0.02277364,-0.07075132,-0.06304839,-0.07112565,0.10693268,-0.03183790,0.20509018,0.02722629,-0.02257128,-0.00420795,-0.02401843,0.09584995,-0.02412215,-0.06808394,0.00169699,-0.06648468,-0.05624067,0.11021025,-0.01541837,-0.01076926,0.02536861,-0.07915157,0.02065844,-0.01538953,0.12286222,0.10241058,0.04605773,-0.07486266,-0.10321414,0.04116051,0.07123160,-0.07182721,-0.08717637,-0.04912624,0.15101372,-0.08892170,0.01738021,-0.00317412,-0.06640950,-0.09206759,-0.04672107,0.06571395,0.07746412,-0.00512361,-0.09954115,-0.07200297,0.01676946,-0.11360423,-0.10116512,-0.00589601,0.00815129,-0.14045395,0.04880583,-0.09967595,0.00323409,0.06020308,-0.00969414,-0.16918832,-0.09110825,-0.05070596,0.00927974,0.02013591,-0.08635986,-0.11450953,-0.05535145,-0.09505293,0.02299726,-0.04515744,-0.06791870,-0.04275538,-0.04526381,-0.04552726,-0.15019540,0.11421266,0.00230930,0.05393521,-0.01742893,-0.05776660,0.09543522,-0.03986747,-0.00026237,-0.11239127,-0.06242449,-0.20471996,0.01473856,-0.00770990,0.01570089,-0.07592834,0.06081625,-0.02943515,0.00443413,-0.01462585,-0.09773091,-0.05366081,-0.07699171,0.00531189,-0.14050414,-0.07016911,0.04230535,0.08743776,0.05795657,-0.06886037,0.03484332,-0.04698484,-0.01121855,0.07098769,-0.03575337,0.02508744,0.01117081,-0.07222951,-0.07885774,0.04061975,-0.14708777,0.00957523,-0.62315726,-0.39075360,0.01211449,-0.03875685,-0.00002148,-0.11186349,0.03447076,-0.02024967,0.07244530,-0.00221132,-0.04383165,0.01939392,-0.00525477,-0.01299272,-0.02275503,-0.16156699
-0.00829314,-0.06686929,-0.10649164,0.16562089,0.20701145,0.12931873,0.05250020,0.05697938,0.16018231,-0.11290396,0.05769079,0.16125676,-0.07721084,0.29875809,0.03889899,0.13356602,0.18883994,0.04898915,-0.01155710,0.14601383,-0.01493514,0.15123887,-0.01268555,0.13016395,0.35823557,0.34792617,-0.38359359,0.11033364,0.03590196,-0.07482570,-0.30163181,0.08614702,0.21022695,-0.00797885,-0.00526594,0.24881747,0.06594145,0.11263305,-0.07849599,0.00674000,0.26332685,0.06223224,0.09759187,-0.21178305,0.27847728,0.05336492,0.07206850,0.24647842,0.10001475,-0.03462432,-0.04951619,-0.07422672,0.32869828,-0.00574463,0.25735423,0.04905878,0.13042532,0.10642009,-0.01089778,0.06674357,0.24211885,-0.00083868,-0.27216586,0.14369021,0.26851773,-0.09960923,0.13738430,0.04732029,-0.29206422,0.22821651,0.05086236,0.26413241,-0.09306481,-0.00182435,0.32332498,0.28761384,-0.08180488,0.19946085,0.14613135,0.14730184,0.09529725,0.00489472,0.06649337,-0.23772810,0.12737817,0.05404455,0.17132214,-0.03265845,-0.04812272,0.10108384,-0.05250561,-0.20885925,0.09948332,-0.12948103,0.09069061,0.16416834,0.03683879,0.09399273,0.15276280,0.13435504,-0.00255774,0.09449054,0.21789293,-0.05293014,0.09400351,0.21207261,0.03525972,0.00088526,-0.00337026,0.06177429,-0.14666988,-0.06961076,-0.01035391,-0.04634363,-0.13082494,-0.13113332,0.17195985,0.15109254,-0.07509519,0.20900121,0.02354710,0.12278584,0.06911595,-0.05134209,0.03031939,0.48259783,0.18418616,0.14443780,-0.22401597,0.16804683,-0.34891883,0.10425065,0.03373461,0.03775817,-0.02517673,0.06741667,-0.29055765,-0.19011939,0.08453497,0.01171301,0.04424125,-0.12202385,-0.08653199,0.05773361,0.38416356,0.02726852,-0.05027248,0.02148623,-0.49687010,0.05039957,-0.07481468,-0.11592004,0.14126143,0.52068985,-0.25938413,-0.12558527,0.01844717,0.04986953,0.04588837,0.13198744,0.10545018,-0.10509392,-0.09805703,0.09523414,-0.55191267,-0.06330875,0.12994848,0.37579006,-0.20359842,0.01853284,0.04259928,0.01085053,0.07225607,-0.08881758,-0.09692112,0.31898192,-0.01893819,0.28645360,0.12715979,-0.01309145,0.03877065,0.04905038,-0.00365723,0.04907947,-0.04760389,0.00973161,-0.03858775,0.07322887,-0.11111096,-0.06540788,-0.01951643,-0.11417546,0.01698525,0.08387017,-0.12267384,-0.12365831,0.00136690,0.02538564,0.09548821,0.06663241,-0.27727112,0.20132978,0.49834865,-0.14294948,-0.02165248,-0.04769057,0.09649208,0.08561759,0.18505959,0.06047498,0.02956935,0.16113000,-0.10174575,-0.15646972,0.06906234,0.01865522,0.18431616,-0.11854132,0.09937024,-0.01134338,-0.09591474,0.40294853,-0.02687231,0.11805726,0.16048351,-0.17374341,-0.36594391,0.11056165,-0.07950296,-0.19570529,0.09402940,0.22056535,-0.15524872,-0.05004708,-0.30325696,-0.02969604,0.07588408,0.20435514,0.08696105,0.05077434,0.03110534,0.07561851,-0.00831236,0.01463619,0.05877799,-0.02807101,-0.11338618,0.05706233,-0.04513808,-0.33924356,0.13757138,0.03273844,0.02607026,0.08961558,0.10525950,0.02933200,0.15716757,0.00077356,-0.02542174,0.28760532,0.07425406,-0.23423086,0.09612981,0.13184309,-0.38678792,0.25829414,0.00963624,0.02386992,-0.00331907,-0.00658986,0.04384889,-0.26129383,0.20202073,-0.01445890,-0.03868070,0.08016546,0.28666416,0.06326105,-0.33729655,-0.15016547,-0.07703263,0.10830146,0.12940378,-0.02940087,-0.42600030,0.24030794,0.08043971,0.21950403,-0.13898119,0.15601555,-0.30015159,0.13523123,-0.16289663,0.02506640,0.13136482,-0.26752952,-0.06303932,0.03481559,0.17981501,0.15993054,-0.02899376,0.14560071,0.00337944,0.17441370,0.04389940,0.42355672,0.01936396,-0.35280043,-0.05192221,-0.07283954,0.03903418,0.05407713,0.01789046,-0.01969353,0.16006491,0.01756011,0.12108903,0.01687531,0.09621378,0.31118906,-0.02912476,0.06896771,-0.30008385,-0.24005760,0.11410065,0.17227186,0.17062449,-0.20696682,0.12666921,0.02345402,0.02457489,-0.18255849,0.08524691,-0.02360211,-0.00375651,0.06875790,-0.00979918,0.06281602,-0.12007849,0.08579451,-0.00864107,0.09964740,0.08225687,-0.00504903,0.10689197,0.09851650,0.20464046,0.10114928,0.03309987,-0.03462449,0.09775658,-0.40162393,0.06098472,0.04500894,-0.18355119,-0.14817879,0.18216234,0.02177291,-0.03363471,-0.08119853,-0.26929271,-0.17609812,0.03208014,0.14359286,-0.09657329,0.04863756,0.12119942,0.04542676,0.00731578,-0.16502780,0.00280998,-0.13615412,0.17667609,0.00220664,0.19068561,-0.02033562,-0.03248498,0.12357666,0.05013684,-0.06805327,0.03224485,-0.00372623,-0.43158332,-0.18633926,0.17989376,0.03678516,0.15325437,0.16718736,-0.15977867,-0.17887862,0.05688382,-0.32847413,0.06959211,-0.09720202,0.26480931,-0.10443413,0.06025329,0.24774778,0.05544995,0.35376143,-0.00466806,0.12001312,0.04261972,0.12210091,0.27114409,0.02959551,-0.25036046,0.00165577,0.21247841,0.01419405,-0.27284792,-0.03114641,0.11195528,0.16117434,0.27786401,0.53624785,0.19318387,0.04825725,-0.17598222,-0.13337389,0.16992687,-0.03879537,-0.01413889,0.30666026,0.16751666,0.22615024,0.02108471,0.06936347,0.15405214,0.26460040,0.13165598,-0.00168481,-0.14427197,0.42774960,0.28522110,-0.19617292,0.15715124,0.04144932,0.04297723,-0.18454318,-0.01569055,0.06155457,0.03752384,0.30704367,0.26077032,0.07217092,0.09619100,0.32864627,-0.14745860,-0.01551567,0.11000919,0.11372393,-0.01775850,0.40384257,0.20407419,0.02127861,0.00682592,-0.29840147,0.01709724,0.11273229,-0.06585085,-0.00201412,0.05437285,0.08297323,-0.00664695,-0.03727709,-0.02277739,0.24632724,-0.04864130,-0.03874407,0.12907785,0.08521622,0.04032605,0.00456558,-0.03892995,0.11605216,0.06036063,-0.15634540,-0.09802591,0.06103493,0.22586922,-0.17179008,0.16807543,-0.05816768,0.20681880,-0.15806867,0.31070676,0.18080099,0.02763875,0.12246794,-0.00114967,-0.02463327,0.17416453,-0.00662519,-0.00845917,0.10956275,0.16403039,0.12526326,0.11278544,0.07206316,0.18525645,0.01148533,-0.17550135,-0.21772438,0.22893251,-0.01107518,0.23121253,-0.07953411,0.18120110,0.20051274,0.07163534,-0.24127781,-0.15436614,-0.02234906,-0.22529864,-0.05193924,-0.16790316,-0.01512937,0.05759966,-0.08454134,0.09790293,0.15863335,0.14303306,-0.08489042,0.23404787,0.18551788,-0.10621852,-0.23363988,0.01339817,-0.00804038,0.16547367,0.19562599,-0.05493347,-0.13723533,0.13727634,-0.00293402,-0.14751513,-0.10479902,0.06030976,-0.22588627,0.19884743,-0.08891993,0.23921706,0.03340592,0.14745568,0.25812197,0.29709157,0.21378236,0.12158796,0.15863568,-0.09391249,0.06183323,0.03078023,-0.00616992,0.17814173,-0.02475623,-0.05594531,0.31706974,0.20836391,0.04986793,-0.04235285,0.00219566,-0.01693762,-0.03621360,0.13453378,0.18122144,-0.09644064,0.06926995,0.08009586,0.00397154,-0.04224049,0.01669368,0.02725450,0.02144672,-0.17931354,-0.25801212,-0.09796903,-0.05025703
0.03779409,0.12844895,0.05937159,0.05302951,0.25946853,0.00238887,0.08110663,0.02601338,0.05641577,0.04773889,0.02713202,0.04676852,-0.16638941,0.03044909,-0.02116316,0.00558009,0.00121364,0.07242495,-0.08513479,-0.09684606,-0.04351002,-0.01317210,-0.02404873,0.05635528,0.04061436,0.13119960,-0.11759081,0.09879747,0.17094927,-0.02116788,-0.02882075,-0.09004962,-0.08946038,-0.00391477,0.16482183,-0.06862880,0.27042258,0.06415487,0.06029960,0.05034672,0.08143152,0.00427211,-0.02904746,0.02819582,0.22972147,0.02897942,-0.00947988,-0.04617790,0.00377656,-0.06808678,0.02415445,0.13128164,-0.10166683,0.04248327,-0.20399567,-0.03925452,-0.05184132,0.04277063,-0.04692084,-0.05107291,0.20672464,-0.06566306,0.05458700,0.18259156,0.02339206,0.06904701,0.01308195,-0.05281242,-0.08266365,0.11467460,0.01176623,-0.09429706,-0.12775905,0.04155526,0.23539953,0.14472260,0.04894341,0.33205473,0.00389334,0.14967059,0.07930145,0.02671778,0.06813495,-0.08875134,0.05127286,-0.01118639,-0.07781412,-0.00798018,0.07283034,-0.12077431,0.02512370,-0.04170390,0.19586144,-0.09975896,0.07523604,0.34094971,-0.02836161,0.06910574,-0.03416765,0.07186227,0.01136680,0.00655192,-0.26908353,0.02411751,0.10369779,-0.03055452,0.13675277,0.04992861,0.02524520,0.03958938,0.03547573,-0.15955056,-0.13267881,0.11556394,-0.02154344,0.00672693,0.15160283,-0.46744776,0.04950938,0.00345371,-0.02319774,0.10132504,-0.02395648,-0.28875318,0.11607981,-0.06567518,0.08672240,-0.13468714,-0.05631131,0.12048513,-0.24072117,-0.16862679,0.17479904,0.12763529,0.08604693,0.11480184,-0.19302610,0.17855197,0.01439632,-0.03897358,-0.02815740,0.20398282,-0.31715170,0.05703001,-0.04877398,-0.04021905,-0.08868782,0.07846612,-0.28760898,-0.06633938,0.36177984,-0.13223118,0.27375361,-0.13631676,-0.22650020,0.25844264,-0.00505367,0.00934565,0.05459761,-0.13331094,0.14614709,0.02479765,0.02175653,0.13278532,-0.33840668,0.08421359,0.16590539,0.08563103,0.07935736,-0.01953044,0.02311857,-0.00559084,0.10343153,0.50011081,0.25255334,-0.03856556,-0.00612571,-0.07474474,0.06203684,-0.11619440,0.04185601,0.08559313,0.10751911,0.13894400,-0.03642219,0.16224422,0.09387057,-0.11994369,-0.00297795,0.07396576,0.01572586,0.00590118,-0.08895306,0.00206407,0.33479553,-0.06276140,0.06212039,-0.04982077,0.03349764,0.08014394,0.25695264,0.19619927,-0.01776749,0.03713248,0.21706776,0.28651115,0.02988794,0.05198004,0.07016002,0.03995515,-0.00564889,0.08169549,0.38634717,-0.06594610,0.05003124,-0.10461732,0.29092929,0.05034070,0.15507351,0.03522071,-0.03871970,0.18071286,0.00682804,-0.06591843,0.09682142,-0.37454972,0.05714534,-0.06875141,-0.08420037,0.18976666,0.04342860,0.03371849,0.19394179,-0.05045001,0.00913668,0.04284099,-0.12763323,0.08565117,0.04060102,0.22790849,0.00417089,0.02284607,0.10556907,-0.04142062,0.01693263,-0.15185677,-0.08940560,0.03619492,0.11524216,-0.09011047,-0.24497284,0.03967322,-0.00008761,0.20453329,0.01597400,0.21512859,0.02799647,0.05544457,0.02378208,0.10434529,0.09186008,-0.05430639,0.07820076,0.02818215,-0.13758488,-0.05304326,0.07608952,0.00691261,0.02867508,0.07411965,0.03921190,0.17289087,0.07072907,0.04780558,0.05200480,0.11519030,0.00766024,0.10570390,0.31938291,-0.07981170,0.02826356,0.04376387,0.36194175,-0.08214518,-0.32257470,0.05981325,0.04666688,-0.10989138,0.06931116,-0.01560102,0.25476483,0.03006113,-0.07720429,-0.00985769,0.13536257,0.01702400,0.06980237,0.05054807,0.24776326,0.03085937,0.03617299,0.01049799,0.09979723,-0.24832922,-0.02137268,0.19507988,0.09350541,-0.07828048,0.03312870,0.07112999,-0.01338929,0.11364922,0.17973977,0.10398970,-0.00030173,-0.14813282,0.16779628,-0.00527121,0.02170760,-0.22953632,-0.18100610,-0.05206461,0.10544226,0.10257921,0.02570508,-0.16752061,-0.02888695,0.03566173,0.04035439,-0.21397084,-0.01157756,0.08616477,0.02478875,0.01216117,-0.11830560,0.17355114,-0.07434458,-0.09991410,0.20782402,-0.10283653,0.18856685,0.04169118,-0.07119469,0.06045917,0.01425964,0.06044494,-0.05890315,0.02401677,-0.03889138,0.30215862,0.14608786,0.12039191,0.14741871,0.00068669,0.08949576,0.16010569,-0.23755988,0.07878085,0.03263753,0.01544994,-0.13456868,-0.21983969,-0.03088026,0.42281318,0.32341656,0.10813437,-0.01926886,-0.02738343,0.11636011,0.05212321,-0.06556951,0.33282098,-0.06837759,0.01710200,0.16527969,0.08469338,0.04864017,0.03565105,0.31602925,0.01453346,-0.06284144,-0.00550868,0.07001465,-0.03149413,0.11358614,0.03267191,0.04169504,0.00826493,0.02502438,0.13274261,0.03457503,0.32867396,0.17690289,0.07037359,0.41810176,0.27941620,-0.04968790,-0.06459652,0.05070902,-0.10147747,0.00956939,0.07088488,0.12130411,0.05979433,-0.22548209,0.14398468,0.19783458,0.00761459,0.06229055,-0.04687956,0.19213215,0.04371529,0.11334635,-0.06414224,0.32409507,0.22944815,-0.10983066,0.08926933,0.05814725,0.03390218,0.14375460,0.06888391,-0.30354968,-0.03248865,0.00468969,-0.07667200,0.30264813,-0.00121209,0.27859175,0.06312145,-0.06505550,-0.06039447,0.05277756,-0.06914196,0.06477895,0.15168828,0.05198617,-0.03876022,0.07960682,-0.07816786,0.10246216,-0.03210092,0.08826770,-0.15156664,0.37622324,-0.03291506,0.02262587,-0.04432012,-0.10913303,-0.14650650,0.06437643,-0.01772546,0.02930106,-0.04857803,0.15897858,0.09305403,-0.05588671,0.39178136,-0.04647842,0.11190438,-0.02997154,0.10802968,0.09354608,0.09095579,0.11517557,-0.05023409,0.00255076,0.06972390,-0.02369277,-0.11324646,-0.09580173,0.17141064,0.18265824,0.02158694,0.04378932,0.00616534,0.09298905,0.26247934,-0.06029465,-0.00473192,-0.10795542,0.08090649,-0.02198582,-0.01553592,-0.17566685,-0.13164598,0.01645840,-0.00118099,0.05044557,0.12376966,0.10816707,-0.05076104,0.08977184,0.04385952,0.07453801,0.07731852,-0.15252480,0.12771770,0.05706347,0.02165160,0.12498715,0.21733260,-0.08090118,0.47417688,-0.06326709,-0.06179557,-0.04241430,0.11945881,-0.11589328,0.31103680,0.03867086,0.25712687,0.04201530,0.09954588,-0.10461602,-0.02702188,0.00275788,-0.05833190,0.08001246,-0.00266269,-0.13097681,-0.05100719,-0.00975949,0.05331526,-0.06294001,-0.20605443,0.56499034,-0.16865741,0.04629477,-0.01992287,0.07366420,0.42578775,0.01098236,-0.06621512,0.05537122,0.36262342,0.21905023,-0.22877747,-0.05769206,-0.00670416,-0.03683319,0.19937670,0.08498519,0.49319312,0.05462604,0.07114973,-0.00446374,0.13890199,0.10376748,0.02098147,-0.08278298,-0.05379461,-0.04470065,0.03797889,-0.08417630,-0.00797553,-0.23039415,-0.05664264,0.05091632,-0.01610185,-0.02070117,0.13982622,0.24618532,0.58173591,-0.03762958,-0.11175008,-0.00680585,0.17427105,0.09299566,0.14939566,-0.01244769,0.08200523,0.09117574,0.09399391,-0.03983600,0.33173093,0.37356776,-0.14995542
-0.01802699,-0.13688754,-0.11373129,0.07796303,-0.00009399,0.10710352,0.12054814,0.22880627,0.08550332,-0.17123871,0.00939963,0.21258821,-0.09493346,0.24375695,0.07288516,0.04019391,0.07706319,0.08654107,0.06326123,0.12163217,-0.10796202,-0.28328431,0.05917201,0.09978130,0.43485245,0.47229248,-0.44483891,0.09120160,0.07187183,-0.03243884,-0.40389857,0.07922439,0.26525941,-0.22464922,0.00530573,0.11136906,0.04892048,0.04152004,-0.01705423,-0.09858906,0.21456903,0.05504787,-0.05993470,-0.11341760,0.16578349,0.01237909,0.07079221,0.16057210,-0.17542501,-0.01567999,-0.20365489,0.05682598,0.34739205,0.04928169,0.46468487,0.06561393,-0.18949731,0.01736250,0.03474861,-0.01536989,0.12676473,0.05182247,-0.08893027,0.32696250,0.22163098,-0.11727071,0.13138431,0.06667872,-0.15547416,0.28817013,0.06233848,0.11210141,-0.00011569,0.03741318,0.21625106,0.24642642,-0.02795389,0.18982586,0.11512160,0.08463934,0.10765413,-0.10709886,0.10977505,-0.03580771,0.08626510,-0.11393875,0.02716314,-0.07730004,0.05578112,-0.20191543,-0.11694640,-0.15120633,0.18093678,-0.21574360,0.13311066,0.20881389,0.05051133,0.17438802,0.17367846,-0.09937979,-0.02062697,0.07667370,-0.12396701,-0.24438025,0.03225305,0.19494496,0.09344539,-0.04887887,0.08072025,0.04499424,-0.07865658,-0.20045792,-0.09968697,-0.03473192,-0.04842287,-0.10152256,0.20424423,0.32612878,0.19494906,0.02737046,0.06590577,0.09464415,0.16482985,-0.06036052,-0.03012214,0.23940746,0.19865704,0.01729452,-0.21716703,0.41237199,-0.22064421,-0.06350479,-0.06396448,0.05287453,-0.10414420,0.12396485,-0.21584734,-0.19717366,0.02936614,0.05779127,-0.03321978,-0.19953415,-0.00230991,-0.01685247,0.26654747,0.09458303,0.06800761,-0.08632631,-0.18379612,0.02681493,-0.00458277,0.00374439,0.27766687,0.38968506,-0.18571231,0.14078209,-0.06036988,0.08825012,0.05286971,0.13663752,0.03233546,-0.06054468,-0.08352053,0.08791959,-0.35120124,-0.04872951,0.20928523,0.33031809,-0.20613655,0.02267244,0.01445338,0.01919606,-0.21316907,0.03010987,-0.05971287,0.04866326,-0.02686894,0.22625424,0.17290038,-0.08933228,-0.01964174,0.15343100,-0.03856869,0.11201394,0.10827131,0.02127750,-0.00875203,-0.09350973,-0.04873785,0.03765116,-0.07915790,0.02118397,-0.32789752,0.09184115,0.19183199,-0.13420503,-0.01119336,-0.00251593,0.16865352,0.10728453,-0.06187547,0.49648049,0.28778774,-0.16090004,-0.08070181,0.06384091,0.04423109,0.10434189,-0.04582315,0.05436181,-0.01092057,0.11790244,0.21358652,0.06696802,0.16289674,-0.07401515,-0.21671204,-0.00303393,0.09698619,0.20997809,-0.14701106,0.16676129,-0.04019254,0.06379584,0.29712549,-0.14581242,-0.42277101,0.18866695,-0.16864489,0.00676848,0.00668873,0.14776728,-0.30970719,-0.10455033,-0.12498561,-0.02268749,0.05222195,0.20217606,0.09763514,0.02874938,0.04274324,0.03700064,0.03806028,-0.03142638,0.10259454,0.02513218,-0.06714188,0.00189426,-0.14229104,-0.11111243,-0.12426361,-0.17971677,0.03552205,0.07361057,0.05984592,0.29390728,0.11180401,-0.05400914,-0.00431582,0.46182758,0.08847278,-0.04836436,0.04064396,0.15458021,-0.30278024,0.27476436,-0.16072869,0.06556106,0.08443904,0.07887946,0.00160507,-0.21104123,0.21322335,-0.09321323,-0.18575589,-0.00084232,-0.06707041,0.03157296,-0.06464811,-0.04385046,-0.03033640,0.01182855,0.59448922,0.03154257,-0.35157728,0.42551860,-0.01345809,0.18428288,-0.16831695,0.22217618,-0.26612401,0.14222807,-0.15913489,0.05344914,0.09661634,-0.05938537,-0.12002888,-0.02202494,0.16662502,0.19506273,-0.10009427,0.07654670,0.04694990,0.16040319,0.05944210,0.41482645,0.02441206,-0.00015360,0.07419772,-0.04250885,0.06941493,-0.04400520,-0.04573115,0.21099728,0.14974238,0.14968473,-0.01063883,0.13384932,-0.03409109,0.53672004,-0.31598556,0.04771138,-0.16032237,-0.33058715,0.12810211,0.09824698,0.02574020,-0.39922950,0.12891282,-0.03897395,-0.05297094,-0.36504051,0.08910603,0.09390577,-0.12219356,0.12861340,0.04063252,0.07159066,-0.12966642,0.10714510,0.22401457,0.01509757,0.07973924,-0.24197303,0.20027903,0.05227060,0.38380584,0.17172785,0.07813147,-0.06690223,-0.24090168,-0.01205869,0.03026916,-0.08056482,-0.15689655,-0.07410150,-0.16111143,0.02090886,-0.02967875,-0.07783676,-0.21359242,-0.28678411,-0.04145139,0.37969005,-0.16435124,-0.02058293,-0.09508810,0.13024361,-0.05280756,0.06283060,0.02014957,0.01735147,0.21099268,0.03586356,-0.02268557,0.13609989,-0.00759163,0.13393316,0.02572722,-0.06300176,0.06347855,-0.21382451,-0.15985218,-0.20155585,0.12662254,0.09069785,0.16270210,0.10266197,-0.02617763,-0.27508190,0.05599134,0.01711405,0.12031686,-0.12119976,0.48986033,-0.04141665,0.09039604,0.06980988,0.10769140,0.48631701,-0.07294794,0.07722448,-0.12411673,-0.04694445,0.01900487,0.07782076,-0.30435389,0.04592446,0.21375532,0.06686501,-0.15921970,0.02942758,-0.00376964,0.26083177,0.39798680,0.41692457,0.13938513,-0.06773475,-0.04679424,0.11051415,0.13234136,-0.04946350,0.07638890,0.23529604,0.24302559,0.16545424,0.29404107,0.06540924,-0.29346535,0.21204527,0.04035398,-0.04891679,-0.24469672,0.24235341,0.23873495,-0.02455359,0.07002267,0.00189556,0.04725582,-0.15834969,0.14996526,-0.05647951,0.03527939,0.14442389,0.09549276,-0.12430159,0.04253563,0.44981265,-0.00301085,-0.03613127,0.12006485,0.06533765,0.04838816,0.54460341,0.01499429,-0.13327186,0.06665649,-0.12929153,-0.10427496,-0.16477203,0.11063535,-0.01228505,0.04508928,0.08790333,-0.06710500,-0.01782331,0.03570823,0.18702541,-0.18918121,-0.05400894,0.19350156,0.07168858,-0.32158723,0.03815390,0.06765126,0.17125618,0.04138549,0.08022270,0.01797598,0.02958311,0.35828987,0.08839969,0.01491102,0.04617155,0.09384889,0.01345427,0.31053898,0.14985698,0.11743396,0.33571890,0.01329743,-0.06364760,0.09435702,-0.05858774,0.02400968,0.10683740,0.30017704,0.12897737,0.12473310,0.07838559,-0.03491025,0.14926820,-0.17070100,0.15720227,0.15582065,0.12529922,0.26922664,-0.16581024,0.28617328,-0.04225025,0.04640026,0.17278557,-0.13654347,-0.06926987,-0.26916301,0.06833287,-0.28380617,-0.07554466,-0.00334919,0.05024353,0.00932102,0.27117935,0.21482600,-0.07058270,0.10780579,0.31091034,0.13722785,-0.17254901,0.02232269,-0.12049005,0.10734465,0.24802260,-0.01411266,-0.15546159,0.11524329,0.19589069,-0.11971200,0.00117163,0.00692123,-0.13166197,0.13806301,0.15665746,0.50132161,-0.08781690,0.09040766,0.37333643,0.29818884,0.11678165,-0.01441657,0.17837071,-0.37266481,-0.03621078,-0.05618270,-0.00488984,0.09035065,-0.08235373,-0.03804249,0.15910560,0.14601199,0.05680318,-0.16721328,0.00570138,-0.17776680,0.24128138,0.13246019,0.24200939,-0.09833071,0.12648563,-0.03394272,0.27662385,0.14251330,-0.01246422,0.02603980,-0.11951019,-0.06515477,-0.01557231,-0.04541603,-0.28372151
