-0.21182445
0.29971594
0.01932709
0.09191122
0.029118666
-0.064016625
0.15944132
-0.07881187
-0.2793537
0.18865886
0.19033809
-0.014854185
0.074778266
-0.20467106
-0.19250016
-0.07849337
0.11645772
0.2422719
-0.12758984
0.4139732
-0.23070467
0.0093571115
0.022805242
0.047011767
0.13406786
0.052971095
0.104107924
0.2194338
-0.018025003
-0.024631433
0.12188948
0.049940687
-0.041276045
0.41464418
0.008080563
0.16810626
0.25495878
0.00039239347
0.081178606
0.35540777
0.2704401
-0.045153737
-0.10971878
-0.1456469
-0.014696179
0.5036337
0.030881563
-0.29341885
-0.14908974
-0.022124128
0.10911568
0.04941407
0.17497829
-0.17391518
0.26557496
0.10354799
0.74923146
-0.19115548
-0.11712549
-0.05551401
0.06347271
0.048300643
0.26391888
-0.2545105
0.13406162
0.27297577
-0.50565904
-0.20549017
0.20549643
-0.038830683
0.16801459
-0.24205917
0.030816132
-0.16266248
-0.0033582486
-0.064753324
0.2703058
0.5544843
0.058213893
-0.0046929684
0.43438566
0.4006639
-0.62334335
-0.037383053
-0.17577754
0.67436355
0.07654735
0.19077958
0.1261751
0.81526697
-0.31636885
0.040438965
0.047721274
0.3812532
0.05341604
0.34378305
0.11163723
-0.023197591
-0.4276841
0.5244888
-0.10032549
0.055001073
0.17838053
0.21276529
-0.20130119
0.2620666
0.11800215
-0.015780048
0.06281516
-0.20377477
-0.5612844
-0.08625547
-0.1995636
-0.03899344
-0.23577683
0.038672835
0.17283955
0.08770184
-0.07868136
0.20195694
0.21415219
0.12402423
-0.3695074
0.028909158
0.037017673
0.025215998
-0.23684567
-0.22118917
0.33465725
0.12408947
0.0679308
-0.31382224
0.33751038
-0.2935972
0.07338962
0.0045660064
0.012879291
0.34052026
0.048864778
0.15351456
-0.042084537
0.028154131
0.102321155
0.18095134
0.3014491
-0.19529039
0.09817124
0.26357487
0.035735894
-0.041302472
0.08861445
0.055562243
-0.0042603477
-0.34743297
0.05644871
0.21616025
0.086297184
-0.30291536
0.24106571
0.05113279
-0.24983987
0.15571125
-0.019875402
0.13233738
0.07982164
-0.020285664
-0.010239277
-0.28755313
0.07434672
0.13505752
0.15554437
0.020376572
-0.0499854
-0.3675174
0.29466733
0.17444922
-0.20481905
0.12255187
0.22654133
0.23196483
0.19643821
-0.11203148
-0.31140545
0.4054267
0.13299693
0.062061798
0.012152236
0.14630897
-0.24168041
0.16344099
0.2170373
-0.18070741
0.19251376
-0.46367648
-0.11477809
0.1770473
0.1297294
0.04010765
-0.13296972
-0.033322815
0.13884678
-0.1539124
0.15415181
0.07523996
-0.18312496
0.111923434
-0.026324313
0.3587654
0.34958217
0.12860492
0.06294996
0.13520892
0.15317973
0.32468143
0.22098535
0.070287205
0.18659806
-0.19763868
0.0342157
0.00049028813
0.13003378
-0.23677428
0.08616745
-0.2795802
0.0840168
-0.08751761
0.06552763
-0.12347657
0.21715176
0.06823965
0.21315679
0.3197289
0.0024887617
0.024532616
0.19250034
-0.11080677
0.1273823
-0.3114372
0.024681553
-0.03388905
-0.24397402
0.17931491
-0.112211995
-0.08503318
0.075580135
0.112988904
0.27421042
0.16910833
-0.16999458
0.08634979
0.07731761
0.39732665
-0.08084119
0.008292469
-0.28868634
0.019202134
0.3768638
-0.00975985
0.5953609
0.12967072
0.07108834
0.00066622224
-0.35026723
0.022356335
0.20891282
0.17739342
0.09947584
0.31177756
-0.49436602
-0.21144563
-0.18844607
0.17076907
-0.21353513
-0.08732774
0.31765884
-0.4833697
0.19522047
0.07698301
-0.26323208
-0.07512266
-0.21392262
0.1588634
0.2629218
0.21603982
-0.42759353
0.14489065
0.17515348
0.107034534
-0.21318722
0.060822763
0.2189728
-0.28282917
-0.04683162
0.13385202
0.16860521
0.20247315
0.19604006
0.3654669
0.18946283
-0.14767511
0.046941765
0.008667172
-0.23626307
0.28817424
0.21247447
0.24089253
0.033143442
-0.37503228
-0.34474337
-0.050951574
0.37711805
-0.0071333353
-0.320114
0.118067905
-0.087954976
0.26346022
0.5458818
-0.4299851
-0.18809585
0.08992511
0.14328125
0.36721426
-0.05235665
0.009688115
-0.04325073
0.048523497
0.119530916
-0.024006832
-0.05972633
-0.32071492
0.15954871
0.06624412
0.13242008
-0.41709986
0.085473895
-0.024773475
0.052745443
0.016267562
0.21276636
-0.34506682
-0.06691932
-0.011140255
0.19212715
-0.20810637
-0.43601543
-0.32045808
0.21052319
-0.05703771
-0.015922543
0.030288909
-0.03564249
-0.12760177
-0.25722218
-0.13468957
0.28777978
-0.059210382
-0.026118316
-0.013108634
0.068058304
0.11865556
-0.08680397
0.0919167
0.34163955
0.20824479
0.17242096
0.54014635
-0.23199755
-0.26674482
-0.45828798
-0.30252862
-0.0052892016
0.19120345
-0.16243744
0.09728549
0.09288439
-0.015098139
-0.26608023
-0.08878971
-0.35481846
-0.20687853
0.021794604
-0.4671597
-0.018121392
-0.4958647
0.05063534
0.22766219
0.051598817
0.062396217
0.0450986
-0.13731694
-0.07357015
-0.30555302
0.15234251
-0.30169564
0.25760138
0.077961415
0.1572084
-0.04671144
0.09863421
0.102965
0.39556202
0.2453526
-0.3364865
-0.08324808
-0.09759337
0.2007053
-0.02761352
0.13281907
0.12275032
-0.767178
-0.19679739
-0.09231996
0.046393912
-0.022821093
-0.41484368
0.045498718
0.31842044
-0.045032047
0.19461004
-0.20515734
-0.018390939
-0.18711123
0.0040546274
-0.05956971
0.38050088
-0.32435274
0.10429231
0.08045903
-0.13114627
0.06155217
0.13471839
-0.008123227
0.069812365
-0.056588512
0.30078098
0.22471152
0.17371945
-0.3185538
0.5925532
-0.34588954
0.21252851
-0.03291647
0.16444817
0.20323269
0.105272
0.2509443
-0.075919665
-0.36052212
-0.035405282
0.0281359
0.19346066
-0.0208608
0.025981067
0.35648242
0.17297463
0.11927541
-0.3335007
0.11538628
-0.040710397
-0.030186687
0.13680089
-0.02258729
-0.20752887
0.16372246
0.087762386
-0.12910683
0.046183478
-0.12745985
0.05848363
-0.032116726
-0.028577218
-0.29442567
0.22749849
-0.06555621
0.072597474
-0.28209794
-0.120406345
0.0018922116
0.7827418
0.118062615
0.11803737
0.2528658
0.13451706
0.0027526785
0.22020873
0.55271786
0.20779604
-0.16137187
0.4209942
0.05429654
0.12387095
0.23175532
0.13079078
-0.02362206
-0.41689736
-0.1399035
0.43807846
-0.32899854
0.1374504
0.050558276
0.0060471967
0.12790671
-0.078626566
-0.1557114
-0.024200816
0.35060924
0.045079336
0.054075327
0.121516794
-0.32132527
-0.043733165
0.056981307
0.028411735
0.33753636
-0.013975775
0.17204969
0.11197988
0.013637428
-0.21159491
0.46786407
0.14675139
0.15243298
-0.04524894
0.1238871
0.004205891
0.25502363
0.4243967
0.14834255
-0.6525958
0.09864779
-0.14554921
0.1417715
0.0059541296
-0.3479688
0.098165914
0.015087193
-0.37343433
-0.0024879258
-0.18106604
-0.39432985
0.085488506
-0.21568671
-0.014965137
-0.092067204
0.16045892
0.1499012
0.2091124
0.11402661
-0.009068592
0.07868451
0.16427092
-0.15726344
-0.2481896
0.26636085
0.3977926
-0.14699052
0.13230589
0.19649188
0.22556439
0.03250996
0.1175966
-0.28265023
0.484342
0.24967809
0.15014866
0.1607138
0.043537207
0.4675663
-0.26580316
0.061970007
-0.5850915
0.12347861
0.37046242
0.31335184
-0.25157812
-0.31355786
-0.17220487
-0.032034982
0.24193093
-0.5126083
0.028715784
0.0010313138
-0.019609053
0.057297394
0.005548296
-0.5400179
0.19250487
0.13789782
0.1382054
0.02162258
-0.34066996
-0.5336169
0.14238957
-0.33612406
0.1515729
-0.229778
-0.017606277
-0.16773036
0.5716215
0.055231977
-0.05990515
0.016384764
-0.18530478
0.08863626
0.31514442
0.04280012
-0.055520806
-0.018638613
-0.0012087546
0.0715735
0.009924937
-0.3065847
-0.017330455
0.05671234
0.11358127
0.044421043
-0.0071452013
0.24352103
0.070567384
0.25561386
0.08117144
-0.1435082
0.029719666
-0.19178236
-0.08156203
0.12314228
0.2941583
0.032652874
0.400776
0.0076442948
0.076279685
0.10181829
0.102603965
0.20460287
0.282025
0.25866544
0.17960148
0.00657958
0.01046858
0.054971486
0.07963527
0.16019045
0.1766187
-0.19020717
-0.35955775
-0.66624147
0.16698281
-0.11673351
0.1055184
0.37250584
0.2579016
0.003747953
0.12215627
0.23918463
-0.124978006
0.07203297
-0.015701933
0.0119080795
0.12131868
-0.09209249
-0.1961729
0.25292736
-0.12578681
-0.0968763
-0.010200438
0.58967525
-0.003425957
0.37758005
0.09299846
-0.066724606
-0.61295354
0.13135476
-0.043199584
0.062107272
-0.28693515
0.02318421
-0.3613707
-0.5908496
0.2140508
-0.049495928
0.088936836
-0.013171794
-0.36851126
-0.12641878
0.11279404
0.14761212
-0.13117747
0.109680414
-0.16063489
0.15861952
-0.31142068
0.16661963
-0.032291442
0.048221633
0.14628255
0.34455484
0.063440554
0.11240516
0.17040959
-0.6355402
-0.81274337
0.09903756
-0.21400079
0.06287664
0.21630047
0.012782765
0.13149591
0.085706405
-0.11816562
-0.012380624
-0.123378605
0.32216832
-0.12078152
-0.19827622
-0.21621093
0.04560438
0.18509722
-0.28148153
-0.23189203
-0.15933873
0.0050152107
-0.29431933
-0.14685462
-0.033612236
0.13301614
-0.031305827
0.035340186
-0.06892092
-0.13727465
0.1920316
0.06096186
0.22119285
0.06638157
0.14121981
0.1748938
-0.23551428
0.22725822
0.18771647
-0.0023454092
0.24203895
0.04882474
0.119080484
0.002349015
0.03770836
0.09410384
0.4448792
0.012965432
0.11178151
0.04378232
0.17783317
0.051242076
-0.00026547996
0.11771301
-0.07903402
0.2462387
0.31127393
0.039859813
-0.05660014
-0.012499728
-0.17854732
0.26084316
0.06917094
0.18904977
0.007080997
0.07219943
-0.41040537
-0.07853119
-0.050422616
0.069021784
-0.10044989
0.21835753
0.043675654
-0.048805874
0.16203843
0.12429467
-0.1180106
-0.00072679407
0.09334912
0.016112965
0.4025227
-0.11755531
0.14049825
0.094076216
0.21119332
0.2991641
-0.23412624
0.102516
0.035007566
0.12611857
0.10839593
0.14125624
0.53592634
0.103913195
0.0662298
0.047187977
-0.22666661
-0.057803597
0.024043776
-0.12414648
-0.016258644
0.07239457
0.16938046
0.033003375
0.10974247
0.6405002
-0.0072324052
-0.4133977
-0.33531666
0.0022690073
0.10326831
-0.0038156533
0.067758135
0.11275946
-0.035717003
-0.063446425
0.17494439
-0.027113732
0.35489854
-0.2949404
-0.43058985
0.0055446993
0.08917224
-0.22863488
0.06523724
0.080100276
0.29546407
-0.44346076
-0.24433896
0.034284092
0.029612446
0.69208777
0.0053837253
-0.078797854
0.011482048
0.1295227
0.08428824
-0.12162699
0.1885126
0.17326015
-0.0009779412
0.05506221
0.13876128
0.1544425
-0.009192788
-0.13988052
0.059094157
0.022305487
-0.17851554
0.26254934
0.12797053
-0.01616854
-0.43023488
-0.17640457
-0.70201916
-0.014865498
0.046523154
-0.02303262
0.11004302
-0.058810346
0.14922032
0.124555625
0.05839023
-0.15580206
-0.20563824
0.13868894
-0.3657227
-0.21685526
-0.014118277
-0.22123128
0.18676007
-0.044721015
-0.33785674
0.061787833
0.12245165
0.060215313
0.19809991
-0.099435486
0.0033848293
0.020260235
0.05701671
-0.06457034
0.03252312
0.067440085
-0.040568534
0.10443315
0.2877073
-0.18328002
0.23170923
0.5428709
0.29849526
-0.14910702
-0.06741151
0.101884454
0.100687556
-0.00810105
0.41157335
0.089792915
-0.07547279
0.11743919
0.43057123
-0.019869858
0.06102034
-0.022436459
0.13652712
0.04810026
-0.17644101
-0.20852523
0.07119864
0.16203234
-0.12725075
-0.1636681
0.010426593
0.0067905565
-0.3943991
-0.63941306
-0.37617004
0.08491481
-0.2674554
0.2798906
-0.06512588
0.15892945
0.04902868
0.36965197
-0.8205259
0.06628338
0.061537966
-0.08546456
-0.09116642
0.21888903
0.39489242
0.2533436
-0.05508455
-0.38404903
0.021636648
-0.01975162
-0.24127959
-0.31501007
0.10541601
0.16229127
0.07890944
0.118794695
0.098885745
0.14800431
0.03516836
0.13687386
-0.008989211
0.018645734
0.21076101
-0.0073015154
0.03150306
0.1017302
-0.046811238
0.13436228
-0.15244803
-0.09603152
-0.0044307634
-0.03065354
-0.0038929933
0.052436903
0.06698152
0.016216854
-0.0049447888
0.05784637
0.1838679
0.021620546
0.04030044
0.31534803
0.035542335
-0.28202778
0.11219102
0.034979604
0.3226145
0.0898353
0.0026278517
-0.044527702
-0.13451329
0.16326258
0.29229367
0.03124556
0.14101423
0.15444638
-0.051165674
-0.16983452
0.0651832
0.07611609
0.018260498
0.05103931
0.072741166
0.0319891
0.5963765
0.058100827
-0.14277795
0.0023770132
0.25132018
-0.008631173
-0.041062556
-0.15309684
0.027674098
-0.38514072
-0.5496231
0.27887225
0.1383274
0.3653688
-0.02866006
0.10671682
0.08094659
0.0024681236
0.1287922
0.18429679
-0.07765313
0.027375378
-0.33979473
0.18964522
-0.3250451
0.13466428
-0.0060451375
-0.18199478
-0.049810886
-0.3313792
0.06341587
0.057537213
-0.38148606
0.13368128
0.027823575
0.111867644
-0.03996286
-0.06367153
0.08776483
-0.044816
-0.05811451
-0.0033676554
0.11457545
0.1455381
0.08349916
0.1563654
-0.047032148
-0.0009382762
0.21836065
0.4235366
0.052674986
-0.027352609
0.025797421
0.33611125
0.14147392
-0.7721542
0.1304877
0.3235915
0.10760639
0.02393023
-0.2935137
0.28811422
0.108156204
0.25288433
0.0988082
0.001399202
0.10170388
-0.63714767
0.07622949
0.0017165351
0.0773789
0.10450637
0.3455692
0.20645486
0.15831457
0.13477138
-0.16419302
0.1160645
-0.43009472
0.07399726
-0.010791739
0.18483047
-0.17294742
-0.02367163
-0.021123014
0.44880974
-0.12765916
0.11595455
0.10514507
0.079638414
0.111575015
0.013642164
0.016241588
-0.034233157
-0.06852657
-0.03734059
-0.11081895
0.22577743
-0.10422211
0.27167064
-0.006305537
0.05563292
-0.68458515
0.3830541
-0.034924272
0.07740083
-0.041871678
-0.49152687
-0.2861794
-0.0035221924
0.13710874
0.17186712
0.030911984
-0.04648531
-0.021769539
-0.22422889
-0.14083584
-0.23098935
0.061999932
0.09811109
-0.0067708124
0.041331455
0.14335445
-0.22622138
0.068412945
-0.046560895
-8.242553e-05
0.15372756
0.12875907
-0.36799866
0.11971961
0.12495139
-0.0075728917
0.19694419
-0.46503952
0.1557106
-0.32904547
-0.3526203
0.037077546
0.13218285
-0.4771982
0.18317577
0.09101039
0.39531064
0.23240444
0.26613683
-0.020016994
0.18918811
0.090191714
-0.5548216
-0.40993902
0.030840479
0.27285168
0.12511179
0.18912289
0.23834233
0.115881905
-0.74081004
0.06881913
-0.040084466
0.0350788
-0.103938475
-0.18834428
-0.07481117
-0.09063098
-0.06556349
-0.07476792
0.066332586
-0.036543593
0.104142554
5.9537415e-05
-0.05771527
0.07076312
0.053281106
0.36554235
-0.13216354
0.064733796
0.09440025
0.02343003
0.1915597
-0.33451137
0.01633793
-0.23104987
-0.051847
-0.22231774
0.0912649
-0.056591466
0.04797718
0.032406658
0.14697644
0.07150475
0.10716599
0.05196156
0.019918205
-0.12464866
-0.086535506
0.08342734
0.11750292
0.094190136
0.017681602
-0.1813459
-0.02559145
-0.033528037
0.03982796
0.014134919
0.028396027
-0.13456988
0.08098195
0.09449844
0.077299714
0.058289073
-0.049158853
-0.16498783
0.044415414
-0.062441748
-0.028585346
-0.041915625
-0.059993528
-0.23350264
-0.050974652
0.07624449
0.13880594
0.22635753
0.37517464
-0.05493507
0.059554752
0.00042579003
0.029212106
-0.016098035
0.0760852
0.006387419
0.0583134
0.16584127
-0.14233014
0.48816308
-0.035172533
0.07168813
0.06330396
-0.039821867
-0.017486105
-0.021386048
0.054732736
0.14223985
-0.1108541
0.12428591
0.13353729
0.05754302
-0.2541975
-0.03121335
-0.06205356
0.09615456
-0.0048577883
-0.2395591
-0.13911866
0.18373789
0.070163555
0.07858311
0.08367087
0.030425195
-0.025580775
-0.3280699
0.05918634
0.11964059
0.15515687
0.016208598
0.04745834
-0.11515365
0.083512686
0.044315908
-0.27051607
-0.012332653
-0.12379294
0.13329482
0.11414534
0.059092782
0.022515701
-0.057219863
0.04135885
-0.05755406
-0.053115606
0.12764551
-0.102239355
-0.07064451
-0.12404717
-0.23099169
0.005959116
-0.020799702
0.030593999
-0.032615263
-0.15908612
-0.031939775
-0.114128076
0.11968963
0.06402527
0.09927664
-0.005481974
0.09606047
-0.10922109
0.11874757
-0.17480896
-0.193283
0.13379772
0.0027898103
0.008818657
-0.08609824
0.0131790405
-0.11143769
0.009514311
0.04969472
0.099121824
0.47045052
-0.13576426
0.007993619
0.066282585
-0.012172588
0.039818555
0.015181986
-0.0055985292
-0.0018773077
0.014470163
-0.058129493
0.021631522
0.16394308
0.056853343
0.07359634
0.03011865
0.10136481
0.0514213
0.010666537
0.056021363
0.06520563
-0.12435397
0.09255379
0.028467141
0.115613304
-0.109842665
0.05836522
0.062057488
0.076277226
0.05929136
-0.022569366
0.12618622
-0.150237
0.08523638
0.06585401
-0.050624218
0.17579898
0.06075304
0.0021121267
0.019289905
0.1928286
0.049299438
-0.06031741
0.017101854
-0.37356365
0.052306425
0.15563844
0.006356677
-0.061683968
0.0006639378
0.06260095
0.10597021
-0.0014647415
0.116977535
0.099851854
0.024297837
-0.029186007
-0.20110804
0.2560248
-0.09452187
0.08696953
0.12586236
0.016723778
0.03000931
-0.01856652
0.13169505
0.037739877
0.038345452
0.11717132
0.06881206
0.08303361
0.03933578
-0.17371184
-0.102483846
-0.15422577
0.004207546
-0.079159826
0.08764272
0.051435124
0.20491554
0.07439309
-0.02223344
0.03653318
-0.0137976045
-0.026826913
-0.030925767
-0.11277006
-0.039974663
-0.24226697
-0.031135323
-0.038196165
0.29216784
-0.030149525
0.040733285
-0.039956816
0.06604483
0.08987471
-0.019806221
0.41417852
0.123341724
0.071253814
-0.274458
-0.007471663
-0.09964822
-0.037082322
0.17654584
0.03513106
0.0007912637
0.135009
-0.21049552
-0.0099172285
0.099384114
-0.036001988
-0.13597928
-0.07339037
0.03412805
-0.03334492
0.09416167
0.077770956
0.021377264
0.038854055
0.031731836
-0.009986014
0.067063875
0.020816028
0.1509827
-0.108536445
-0.017153658
0.023738772
0.04140297
-0.28872877
-0.31097695
-0.17907101
-0.08714593
0.0136833
0.15781549
0.06318755
-0.0015598603
0.03151276
0.11327442
0.12192525
0.030869946
0.0071782367
0.057509426
-0.08573585
-0.095771566
-0.023166634
0.011835917
0.031042876
0.0034432407
-0.20142686
-0.22964412
-0.037039418
0.04106819
-0.16833214
-0.0025512145
0.055018697
0.026060507
-0.017025104
0.18536384
-0.02875888
0.09765979
0.050500613
0.15739694
-0.07496731
0.11328836
-0.04248832
0.039190892
-0.19006704
-0.07981803
0.1219572
0.06203246
-0.014349939
0.033197816
0.3708835
0.036806162
0.029769272
0.06500672
0.20994857
-0.018668877
0.124720514
-0.041144323
0.16542199
0.010881647
-0.056370463
-0.02807137
0.16581337
0.0077711465
0.06675482
-0.11679655
0.13573688
0.08016906
0.05558905
0.00018184948
0.18816344
0.040755194
-0.001632516
0.15162648
0.04688084
-0.23848157
0.06065886
-0.0106256725
-0.30155516
0.022819603
0.27695754
0.076788835
0.18057412
0.011205991
0.039746873
0.03531704
0.035994887
-0.17266645
0.09939978
0.042831484
0.035985205
0.21607813
0.015689408
0.17415111
-0.02505997
-0.037225176
0.10217524
-0.012148549
-0.19725677
-0.009999253
-5.144776e-05
0.008822465
0.07840987
-0.025708532
-0.0077474643
-0.060993426
0.059999827
0.10024318
0.03744204
-0.04907944
0.04301514
0.120781206
-0.0027193627
-0.18074815
0.1474971
-0.027071794
-0.14036189
-0.021473559
0.023706177
0.0068985336
0.01634842
0.06596376
0.027523236
-0.12459256
0.09591577
0.024447478
0.3602847
0.042635687
0.17776316
-0.0050096954
-0.054809958
-0.07272675
-0.3922077
0.07613898
-0.029495379
0.38514477
0.093145914
-0.11922329
0.096177556
0.03061843
0.14598888
-0.037376557
0.09185977
0.025858195
-0.0080385385
-0.033858865
-0.15041994
0.032359023
0.09758232
0.1300441
0.04909164
-0.10684
-0.00073608826
0.09312045
-0.17188585
-0.027489582
-0.00389152
-0.34125572
0.16206262
0.05028296
0.0955655
-0.03464381
0.063073374
-0.068546966
0.036688086
-0.056302555
0.10668659
0.10489419
-0.028930336
-0.043114115
0.13744986
-0.055143014
-0.010799352
-0.16237426
0.030689223
0.066798896
0.07864856
0.03655248
-0.30552503
0.020052833
0.09578673
0.05766026
-0.037399575
0.036220036
0.035810713
0.022819491
0.0127530275
-0.03916082
0.08838321
0.061595425
0.1349454
0.020688301
0.010175288
-0.038179282
-0.009225206
-0.043864973
0.06911049
0.044067476
0.0014125896
-0.05430109
0.075276926
-0.03978161
-0.054021057
0.032198288
0.13305576
-0.04081944
0.02597216
-0.009718123
0.050047014
0.004081825
0.116526976
-0.11281336
-0.032991815
-0.05648225
-0.3099817
-0.019406753
0.2261638
0.22855994
-0.41036254
0.078252584
0.04231036
0.050489094
-0.28629404
0.07853381
-0.035455264
-0.062609665
-0.15290046
0.10716918
0.24466003
0.007185069
-0.19279556
0.11840341
-0.021189691
-0.041344475
0.08969872
0.08455889
0.07960682
-0.018742066
-0.1018464
-0.02099277
-0.031133844
-0.04476187
0.022921493
0.21262552
-0.008043159
0.04549745
0.1314733
-0.03775442
-0.035822216
0.075677104
0.037236948
0.18926913
0.05692248
0.007993728
0.0071246177
0.019608278
-0.04622378
-0.00072934316
-0.033845183
0.010984152
0.2489866
0.08172089
0.00709075
0.097682886
0.068367
0.04589517
0.10080922
0.34679314
0.018965835
0.03726969
0.04822724
0.010327303
0.073922165
-0.22086193
0.06616597
-0.032854933
0.019678244
0.023262868
0.20904009
0.067102395
-0.22062092
-0.1903377
0.045878585
-0.13688006
0.08335399
0.045164824
-0.0098615335
0.2186647
0.16343871
0.24388303
-0.08044524
-0.118813895
0.053121544
0.072261766
0.073231
-0.36089763
-0.104752265
0.06778432
-0.03793752
0.061523173
0.07677265
-0.076518014
-0.0020976635
0.2359787
0.09601655
-0.41363916
-0.40787137
-0.0165667
-0.030012667
0.12141746
0.06590087
0.057129186
-0.055659827
-0.055372868
0.019798344
-0.025814148
-0.0042780815
-0.06474087
-0.0822691
-0.09645216
-0.02716544
0.0119057195
-0.008289808
0.62681395
0.43853003
-0.040685914
0.7826862
-0.04405767
-0.32074824
0.015855446
0.051246244
-0.28597903
0.01070855
-0.02079773
0.012703331
-0.045134574
-0.020078812
0.07271861
-0.39374974
0.0011468926
0.024110682
-0.037609845
0.0038459892
-0.024685342
-0.08035478
-0.016265232
-0.09080528
-0.035867587
0.018486584
-0.04011253
-0.4713661
-0.04833818
-0.049867976
-0.018578324
-0.03045672
-0.0031974805
0.32270575
-0.020649323
-0.07238821
7.5144926e-05
-0.003708757
-0.16266543
0.21600586
-0.04055654
-0.105252236
-0.040687125
0.12622145
0.01620231
-0.0012445217
0.16462009
0.012405981
-0.026127491
-0.008771023
-0.13876271
0.20572373
0.18580306
0.7451425
-0.026243785
0.97628367
-0.043631807
-0.021863816
-0.11980379
-0.054243855
-0.9543912
-0.03423103
-0.06416617
0.027265763
0.47537318
-0.16344453
-0.009791281
-0.0083787115
0.003930987
-0.030070877
-0.048736367
-0.02393385
-0.034675032
-0.14697221
-0.054937508
0.108725496
-0.05746079
0.015419426
-0.010098801
0.035162903
0.0018735123
0.028434008
-0.010396429
0.02375668
-0.038885396
-0.010993223
-0.025882717
0.28431696
-0.050366305
-0.03327008
0.028904686
-0.0145922
-0.018411698
-0.008895342
-0.013325432
0.1617939
-0.07603244
-0.009050386
0.021955172
0.027574955
0.30269182
0.16895235
-0.09988088
-0.015994767
0.0014775702
-0.6280408
-0.12119854
-0.037195593
-0.06473672
-0.047980767
0.20389724
0.0065958225
0.07312612
0.020665595
0.0019281858
-0.007930026
-0.044390284
-0.08164593
0.024725417
-0.07460982
0.010224581
-0.026276696
0.039615557
-0.085615866
0.018983608
-1.1093335
-0.08427475
-0.010210108
0.0031982362
-0.012914599
-0.037918754
1.1733837
0.15395552
-0.08277764
-0.042935587
-0.017142287
-0.047934964
-0.024550479
-0.023231033
-0.03275247
-0.07301441
0.007761464
-0.04077937
-0.052384805
-0.0014122889
-0.03303023
0.061449114
-0.012702621
-0.03687979
-0.050360564
-0.20666665
0.05050065
0.0871209
-0.038275138
-0.046281423
-0.09481586
0.5724573
-0.010386418
-0.024998832
-0.020931605
0.03302802
-0.049475733
0.0028660651
-0.15542665
0.6297267
-0.99094594
-0.0006637737
-0.04278636
-0.02941167
-0.011688965
-0.27062246
-0.6897442
0.13369058
-0.0041155024
0.0024112063
-0.37297386
-0.056916498
0.13823302
-0.019558484
0.019076435
-0.12252679
0.030801238
-0.011267799
-0.07553667
-0.040074587
-0.008299886
0.07716705
-0.08670221
0.0036455556
-0.06440941
0.017360024
-0.011576708
-0.027368981
-0.044152547
-0.10355153
0.0013906574
-0.06919637
0.003138033
0.07587241
-0.028083501
-0.05656743
-0.012799277
-0.051964518
-0.07142597
-0.08500723
-0.27865756
0.005073885
-0.055162568
-0.00128619
-0.009669411
0.019311728
-0.025870712
-0.06774166
0.0016876425
-0.0058255536
-0.0038898787
-0.031556588
-0.06930689
-0.08518602
0.14546527
-0.026117297
-0.035352387
0.060284384
-0.08671979
-0.040292263
0.0024849253
-0.06516616
-0.2752926
0.16674611
-0.051475376
-0.053551976
0.029007113
-0.17639719
-0.017506195
-0.118342444
-0.10130606
-0.04765612
0.264677
-0.012856162
0.013766147
-0.7088163
0.009424264
-0.032358404
-0.053639125
-0.6223683
-0.013515621
1.0157276
0.29135776
-0.059806332
-0.02626999
-0.028507382
-0.042627465
-0.010749074
-0.06660348
0.00073692296
-0.08059138
-0.008752236
-0.027179142
0.010047238
-0.02113737
-0.020151587
-0.030363292
-0.44475493
-0.1443188
0.11428752
-0.014946614
-0.04211811
0.0102881435
-0.014022035
0.27213326
0.01647215
-0.05582395
-0.05564741
-0.021572482
-0.05959542
-0.07498011
-0.006738262
-0.0005599549
-0.004576829
0.0040978184
0.013506586
0.038724486
0.015891096
-0.010564654
-0.075560115
-0.09840024
0.03610967
-0.063703574
0.43556723
-0.028503558
-0.06868451
0.030285249
-0.005328511
-0.05702618
0.20785199
-0.013237701
-0.12638626
0.03114143
-0.021026194
0.30375448
0.013436465
-0.10042875
-0.008857653
-0.0140375625
-0.66295433
0.003934879
-0.033032626
-0.01639439
0.014450719
-0.026634326
-0.03696531
0.04440016
0.018948289
-0.08173038
-0.036513604
-0.14651161
-0.038758997
-0.069520354
-0.010075883
0.007956604
-0.058336474
-0.009863394
0.0021147777
-0.090761155
-0.03271574
0.14654294
-0.03360498
-0.019323561
-0.012512738
-0.013445175
-0.12957104
-0.008537941
0.001939186
0.12382269
-0.0757473
-0.047380123
0.0070117223
-0.054933205
-0.0045486875
-0.078208365
-0.023338124
0.011793005
-0.2783548
-0.0272454
-0.016040023
0.032718897
0.59730166
-0.04456995
-0.0013084054
-0.015746078
0.024430891
0.008291836
0.28429347
0.42341226
-0.049414877
-0.017881807
0.010798545
0.11359046
-0.011746488
-0.022754205
-0.007908802
0.01359221
-0.052410502
-0.058953933
-0.0036842197
-0.086608164
0.006945508
0.0342837
-0.024987314
-0.04569157
-0.021869602
-0.006042014
0.0029664533
-0.02151274
-0.011928791
-0.116743796
-0.09293809
-0.07113126
-0.023540834
-0.047779925
-0.018008912
0.39340654
0.023024583
0.085931666
-0.012036176
-0.03223436
-0.19733761
-0.35671392
-0.25429273
-0.012575273
0.1127644
-0.024312304
-0.2790553
-0.06022813
-0.07975591
-0.02019818
-0.071146935
0.014478502
-0.014974119
-0.019539896
-0.02278166
-0.11401858
-0.020609234
-0.02188036
-0.07606995
0.022959996
-0.067953885
-0.011461025
-0.016139494
-0.50994784
-0.20693447
0.3464145
0.15776026
-0.040932663
-0.08769349
-0.19792329
-0.42574614
-0.01504217
-0.024585426
0.0086397715
-0.0223334
0.009305952
-0.0027097578
-0.06571902
-0.120288864
0.030159047
-0.11901902
0.02278196
-0.03988061
-0.031214746
-0.077723496
0.027525881
-0.060874235
-0.07840889
-0.02909703
-0.008670954
-0.0074336487
0.01944574
-0.03527039
-0.012730875
-0.08105537
0.018145118
-0.041353226
-0.04267666
-0.045486704
0.0013824045
0.012094193
-0.0039418326
-0.2525504
-0.04585031
-0.09467911
-0.06469793
0.12354977
-0.023323534
-0.034068763
-0.04324468
-0.07277675
-0.03798703
0.048165403
1.2892878
0.061687153
-0.17756733
0.012840135
-0.013686943
-0.023456419
-0.023740679
-1.0640305
-0.02417315
0.0262448
-0.19977126
-0.018415116
-0.022813912
0.63710606
-0.47702432
-0.050132
-0.041110743
0.022095302
0.12714697
-0.025313668
0.6907818
0.045758855
-0.04551124
-0.055625487
0.00534549
-0.91301066
0.02697637
-0.034059238
-0.04278942
-0.11016323
-0.0043903063
-0.008133782
-0.022669312
0.0051317913
-0.1906582
-0.13852353
-0.026462842
0.014361234
-0.014809954
-0.047333747
-0.05881648
0.002635541
-0.3465961
0.0019296089
-0.030272966
-0.023603048
0.0041648224
-0.06851182
0.7400343
-0.0450001
-0.05520035
-0.04003283
-0.012273731
0.028996512
0.18803214
-0.010143687
0.0068241586
1.4116955
-0.04587704
-0.036039937
-0.20214657
-0.041527305
-0.014589403
0.13103293
-0.05300002
-0.044252757
-0.02812013
-0.05224314
-0.015963243
1.4114735
-0.07677143
-0.11610248
-0.028966699
-0.0628668
-0.023166442
0.11573032
0.22157052
-0.047617096
0.027719345
0.012591559
-0.05575048
0.02360342
-0.07399553
-0.026092688
-0.006971034
-0.018000383
0.13689339
0.07662406
-0.11465767
-0.034345016
-0.030624034
-0.20884411
-0.24864984
0.29435495
-0.091483995
-0.019432327
-0.055281933
-0.014470085
-0.0141392965
0.019152392
-0.025837505
-0.26196834
0.27938378
-0.040923133
0.040885575
0.0027841164
-0.039403547
0.31470624
-0.12716255
-0.025423072
-0.01432329
-0.13021898
-0.019025931
-0.0077488585
-0.7153043
0.2689617
0.11736521
-0.02150907
-0.08806275
0.025568472
-0.48240867
0.20722291
-0.03419946
0.19205339
-0.033542745
-0.0026411982
0.07828941
0.4484722
0.077622645
-0.068965755
0.039143644
0.067878775
-0.026049456
0.29466638
-0.19252366
0.17851749
-0.13116159
-0.12473205
-0.10236632
0.65226203
0.04250273
-0.021062974
-0.015711417
-0.24429797
0.02115711
0.18776137
-0.018897457
0.14025867
0.46637604
0.03297908
0.057296354
-0.0074861487
-0.06463164
0.05929952
0.2960537
0.5037666
0.3830094
0.43301678
0.19741079
0.12531723
0.21457274
0.066468604
0.3435949
0.2131474
0.09979141
0.15840232
0.119969934
0.03178462
0.062486842
-0.03682215
0.22539674
0.11159838
-0.19506119
-0.23299634
-0.16811296
0.011801232
-0.19748177
0.06089509
0.24068195
0.026717672
-0.024999375
0.083137624
-0.079971306
-0.27719086
0.14981993
-0.15219466
-0.010729561
0.758847
0.23261233
0.0012425287
0.19304998
0.0969784
0.20265973
0.11115201
0.40465787
0.08063136
0.2935792
0.15297125
-0.12003898
-0.19867784
0.255127
0.016594384
0.038450617
-0.23267664
0.00060324883
0.0726784
-0.2739072
0.27456322
0.08772774
0.096333005
-0.11718014
-0.31874076
0.272438
0.122964315
0.13781859
-0.08135839
0.48568302
-0.007803493
0.03235632
-0.21358395
0.11055018
0.25040618
0.0633254
0.014359137
0.27686772
0.033974674
-0.11283878
0.13197246
-0.18032502
-0.5788897
-0.0027782188
-0.3451204
0.2610355
-0.2676066
0.15873104
0.1005453
0.07842042
-0.33339489
0.08812799
-0.11718874
0.16025576
-0.0647228
0.05479993
0.24083896
-0.17015621
0.3380724
-0.28560153
0.07013811
0.017884398
0.01256988
-0.3817733
-0.4062963
-0.013186498
-0.014091373
0.057050057
-0.023305379
-0.067572206
-0.012312993
0.14494649
0.10285405
0.090779275
-0.0378121
-0.0844231
0.013545701
0.040157616
-0.06191234
0.44184026
0.09849918
-0.26413938
0.00257672
0.12256026
0.10803187
-0.08684291
0.34115052
0.46574125
-0.04559891
0.19740975
0.032339077
-0.11768574
0.019306345
0.025285972
0.018292673
-0.15947711
0.08961549
-0.06510377
0.17510672
-0.021468826
-0.040481042
-0.17112507
0.28236732
-0.3797701
0.17954327
0.03030235
0.050316747
-0.45780665
-0.027387742
0.28615192
0.066186614
0.009570598
0.10889274
0.17179595
0.06551728
0.06649642
0.19556282
-0.11483969
0.097808816
0.5023438
0.023016447
0.6378675
0.18708695
0.054120455
0.06466941
0.1768091
0.08341233
0.113680646
0.13927406
0.017880745
0.117542654
-0.05589654
0.082333185
0.21945594
0.1481001
-0.0008595233
-0.06951483
0.11107098
-0.102581166
0.08411248
-0.09016931
0.16801143
-0.114359014
0.06529712
-0.063770376
-0.023710284
0.46913448
0.3084545
-0.25534895
-0.11407124
0.095809355
-0.06568183
-0.022127938
-0.08897545
0.3602831
0.36969823
0.0592833
0.08636171
0.5038534
0.1919637
-0.21543534
-0.6375448
0.15892957
-0.00060411775
-0.0023827278
0.16343606
0.10089217
0.07437929
-0.14912431
-0.44202745
-0.067388825
-0.53482705
0.30471924
-0.01214566
-0.054003082
0.032497995
-0.40095982
0.32210955
-0.041517776
0.0079382565
0.16548721
-0.04487861
0.07234938
0.092168726
0.0916657
0.1207849
-0.010839877
0.047336265
0.1590042
-0.029914884
0.33320606
0.013896229
0.021566262
-0.16839437
0.11965598
-0.52807134
0.010145274
0.07042577
0.055799093
0.015923936
-0.0156098325
0.18104316
-0.10415254
0.10452263
-0.44093814
0.076701924
0.03987196
-0.0055412347
0.13731119
0.035729125
-0.21814117
0.07379632
0.029844677
-0.1744843
0.045798883
0.11260096
0.16030382
-0.03154889
-0.12306611
-0.03864717
0.00556674
0.021147653
0.14243554
-0.17354351
0.011651767
0.060859118
0.123893686
-0.011195376
-0.24068308
0.020179985
0.12064118
0.42660156
0.034697395
0.012781438
0.20759144
0.06257245
0.057127964
0.34405637
-0.03681675
-0.09850784
-0.03911965
0.8211141
-0.02473372
-0.0802592
-0.28604364
0.07637756
0.26914337
-0.21200234
-0.110624835
0.080243714
0.17601036
-0.044572096
-0.13263479
0.1650019
-0.029290972
0.17016168
-0.2827183
-0.27828142
0.44967437
-0.015957646
0.41511434
0.054539397
0.12858762
0.046682272
0.23416212
-0.31749493
0.10763032
-0.24706987
0.03628055
-0.3952117
-0.062282946
0.32904673
0.24095689
-0.030979577
-0.17846303
0.122232385
-0.06929492
-0.12129418
0.15989295
-0.062509865
0.08025405
-0.032048102
0.04242764
0.24158242
0.04458577
-0.26863572
-0.37122196
-0.013428204
-0.10832287
0.41665667
0.07303627
0.03485083
0.06730106
-0.081810325
0.011174694
0.02384366
0.09615899
0.22594367
0.08629489
-0.021479469
0.1278012
0.11217057
-0.11602165
-0.10084953
0.009957028
-0.25216308
-0.056888904
-0.01296496
-0.032563828
-0.25616184
-0.13945924
0.09796515
0.1368117
0.15127805
0.054624427
-0.065622576
0.01798034
-0.3030158
0.13483934
-0.11424906
-0.33977193
0.21663257
0.18671165
0.022054601
-0.026459439
0.036633577
0.012101677
0.015690004
0.11758323
0.16993326
0.025800055
0.40564355
0.02389806
-0.02055891
0.08401867
0.21545707
-0.30676565
-0.050643176
0.10780437
-0.11989065
-0.18560772
-0.096592486
0.17587078
0.10240271
0.098122686
0.03865437
0.020614251
0.10208623
0.0020140146
-0.063275516
0.4124834
-0.036779713
0.054780275
-0.118426435
-0.090574205
-0.3638652
0.11716229
0.14084528
0.1508771
0.05141611
0.06616442
-0.048152946
-0.048355896
0.25043973
0.053712185
-0.016891958
-0.15324968
0.13099723
0.021186057
-0.18089683
-0.034637433
-0.0050398847
0.09180059
0.26168048
0.1325891
-0.0130591
0.25536266
-4.4436834e-05
0.055251118
0.04813088
0.09364677
0.0041045914
0.26485792
-0.12025172
0.36194283
0.19083668
-0.3210105
0.21827573
0.32764986
0.20310336
-0.008623731
-0.5713054
0.014409302
0.08001878
0.227647
0.32678476
-0.14931689
0.069648534
-0.0650864
-0.22940555
0.017115626
-0.2832302
-0.09680154
-0.03281248
0.3881611
0.3729001
0.21004646
-0.21599287
0.4707511
-0.058534734
0.14736629
-0.1804978
0.23050103
0.12042074
-0.017294742
0.04223632
-0.48126304
0.17223501
0.27309883
0.049787756
0.07233764
0.10503726
-0.08616053
0.1595052
-0.108813554
-0.53554314
-0.022715019
0.00024649664
0.1868983
0.009200023
0.22380221
-0.035708986
0.029546596
-0.29981598
0.29041743
-0.016132835
0.1910319
0.07542256
-0.3902435
-0.28137228
-0.06383758
0.06532941
0.0054201283
0.11748755
-0.051615376
-0.39664367
0.0059417225
-0.32324076
0.09220337
0.10178393
0.03601273
0.028429992
0.048693754
0.32301646
0.3009841
-0.09460221
-0.084419556
-0.044587996
0.04002751
0.23635423
-0.70354563
0.023702094
0.09299446
-0.006627812
0.3421819
-0.610351
0.016450891
0.005287228
-0.12416752
0.046313167
-0.21253023
-0.23676468
-0.087109216
0.18697555
0.48636076
0.4752918
0.107319966
-0.31743124
0.15267171
0.10244483
-0.45218405
-0.41581723
-0.43248054
-0.0054055043
0.02703783
0.05668007
0.22571109
-0.1225982
-0.5277546
0.04597575
-0.2535446
-0.06904035
0.046582997
-0.08723209
0.056865074
0.03602061
0.03903818
-0.030888924
-0.2733227
0.06024966
0.031401236
0.051205683
0.052324492
0.04382749
0.19507356
0.19988577
-0.13575067
0.20041928
0.26100847
0.0683652
0.14416887
-0.24596053
-0.19635467
0.07790477
-0.047682427
0.06139266
0.2169723
0.3281735
-0.05698154
-0.047022227
-0.122218795
0.016266467
0.075465806
0.07374125
0.09285907
-0.0144859785
-0.1055676
0.0038060707
0.18214193
0.38051984
-0.33773574
0.22988182
0.039972752
0.1595765
0.081580006
-0.017047932
0.14288904
0.068421386
0.19387132
-0.22311376
-0.004411693
0.15880118
0.028859306
0.23694769
0.010716114
-0.04896635
0.021657731
-0.08180327
-0.08223559
0.056472987
0.14130013
-0.054818388
0.13437322
-0.25609297
-0.124908924
-0.31924158
-0.13500385
-0.20045798
0.032006457
0.059962366
0.25406364
-0.19721234
-0.10840172
0.2536327
0.08710245
-0.09895936
0.13354559
0.042963676
-0.016183542
-0.42520776
-0.16568124
0.02486084
-0.067224815
-0.13387886
0.264984
-0.028152667
0.082561545
-0.13470337
0.35583645
0.23708911
-0.10588495
-0.14758645
-0.00990257
0.21405849
-0.1063732
-0.3028182
0.16858181
-0.34606662
-0.018871268
0.054288622
0.10078625
0.055091012
0.176744
-0.52242464
0.14427397
-0.005052983
0.035906237
0.29136702
0.16008462
0.23485869
0.12119977
0.28547958
-0.19291437
-0.3847334
0.06796881
-0.06276361
-0.012626212
-0.053523995
0.027128905
-0.06868104
-0.3776166
0.050196078
-0.23203835
0.057362404
-0.14867698
-1.0835764
-0.10758393
0.1724386
0.02737475
0.38968134
-0.42596972
0.057418864
-0.37939048
-0.06152816
0.022578862
-0.078399904
0.50078696
0.16311704
-0.01351386
-0.11055727
0.30978754
-0.34336993
0.11325451
0.21164864
-0.06429198
-0.5483776
-0.16117272
0.30456588
-0.05994727
0.17618728
-0.0710237
0.105659045
0.19679394
0.1918159
0.040346984
0.39387372
0.20397447
-0.0013782377
0.2950982
-0.074828506
0.067949556
-0.11166273
0.059793614
-0.053889576
-0.00556469
-0.116001956
-0.5949413
-0.2263505
0.025807796
0.0028714852
-0.09889478
0.11251008
-0.028350435
0.11439163
-0.24094501
-0.13547617
-0.0025422748
0.08478222
0.12057274
0.102287576
-0.11003876
-0.054718897
-0.17237076
0.076976016
-0.23811106
-0.31905305
0.1799517
0.13620095
0.20615198
-0.060756404
-0.21638471
-0.14535758
0.09434265
0.026372548
-0.029421417
0.14261054
-0.09128842
0.21110515
0.24127641
0.10240054
0.13456386
-0.048926562
0.012481839
0.17576163
0.095521495
-0.1692277
-0.24492536
-0.18566512
0.005106178
-0.08977247
-0.1753425
-0.057416175
-0.045614883
0.19038035
-0.109348446
-0.29855546
0.14686342
0.054474328
-0.05077792
0.030670881
0.19017236
0.2074535
0.17597361
0.074419945
0.15210274
0.012048803
0.04600401
0.15056697
0.17865594
0.06883578
-0.07859666
0.02286305
0.09615518
0.10613211
-0.29298216
0.020040447
0.12503241
-0.28916
0.25438887
-0.066751614
0.30489686
0.010979179
-0.36216226
0.23007342
0.1556447
-0.092641026
-0.07158725
-0.103102535
-0.27650297
-0.07983862
0.10175041
0.15051064
0.06987005
0.06029817
0.07136344
0.048232518
0.19383028
-0.5060573
0.12167127
0.3675242
-0.113190725
0.00030120794
-0.019477822
0.0097993575
0.15872678
0.094682895
0.3289839
0.08208574
0.07938721
0.0033455398
0.022751972
0.108156346
0.21614431
0.019544287
0.17830314
0.26377156
-0.14399196
-0.13353379
-0.06680242
0.14536785
0.032656603
-0.053115223
0.08568619
-0.41665184
0.20727488
0.05097938
0.07228356
0.12603001
-0.05374456
0.1803532
0.1335375
0.15561275
0.021132223
0.28697303
0.32808235
0.015461183
-0.05767331
0.035983942
0.22496648
-0.030370919
0.14611259
0.38404384
0.17402723
0.16652396
0.14594817
-0.119705044
0.31268936
0.024564698
-0.05334467
0.071333446
0.0848695
0.37970585
0.03333204
0.2897117
0.048461612
-0.043685086
-0.00010351141
0.021611078
-0.06873609
-0.0067296205
-0.08593657
0.09850452
0.1456121
0.0058771265
-0.25834942
-0.42035273
0.07506269
-0.027133256
0.020465959
-0.46143696
-0.011808798
0.017036078
0.28426838
-0.07542756
0.18264708
0.17390813
0.17273462
0.07400653
0.10397733
0.21313205
0.24815527
-0.05495867
0.1713057
0.14084221
-0.39429304
-0.1872897
-0.124644354
-0.1461742
-0.23267527
0.068695985
0.27193758
0.05918835
-0.32096276
-0.45691314
0.072908536
0.12557217
-0.08409838
-0.041876815
-0.03392251
-0.3957981
0.45831776
0.14350888
-0.011132045
0.015708443
-0.015007147
-0.13364173
-0.26331493
-0.0059400783
0.0037547483
-0.0027658043
0.0506915
-0.2092092
-0.15176874
0.19621259
0.10851812
0.026388729
-0.05649
-0.009155213
0.039809518
0.0970696
0.1243299
0.14899312
0.30616477
0.102416396
-0.35382476
0.010713341
0.0197558
-0.011362186
-0.051694214
-0.11822242
-0.16508469
0.024688024
0.04251645
0.012238612
0.115961015
0.17272188
-0.06334259
-0.12805615
-0.12762962
0.04644768
0.15491661
-0.13854654
-0.2845278
0.07239325
0.21391053
0.3393901
-0.0021290437
0.33241883
0.18561672
0.05944569
0.3436989
0.053852525
-0.25269774
0.22252175
0.032988824
-0.11822012
0.085521236
-0.091697045
-0.046967357
-0.33536658
-0.0014682269
0.0089368215
0.009640559
0.083450064
-0.06681165
0.15478407
0.17389025
-0.004945074
-0.14756122
-0.019579675
0.007947194
-0.027414082
0.4704782
0.039064653
0.0615563
0.07676132
0.045468703
-0.027698541
0.26993042
-0.2200445
0.048519507
0.025414066
0.27321258
0.014135868
0.12495999
0.029321738
0.34523633
0.080789916
-0.10010851
-0.054555025
0.25967777
-0.3181948
0.21682493
0.1819744
0.38391623
0.09080216
-0.059060857
-0.1600798
0.158648
0.04547233
0.19003846
0.25329617
0.15201558
0.14021504
-0.2586315
0.34752265
-0.062109884
-0.22668435
0.1360416
0.051503833
-0.09390099
0.17506558
-0.16577566
0.02118247
-0.09060853
-0.08934689
0.07979122
-0.13568829
-0.040554415
-0.69100624
-0.18754144
-0.01608663
-0.05125452
0.04082123
0.021379678
0.036371984
0.25364938
-0.029524077
0.1224847
0.18379089
0.07483172
0.21099296
-0.19890268
0.8048121
0.18905109
0.12639989
-0.55074036
-0.26210725
0.14444998
0.0453567
0.017948262
-0.023005433
0.05022274
0.05628719
-1.1068118
-0.28214747
0.18426532
0.11408426
0.1354108
0.13074604
-0.07649812
-4.333211e-05
0.049911525
0.20910627
-0.0075084358
0.06460749
-0.12337569
0.17302652
-0.17772937
0.0024721841
0.0026477159
0.035504457
-0.041009862
0.31109318
0.06928974
-0.00010252744
0.067889236
0.40403748
0.118838966
0.102850944
0.0621187
0.055018913
-0.011823938
-0.54956937
0.21229497
0.15318538
-0.24697135
0.12605931
-0.13600725
0.11634245
0.04131577
-0.3372631
-0.41982183
-0.11356318
-0.09542351
0.057260185
-0.096126646
-0.25206685
0.0008920488
-0.08889848
0.017946541
0.06947634
0.20826861
0.07902093
0.15424049
0.11436946
-0.00927383
0.0080844145
-0.067791976
-0.09473192
-0.101416774
0.120801896
-0.3057371
-0.23636691
0.11870067
0.02086941
0.051658046
0.06365379
-0.09981838
0.31186423
-0.31917173
0.28573233
0.055883154
0.13646445
-0.007998401
0.24343482
0.3513199
0.07343911
0.032527775
0.3733988
-0.53400105
-0.15172435
-0.08102934
-0.047622062
-0.028301997
0.32277286
0.111637406
-0.07218534
0.023886135
0.059578698
0.020534271
0.09205353
0.11374399
0.10748017
0.19064595
0.07986045
0.027092524
0.023293665
-0.15837528
0.041723434
0.16299412
-0.038041748
0.0369764
-0.045125566
-0.0460216
0.00023154193
-0.3354874
0.04886178
-0.061021645
-0.009642915
-0.043114275
0.008829498
0.09149555
-0.1404757
0.07694408
0.18488619
0.101969175
0.01574071
-0.041653343
-0.3903178
-0.01101752
0.010262313
-0.08346784
-0.014452905
-0.06341622
-0.04870628
-0.0881987
0.14857748
0.04278895
0.027009312
-0.0069213808
-0.19213107
0.16848576
0.29903716
0.21408631
0.013336261
-0.17210695
-0.02801327
0.01774746
0.1927708
-0.06289854
0.038416576
-0.61388695
0.20374672
0.14909092
-0.09851804
0.05297016
0.055453237
0.010379904
0.15592018
-0.038308304
-0.049886763
0.37828875
0.09989062
-0.103854194
-0.05181506
-0.10450883
0.14885482
-0.14704598
0.039549638
0.082192436
-0.034801327
-0.37962586
-0.50154966
0.033066362
0.16090077
-0.21710289
-0.26099363
0.33848226
0.0011230413
0.0073920805
-0.26813418
-0.23509993
-0.06434204
-0.22559755
-0.22328362
0.18372339
0.041697245
-0.032171234
-0.3067609
-0.035549045
0.0143764345
-0.2971958
-0.009999692
0.24592541
-0.37520042
-0.09910535
-0.024375973
-0.13334271
0.040107455
0.33511937
0.13236387
0.018295316
0.044610858
0.118821114
0.06774823
0.17194371
-0.018950097
0.24448709
0.08160211
0.1784079
0.034067433
0.09811264
-0.46436232
0.017006299
0.044377364
0.00887472
0.22261678
0.6829754
0.059453346
0.27471426
-0.3974244
0.032173775
0.06921562
-0.124195516
-0.28146175
0.17671207
-0.028827827
-0.114408776
-0.22575238
-0.19242103
-0.23688906
0.16414402
-0.43173748
0.0897298
-0.10365549
0.06456403
-0.011163039
-0.19952007
0.092496835
-0.33603102
0.058021564
0.049291715
-0.075228736
0.058668733
0.083994284
-0.09188414
-0.08038401
0.13126904
-0.13586915
0.116077766
-0.09715122
-0.06674938
0.18636794
0.28282782
-0.002368971
0.035205044
0.012540923
0.1844424
0.028702864
0.117822245
-0.055978782
-0.06469458
0.078589596
0.011264326
-0.067635626
0.026492517
-0.012493299
0.037656583
0.06033381
-0.026608817
-0.0043624705
0.10922756
-0.16039446
-0.0864512
-0.006740073
0.08095671
-0.031044714
0.14018683
-0.53400314
0.010124205
0.036586303
0.012306507
-0.13295789
0.10627298
-0.014671056
-0.25307217
-0.08333145
0.030204644
0.19062541
-0.025409123
-0.013415977
-0.120447434
0.040431503
0.24911657
-0.10781612
-0.016874315
-0.023122951
-0.11976518
0.14248
0.08215475
-0.04177787
-0.10678857
0.127346
-0.16724575
-0.047166858
0.036209825
0.20218304
-0.21091136
-0.23176266
-0.10178269
0.16381997
0.15243761
0.18496425
0.06507022
0.01813183
-0.0036728198
0.022048587
-0.2685855
0.103261486
0.09046538
-0.03479988
-0.065881096
-0.084708184
-0.07955755
-0.017320856
-0.15650515
-0.08236978
0.018616421
0.010717302
0.108535305
-0.11770825
-0.020179303
0.14072594
-0.33230835
0.017877944
0.15365116
-0.04683343
0.14227994
-0.050378334
-0.039486337
0.018018214
-0.058292035
0.15657382
-0.021342112
0.11109695
0.056805607
-0.21948485
-0.69360524
0.04828216
0.19192252
0.002618372
-0.20627266
0.011138324
-0.20732678
-0.1708683
0.059786133
0.058866464
0.18078206
0.09038244
-0.11028452
0.023606837
0.15942971
-0.059345126
0.21031205
0.116408624
0.031674508
0.04728907
0.1483672
0.2518475
-0.19012484
0.37060443
-0.2217832
0.018799286
-0.19826585
0.03375486
0.13218266
-0.12825732
0.11049549
-0.0056157173
0.08995416
-0.1896942
-0.12261031
-0.11199937
0.22748403
0.04707843
-0.18653949
0.26818106
0.044857934
-0.1503221
-0.0856372
-0.0004617651
-0.06083028
-0.46780685
0.006736653
0.18196203
-0.048585203
0.05841477
0.10899806
-0.19314484
0.064495504
-0.1330163
0.053231135
0.23090169
-0.08092421
0.07954037
0.022218196
-0.09269058
0.24663417
-0.045325935
0.09599039
0.049936492
-0.09464899
-0.40321007
0.16639568
0.05783918
0.052495822
-0.046874266
0.08738675
-0.008413939
-0.005464911
-0.038910728
0.0044776527
0.12281704
-0.090213545
0.0684868
-0.0035546406
-0.026895579
-0.13174137
0.0782738
0.040523857
-0.02204916
-0.004940911
-0.03142977
-0.12292386
0.09104019
0.0045328997
-0.029187951
0.11676018
0.043883137
0.3246315
0.37035513
-0.11038749
0.0028612344
0.037580676
-0.13472442
0.05106938
0.30716085
-0.01700297
-0.11861861
-0.19248812
0.11032906
0.06691658
-0.048005216
0.2036524
-0.051610023
-0.0060190293
0.10307045
0.0015757869
0.05592253
-0.12293539
-0.3138671
0.04634625
-0.00024307531
0.11370937
0.22648886
0.05426588
0.029025866
0.008029099
-0.0155635625
-0.092111595
0.053444274
0.2771222
-0.15421197
0.1090776
0.030585371
-0.25627372
0.17248797
0.06796337
-0.014536465
0.04342347
-0.22639215
0.11863786
0.0021788024
0.038445666
0.09872178
0.18294871
0.0024824087
-0.1604493
0.1788971
0.17834921
-0.083784714
0.032005493
0.22266045
0.077124394
-0.4262851
-0.37322494
0.022171056
-0.4658489
0.0029270863
-0.22104394
-0.18661602
-0.05881084
0.050279777
0.11824552
0.2322408
0.11749146
-0.19212605
0.02936927
-0.07600768
0.14253241
-0.023677638
0.22088505
-0.017203875
-0.11764802
0.061818838
0.10595136
0.19649194
0.004179976
0.03785099
-0.25884736
0.08920591
-0.02248947
0.02216551
-0.10664259
0.09196064
-0.24875276
0.028504811
-0.00062598474
-0.1827223
-0.10419851
-0.03383811
-0.043132834
0.2050273
-0.25536856
0.22070152
0.14768805
0.12037752
-0.036286075
0.043967444
-0.03397019
0.05243991
-0.04695018
0.18140078
0.04165521
0.2736239
0.0792326
0.08275522
0.032881472
0.05259396
0.015263297
-0.007657778
0.12954919
-0.010693434
0.0077321324
-0.0087123765
-0.13233428
0.15774445
0.10989667
-0.17008749
-0.053166017
-0.14228217
0.06117301
0.055284683
-0.03981426
0.08409407
0.047463637
0.18465297
-0.1972485
0.12260048
0.0066536446
0.029446881
-0.06312662
-0.0794798
-0.4668274
0.26223922
0.08792947
-0.20688966
0.065107726
-0.30498612
-0.1798149
-0.38282314
-0.17086896
0.045874655
0.07199954
0.28604794
0.03551946
-0.26960132
-0.027513811
-0.4270333
0.074682444
0.020808864
-0.11443931
0.17160131
-0.02012929
0.022497639
-0.0067796754
-0.10200035
0.008784978
0.053052336
0.042915795
-0.3466674
-0.021728816
0.021740487
-0.15852928
0.076310515
-0.04920354
-0.004314673
0.063813925
-0.15019828
0.102981746
0.00093994586
-0.05683162
0.100633144
-0.2836573
-0.3120925
0.10748198
0.051692218
0.029992187
0.1276672
0.02339457
0.121116795
0.012265415
0.07670226
0.2232023
0.07704087
0.1324242
-0.07392915
0.046898205
0.011683891
0.14530262
0.08344921
0.16658412
0.042468805
0.124284185
0.03016845
-0.22968495
0.19197279
0.06871305
0.16641848
-0.13567637
-0.14210835
-0.021532588
-0.069187894
-0.057711046
0.058455497
0.004669483
0.04192379
0.12506205
-0.11511015
0.08299006
-0.07236637
-0.07779008
0.016537309
-0.19933146
-0.0077912114
-0.16019431
-0.12784258
-0.5359822
-0.42993036
0.015138238
-0.01853981
-0.016247353
-0.08172148
0.15186611
-0.003160791
0.39774904
-0.09759731
-0.12700084
0.08960368
0.106162116
0.17005272
0.31163895
-0.053371727
-0.23579237
0.18891598
0.05792678
0.10786086
0.06652152
-0.055334203
0.11376849
-0.20780382
0.09606009
0.019426746
0.15353952
-0.017879678
-0.53125435
-0.033385307
0.0019704613
0.06540753
0.114395246
0.2112495
-0.16938521
0.24513239
-0.03882424
0.039418343
-0.12702814
-0.07455835
0.030480815
0.08383469
-0.0115464665
0.3673608
0.0936984
-0.048969723
0.09567821
0.016882624
0.021964218
0.20889333
0.04212838
0.17094214
0.06101959
0.053047203
-0.06262822
0.29482198
0.0971809
-0.11066927
0.01715698
-0.03453017
0.050169412
-0.034493785
0.06194753
0.02036031
-0.25376377
-0.17716157
-0.14129262
0.18260667
0.105151005
-0.07831217
0.08569735
-0.27980664
-0.32950655
-0.09993703
0.051985815
-0.25434473
0.006742607
0.007993798
0.2544672
0.09410846
0.08647681
0.18419212
0.46075362
-0.37834138
0.3252726
0.029494377
0.0023549397
-0.015403289
0.20746417
0.030844294
0.010383858
-0.08065559
0.037068263
-0.09937219
-0.11574818
-0.058572195
-0.25354046
-0.012960881
-0.031506322
0.0053903772
0.097951725
0.46158758
0.16971882
-0.33936998
0.05481767
-0.25167543
-0.13592157
-0.0054975636
0.3338429
-0.29317653
0.045242608
-0.60952777
-0.051574383
0.07000789
-0.17592686
0.23949052
-0.026926642
0.030604376
0.16857275
0.21443981
0.2445798
-0.6016505
0.16473736
0.084565416
0.1165663
-0.08897788
-0.10783028
0.057563752
0.11264771
0.122201934
0.1817786
0.05099613
-0.066078536
0.58943367
-0.036217872
0.18806121
-0.036812916
0.17949189
0.84923375
0.14288421
0.16499236
-0.22537063
0.26617724
-0.20748898
0.23044612
-0.042683102
0.119632944
0.03944285
0.3419506
-0.3556839
0.33452365
-0.064068
-0.4167053
0.21451125
0.13686907
0.08504356
-0.07487028
-0.09358044
-0.10826441
-0.07201043
0.29418278
-0.34192407
0.10759185
0.1454711
0.051047962
-0.018006975
-0.02269947
-0.31809855
0.028638745
-0.286986
0.054192297
0.0021522427
0.10548676
-0.023151264
-0.3983096
-0.049404714
-0.08849431
0.22109243
0.5144565
0.11638129
0.26476464
-0.11682549
-0.4425231
-0.031104399
0.2320341
0.033929624
0.066600084
0.026193552
0.03861055
-0.00802261
-0.23606308
0.31060624
-0.122854725
0.013000055
0.14987698
-0.0162959
0.22239666
0.054613486
-0.116358735
-0.05917398
-0.042439077
-0.001955761
-0.08889045
0.3310976
0.13017039
-0.19339262
0.31280723
0.0072144154
0.111656755
-0.16143997
-0.005577672
0.13218579
0.019761208
-0.0057399822
0.034750637
0.073073685
0.18146074
-0.32342705
0.13371249
0.14002985
-0.057536047
0.18499826
0.080928095
-0.14355856
0.23249756
0.15136084
0.09372132
0.010364994
0.00482865
-0.54044
0.1704106
0.30422783
0.21085384
0.13854896
-0.038218506
0.025281895
0.059809588
-0.18763775
-0.3071427
-0.05580167
0.072936155
0.061385244
-0.29995582
0.04127549
0.21962628
0.083071835
0.14518917
0.39295745
0.16365592
-0.0020612124
-0.25187165
0.18544587
-0.04374499
-0.0633257
0.07010466
-0.012247879
-0.009637267
-0.0021981779
-0.17460352
0.06292722
0.42412335
0.06317543
0.2900344
0.1911241
0.26568708
0.328182
0.102152154
0.32821748
-0.116022944
-0.0059463424
-0.06230112
0.065769635
-0.08198938
-0.04970144
0.17802007
0.060171377
0.044425603
0.00408015
-0.12602884
-0.20266652
0.064913474
0.19231793
0.108898155
0.06311304
-0.1986627
0.13570061
-0.14808065
0.1641233
-0.15098202
0.6601934
0.39585236
0.19662753
0.23841174
0.14297324
-0.37599346
-0.05543744
0.07477216
0.24200413
0.12599559
0.0066404203
-0.0663929
-0.017875358
-0.00029483077
0.2676693
0.27780733
0.013545847
0.17526919
-0.15573628
0.027052885
0.19409715
0.23803033
0.33267003
0.028679766
0.018100904
0.17210028
0.11791082
0.07630904
0.024155304
-0.18215631
-0.028116902
0.24302866
-0.018153153
0.05263013
-0.055170722
0.26491198
0.2682442
-0.07864257
0.0073051164
0.21718
0.10010298
-0.09144546
0.21362542
0.35448042
-0.18561965
-0.036572598
0.22299
0.053772897
-0.10486293
-0.022562064
-0.18795857
-0.03742532
-0.06227767
-0.014139685
0.27615562
0.34282497
-0.11561187
-0.0041827094
0.010005981
0.23618859
-0.20865327
-0.1247528
-0.05203402
0.354808
0.34630543
-0.08991661
0.14407735
-0.2993225
0.036154088
0.24444428
-0.10350492
-0.40721798
0.3922427
0.030256854
-0.120360605
-0.028672695
-0.071172245
-0.12582332
-0.11209314
-0.77987033
-0.033549443
0.44407958
-0.11570919
-0.041215837
-0.1492689
-0.034945678
-0.026762128
-0.15153706
0.08251332
0.15820517
-0.46566543
-0.010520267
0.29925776
-0.28724515
-0.1378865
-0.103767596
0.06273131
0.02741695
0.14523321
-0.0055159326
0.17183313
0.08688907
0.21971087
0.22702271
-0.014498572
-0.0074685197
-0.09490906
0.21108368
-0.21490811
-0.030584805
-0.034828857
0.0579775
0.16822942
0.082358904
0.05091411
0.017100573
0.13829918
0.11351738
-0.19547154
0.0076741404
-0.18242651
-0.551871
0.0076663033
0.31421474
0.038778383
0.25356546
0.010704616
0.29445985
0.16734724
-0.81710565
-0.014951511
-0.037583623
0.16765973
-0.09737897
-0.18629836
0.17895766
-0.20935659
-0.2084875
-0.52287245
0.031559996
0.2527998
-0.14046624
0.0145736355
0.086044945
-0.24810587
0.07332523
-0.2921927
0.13023202
0.29694706
-0.1611833
0.07398769
0.35594282
-0.08927391
0.1911477
0.10431921
0.21060063
-0.16091979
-0.2602248
0.07970554
0.03528417
0.116431676
-0.13740008
0.4599953
0.097263254
-0.09910989
0.42276436
-0.11336521
0.2926832
0.0012150074
0.10124794
0.21941726
0.09275219
0.4504849
-0.37633052
-0.07993434
-0.006860744
0.064356215
-0.0028502122
0.14055464
0.039758094
-0.06563293
0.10245779
-0.07771768
0.0446735
-0.124423556
-0.04043027
-0.17931128
0.18694338
-0.038644537
0.0034398458
0.31944904
-0.021061327
-0.07463878
0.33283114
-0.057353705
0.013203928
0.13281775
0.018364606
-0.014343442
0.091019444
-0.025738385
-0.060265116
-0.22683147
-0.078919545
-0.3852128
0.549747
0.077168785
0.29154035
0.3585692
0.041132275
-0.21562329
-0.37825596
0.6432685
0.033411875
-0.01098719
-0.49455777
0.42761362
0.10595485
0.22624703
0.056764193
0.073453136
-0.06752577
-0.20153628
0.39740497
0.25055447
-0.06553422
-1.014804e-05
0.18819655
0.07777618
-0.055279315
-0.13378693
0.028418584
0.1225393
0.12831397
0.11172915
-0.16295682
-0.13180871
-0.34773603
-0.0122768255
-0.034557335
0.6439478
-0.25365376
0.18426175
0.027666295
-0.0117479935
0.17532912
-0.026161138
0.06938414
0.13677882
0.025054395
0.14933026
-0.02633682
0.38647744
-0.183225
-0.25112566
-0.4649243
0.10362561
0.006689787
0.22491726
-0.025082272
-0.29857552
0.31508872
0.04142621
-0.06853393
-0.029817376
-0.12562323
-0.43719202
-0.21824269
0.06714291
0.14416209
0.1283938
0.03865699
0.31782106
0.046343025
0.4388132
0.1448829
-0.017674912
0.32820845
0.13500254
-0.20245735
0.21901803
-0.14117707
-0.13010319
-0.63532895
0.067955114
-0.015967812
0.10687888
0.14437066
0.17915076
-0.030535975
0.10987017
-0.0022526197
0.16073419
-0.2674019
0.07585576
0.18157718
0.06916188
-0.38464937
-0.12687834
0.45909974
0.26424322
-0.006621026
-0.003064449
-0.05061647
-0.059148442
-0.310886
0.3269874
0.11929902
0.032768212
0.07300496
0.06573229
0.14030825
0.3987886
-0.1712492
0.0023670075
0.13309166
0.11997828
-0.08482065
-0.5803704
-0.0825955
-0.30854782
-0.024722151
0.057559215
0.060931154
-0.102555014
-0.17951806
0.05177711
0.25060382
-0.03177555
-0.031056197
-0.0021537973
-0.12620877
0.39849955
-0.23529543
0.12881416
0.13205045
-0.106800295
-0.334394
0.24513476
0.021608572
0.20420313
0.18599829
-0.0015762928
-0.010194939
0.12902741
0.076520786
-0.5032683
0.07097595
0.08657088
0.038542654
-0.021857228
-0.015026467
-0.22714403
-0.35987505
-0.11618941
-0.054809418
-0.16514878
-0.08559712
-0.15009551
0.08665551
-0.052568235
0.07716411
-0.11776843
-0.17215542
0.30854335
0.029994857
0.014305499
0.12249665
-0.29520804
0.039503384
0.107938685
0.20472701
0.19734497
0.39221096
0.1973065
0.11066788
-0.36568013
0.16377802
0.023146871
0.021470807
-0.1900051
0.2027376
0.0727782
0.32036704
-0.0140636
0.074674636
0.1032248
-0.009856432
-0.13955
0.07301664
0.2561885
-0.16136153
-0.20259771
0.19842671
0.03336964
-0.05344081
0.050821166
0.012876006
0.10477051
0.10449818
-0.27352336
0.52073985
0.12532741
-0.025168143
0.14560163
-0.0119275125
0.12873138
0.07472196
0.13387688
-0.18194947
-0.07733304
0.0017021227
-0.035312764
0.022306997
-0.1863909
-0.02521156
-0.18159887
-0.20226502
-0.15545471
-0.32618645
0.024856554
-0.176082
-0.28123558
-0.27990663
0.058448486
0.09178035
0.39342538
0.08478257
-0.01457194
0.25477263
0.262734
0.034648206
-0.11614508
0.16650155
0.3101516
-0.07692092
0.18087922
0.22353005
-0.21278001
0.041622315
0.0945703
0.12833758
-0.058080066
-0.14232253
-0.09520141
-0.014800114
0.047702122
0.19129685
-0.14684415
0.22380729
0.14789164
-0.09632032
0.096842974
0.13669343
0.026454149
0.16738348
0.101111904
0.10940623
0.38450423
0.10174452
-0.1019369
0.0052050743
0.2550175
-0.05775019
0.056102373
0.08477501
0.07218229
-0.08224676
-0.057315033
0.010229347
0.13498083
0.026190082
-0.33536524
-0.021512877
0.016358139
0.14078799
0.29411238
-0.016565867
-0.13148622
0.05998331
0.29171392
-0.32673347
-0.10753553
0.1076836
0.16093667
0.15718196
0.20658925
-0.35308862
-0.24266
-0.15644985
0.03727902
-0.04758581
0.3428143
-0.0056748046
-0.012631397
0.39913616
-0.2422884
0.04830486
-0.025966195
-0.02866112
0.082940266
0.11992076
0.07754709
-0.2624398
-0.4792675
-0.075605504
-0.30039075
-0.1733407
-0.20348442
-0.0056108017
-0.0751424
-0.06886411
-0.07961
0.24026087
0.085801564
-0.10096079
0.2111295
0.19912633
0.317263
-0.026845355
0.055788595
0.17680371
0.011051483
0.07891713
0.19960059
-0.0071632974
0.037205804
0.35911927
-0.06245456
0.10952946
0.06456388
-0.121950306
-0.11796155
0.29113504
-0.13230035
0.13693236
0.18802078
0.05299195
0.07926576
-0.26333427
0.06459469
0.13687727
-0.11067581
-0.06422062
0.016764998
-0.09384477
0.550912
-0.03492863
0.15397517
0.106774196
0.021727474
0.15207112
-0.032346394
0.26202697
-0.2423815
0.12483811
0.44742933
-0.042188887
0.05006952
-0.13780619
-0.022644004
0.012445563
-0.06528658
-0.2455705
0.12348199
-0.057664048
-0.008943996
-0.020515371
-0.011236252
0.15560377
-0.022371935
0.09240885
0.11019086
-0.053562507
-0.23572432
-0.17402492
0.13036862
0.122309506
-0.21326536
0.008344065
-0.46190202
-0.010268178
-0.10568335
0.05196579
0.15799801
-0.06498063
0.04980633
0.31560323
-0.008307182
0.108283915
0.17077327
0.14754246
0.19388373
-0.11283032
0.015115199
0.119040504
-0.015896462
0.17496274
0.12832965
0.15481205
0.12486182
0.18282385
-0.3428444
-0.0035354898
0.05889489
0.0021956777
0.05752157
0.10219109
0.15504837
-0.08037152
0.23411874
-0.1614233
-0.2036632
0.031640705
0.059967656
0.05189258
-0.11912825
0.23856191
0.051578738
-0.044694412
-0.12633653
-0.19227964
-0.20570572
0.01975559
0.029955273
-0.06887881
-0.17966367
0.03839541
0.14852488
0.17443384
0.11299401
0.03996897
0.556964
0.0081498
0.124860965
0.117805414
0.09034299
0.13275227
-0.06793199
0.15373227
0.17384048
0.115726165
-0.015793484
-0.0027540226
0.081725
0.053712685
0.08619339
-0.042526547
-0.0011935674
-0.45069772
0.07524023
0.24529761
0.14133397
-0.023061085
0.29370245
0.027765183
0.0076886164
0.1657966
-0.078036584
-0.17612952
-0.13423751
0.020623298
0.251188
-0.52707326
-0.0061454773
-0.08527023
0.054295078
0.16185543
0.10026005
0.008781868
0.08298822
0.31266963
3.1642907e-05
0.07545901
-0.4521818
0.03485715
0.02055737
0.077181175
-0.11322103
0.06774174
-0.011967337
0.0143375965
0.15328592
-0.05560037
0.16247885
-0.1105488
-0.06178592
-0.0016108016
-0.13023171
0.028000891
0.09257456
0.15199986
0.120476104
0.06543999
-0.13096319
-0.00647535
-0.07716077
0.0407712
0.19506279
-0.32614127
-0.01762174
0.027194722
0.113089286
-0.007763552
0.4015596
0.37933433
0.13999696
0.3115993
0.112261474
0.042121623
0.0060307756
0.1396789
-0.011855802
0.076125436
-0.06865117
-0.004832502
-0.1973412
0.015996922
-0.16077323
0.027242752
0.055341385
0.104961
0.025943685
0.13943805
0.057530887
-0.047626887
0.12389979
-0.16227981
-0.11922117
0.34083965
0.18717262
0.017127277
-0.042829998
-0.081175625
-0.09744244
0.0801653
0.06037335
0.012357506
0.38971648
0.11706333
0.21192762
0.064943664
0.04830062
0.23648538
0.0076674945
-0.019488117
0.10015891
0.06280832
-0.24349721
0.020138467
0.19585238
0.09078209
0.021228673
-0.013861368
-0.28359094
0.05581259
0.05820269
0.11774451
0.11548628
0.12446496
0.13629079
-0.2318457
-0.03901062
0.041696597
0.40063715
0.15331426
0.10642737
-0.24459705
0.29107967
-0.090271845
-0.25532982
0.22904584
-0.115738675
-0.17746243
-0.11237087
-0.03177808
-0.28701204
0.15973732
-0.08548482
0.15004249
0.080797814
0.16253692
0.184514
0.15403904
0.23797342
0.048066504
0.29665837
0.12730625
0.41057497
-0.1594142
0.42078328
0.07941872
0.14616145
-0.09340202
-0.24982001
0.0926424
0.05923417
-0.005690675
-0.07875607
0.056673355
0.24739282
-0.06845721
-0.24138969
0.14875989
0.0930758
0.0976647
0.09903319
0.18591695
-0.1188042
0.029162118
0.31668133
-0.051541105
-0.023264071
-0.060325697
0.059559572
0.3228825
0.06399155
0.010452592
0.37201586
-0.06834269
0.083224885
-0.048050977
-0.0639095
0.51677346
0.13834202
0.117227525
0.009634532
0.108515374
-0.058389496
0.073563114
-0.07610647
0.31275168
0.30937228
-0.41013262
0.14302595
-0.31510937
0.06599302
-0.030937647
0.11905097
-0.34213936
0.023686038
0.0069734836
0.02158382
0.12599461
0.098652914
-0.13557877
-0.103259265
-0.19551566
0.08366559
0.08178479
0.4755532
0.042748395
-0.08603838
0.046019375
0.12863761
0.061414063
0.2051145
0.020945348
0.057338163
-0.052260228
-0.09261921
0.44763833
-0.015862217
0.06364959
0.021748839
0.4545634
0.5072842
0.0051530264
0.3210954
0.0015224923
0.043974016
-0.10662854
0.13512486
0.4069509
0.00904093
0.07716751
0.1151012
-0.111448556
-0.049138624
0.08560683
-0.0075096623
0.0551015
0.20117211
-0.047644082
0.032952536
0.0039675273
-0.02208111
0.0077938237
-0.0339371
-0.053266715
0.029445667
-0.11043339
-0.02572235
-0.041937385
0.018941572
-0.8124413
0.12288559
-0.008979634
-0.12684755
-0.056465052
0.23505704
-0.006944806
-0.08900581
0.14063133
-0.001245906
0.014134574
-0.0038725184
-0.028876984
-0.06344307
-0.091657504
0.102197066
-0.051246017
0.026888203
0.008511011
-0.05813392
-0.10438107
0.017495604
-0.046834197
-0.017902233
-0.06743821
-0.050105214
-0.005746779
0.031225089
-0.050684676
-0.13725501
0.012974123
0.020504156
0.008165797
-0.67222947
0.015549381
-0.107006975
-0.025332937
-0.052946333
0.24794601
-0.31294
-0.023973715
-0.1173649
-0.020456914
-0.056447357
0.0168073
-0.00956472
-0.053638063
-0.03983363
0.0077010253
-0.012777463
-0.048792053
0.048697475
-0.15035467
-0.107880585
-0.006005233
-0.31150243
0.0069955634
-0.032388784
-0.0731078
-0.008863114
0.47632813
-0.008058772
-0.035588544
-0.042272136
0.09769943
0.13993242
0.016571548
-0.041165203
-0.03610711
0.012028227
-0.019947134
0.004668615
-0.030969087
-0.06954269
-0.012583249
-0.26171604
-0.012780052
-0.012075444
0.028729267
0.03298835
0.02211147
-0.3488468
-0.040976357
-0.02018025
0.04665756
0.014965517
0.012237387
-0.30847013
-0.053266715
0.01573955
0.16910067
-0.06650897
-0.012070348
-0.010452077
-0.030059423
0.1780062
-0.0109501425
-0.066914804
-0.03697839
0.0039826734
0.40993327
0.0550928
-0.22507517
-0.0050128414
-0.06219367
0.1230803
0.07650605
0.011294529
-0.035332724
0.0133728
0.90534854
0.016306235
-0.12256123
-0.034635402
-0.00812491
-0.031042835
-0.021102455
-0.05542174
-0.06943212
-0.008258873
-0.081452966
0.20320193
-0.13602084
-0.0008902313
-0.056691054
0.23677215
-0.061927367
-0.20553842
0.0059147323
-0.04814352
0.029285671
0.26804468
-0.10830595
-0.011564574
0.012812991
-0.04580882
0.019427715
-0.032051127
-0.038877074
-0.026044292
-0.0005583032
-0.021908527
-0.07964694
0.013598008
0.23519604
-0.040425476
-0.0057853214
0.031852845
-0.011492948
0.4582944
0.02481784
-0.054273978
-0.07448832
0.0070760977
-0.020845396
-0.1333534
0.18218486
0.0069366065
0.00055534585
-0.0028286083
0.03042215
-0.04197688
-0.048898846
0.13477883
-0.11195857
-0.22403227
-0.051135976
-0.00080262014
-0.04673837
0.036336236
0.068497226
-0.67512935
-0.05497872
-0.058615953
-0.048967045
0.14657962
-0.022752559
-0.015858887
-0.040958904
-0.042169545
-0.08864037
-0.015280492
-0.03761977
-0.11945815
-0.025454609
-0.0032740207
0.244409
-0.09538729
-0.32501584
-0.46893877
0.022711353
0.020986697
-0.03860127
-0.037721865
0.09930383
-0.01788731
0.014211229
-0.0111838905
0.09993802
0.037220195
-0.04972571
0.027268775
-0.04560813
-0.19558106
0.026167208
0.36008924
0.020757772
-0.067097925
-0.022271235
0.03320399
-0.01744354
0.016478244
0.006752755
-0.02126093
-0.08941576
-0.018868629
-0.015067176
-0.029394913
-0.052037477
0.22182812
-0.042951457
-0.01413296
-0.15962183
-0.029915739
-0.050589655
-0.0075814417
-0.020009954
-0.023124667
0.309559
-0.05234818
-0.04598021
0.0056684115
0.012957377
-0.08325181
0.030530985
-0.13534385
-0.04465716
1.0790048
-0.039261702
0.0014027591
-0.14429899
-0.0119985975
-0.038371388
-0.06604146
0.08814611
-0.033105303
-0.26979786
-0.22726716
-0.11032412
0.026254952
0.0120873675
0.022863036
-0.017288372
0.110327646
-0.04491947
-0.058934372
-0.062703244
-0.08073179
-0.021689583
0.017566355
0.028383147
-0.09157896
-0.25753137
0.68473536
-0.14960715
-0.0878547
-0.008020457
0.013176334
0.019256132
0.0029997586
0.048618425
-0.036690924
0.061492544
-0.024169594
-0.014986822
-0.038581204
-0.00462001
-0.06303271
-0.046829067
-0.059730407
-0.028371789
-0.002878573
0.19744971
-0.038565803
0.04419086
-0.24111624
-0.026878024
-0.0324384
-0.21105821
0.0012023699
-0.022691187
-0.053040422
-0.048331264
0.0045960774
-0.00095382147
-0.0065030786
-0.022141643
-0.01894157
0.03454606
-0.19312428
0.043871965
-0.04018505
0.0069027925
-0.10538285
0.040954098
-0.4889939
-0.018122435
-0.005998289
-0.18305051
-0.09633383
-0.029271636
0.0075237085
-0.027611496
-0.0006141237
0.018344877
0.44629002
-0.019684615
-0.004315458
0.019939752
-0.019949533
0.009167776
-0.032866567
-0.022183979
-0.010677544
-0.021217871
0.55797315
-0.04597932
-0.030724593
-0.0038977878
-0.023128143
-0.10310465
-0.018194359
-0.018059196
0.93952364
-0.017639821
0.05022381
-0.050892815
0.0012665954
-0.0075671347
-0.0034564736
0.030809369
-0.038928013
0.3485859
-0.037568677
0.021508738
0.014050016
-0.2451302
0.029332789
-0.04768052
0.025074868
-0.000611751
0.002863411
0.042711314
-0.37286034
0.01826996
0.016383585
0.053808916
0.06791111
-0.067794785
-0.07096582
0.027319157
-0.124269046
-0.008222912
-0.045096036
-0.07667116
-0.084814176
0.011003481
0.02462752
-0.14899246
0.008812246
0.004524649
0.55379164
-0.025163274
-0.02000601
-0.074030824
0.0015848908
0.0046692938
-0.03486068
-0.044192333
-0.08802282
-0.031716485
0.5763439
0.0008427904
-0.12518808
-0.04438302
0.000863049
-0.13740417
-0.5780208
0.3709423
0.0036174832
0.20176236
-0.00015814486
-0.29726526
-0.015815549
0.03588753
0.011493423
-0.0014314135
-0.020625543
-0.0065761777
-0.01915972
-0.00433622
0.095820576
-0.03966447
-0.041588698
0.45970348
0.007462504
-0.042620216
0.017359493
-0.044230662
0.16747218
0.00890996
-0.091078006
-0.5054972
-0.03857519
-0.070117906
0.031284302
-0.012742891
-0.044589113
0.0057609724
-0.016867021
-0.059502188
-0.016053937
-0.004753853
-0.018212417
-0.09590175
0.055394296
-0.07901321
-0.03254021
0.014679036
0.020576846
0.016782653
-0.02952236
-0.010732285
0.04630593
-0.051568877
0.04339619
-0.010637283
-0.03326669
0.030690676
0.016989091
0.01309934
-0.03229451
-0.14532949
0.005453056
-0.052295096
-0.04639532
-0.016259821
-0.0531365
0.54865396
-0.0087242285
-0.095689565
0.039527107
-0.1311663
-0.013777272
-0.06273088
-0.051443618
-0.02548572
0.043768845
-0.030355286
0.27823883
0.03351229
-0.08669561
0.0017155986
0.0041555627
0.0014172562
-0.047219872
0.13329639
0.0020392267
-0.019773224
0.080293216
-0.031629745
0.025400082
-0.09163031
-0.2486601
-0.07334849
-0.03884263
-0.052433368
0.11407298
-0.006121112
0.20743541
-0.03774156
-0.16496903
-0.04224214
0.002806518
0.84826726
-0.03874921
-0.042428102
-0.03226032
-0.05630494
0.009573025
0.011673522
-0.06994579
-0.009594337
-0.022824777
-0.070217885
-0.023142116
-0.02420823
-0.0074032512
-0.030619912
0.002096701
-0.0010501132
0.1604072
-0.054188546
-0.022702182
-0.019089494
0.012282875
0.02507643
-0.17308342
-0.024024965
-0.048930623
-0.05659356
-0.17495722
0.00044896145
0.7943422
0.019254804
0.0067976913
0.26836175
-0.016408755
0.024726951
0.03144583
-0.04901376
0.031845458
0.17393929
0.01881269
-0.011313711
0.011947763
-0.07298224
0.028939556
-0.22699906
-0.15074998
-0.008539722
-0.0023213825
-0.028426198
-0.0068678465
0.08434247
-0.5294072
0.10213435
0.03397387
-0.15111262
0.011602938
-0.04163904
-0.028558044
-0.014276929
-0.037312176
-0.045607664
0.34708315
-0.1807497
0.012253719
-0.05169265
0.025730882
-0.43244547
0.33454567
0.16143365
-0.08409637
0.017952882
0.0073311096
-0.04086942
-0.06470786
0.07915186
0.0042504477
0.59974504
0.076802306
0.007927878
-0.058423966
0.041000307
-0.019339098
-0.063678704
-0.010477253
-0.061372273
-0.048689425
0.08088227
-0.060366362
-0.10627774
-0.03186681
-0.05322997
-0.0998926
-0.068150096
-0.07134082
-0.51776975
0.3734304
0.0072153877
-0.10353003
-0.021508822
-0.013891463
-0.0150009785
-0.03530598
-0.16988216
0.042347886
-0.04650629
-0.06753295
-0.03783193
-0.11880544
-0.07473653
-0.08315712
0.047539413
-0.09586101
-0.12358603
-0.06476407
-0.03656699
0.027497068
0.020670552
-0.08722733
-0.034483828
-0.015223218
-0.08439426
0.14860374
0.0176397
-0.06527649
-0.014705162
-0.020453865
0.02671932
-0.160458
-0.06195884
0.014380428
0.03444084
2.0829524e-05
-0.02736602
-0.08440083
-0.06140682
-0.071226865
-0.08869396
-0.11466509
-0.12829615
0.0138421375
-0.107678145
-0.0507323
-0.017883582
0.025433937
-0.055480246
-0.089609325
-0.046598695
-0.07327862
-0.055916812
-0.41632444
-0.04672905
-0.08440898
-0.022340097
0.018494999
-0.10397371
0.010682171
-0.054433856
0.08044308
-0.21572569
-0.015008496
-0.07699896
-0.016178029
-0.06524078
0.010771947
-0.058857024
0.026226504
-0.024707936
-0.006774497
-0.011150687
-0.0365277
0.010045407
-0.034810893
-0.11672167
0.015583629
-0.021983419
-0.11342004
-0.04422638
0.017627541
-0.0730003
-0.075012565
-0.06198822
-0.2650352
-0.058950704
-0.11108232
-0.1008697
-0.058956347
0.017884243
-0.06840297
-0.047977388
-0.033523124
0.006012548
-0.08617681
-0.09268829
0.018064411
-0.12204835
-0.14568606
-0.029398238
0.06774643
0.025069162
-0.6985049
-0.08822549
-0.04830888
-0.0861478
-0.057924513
-0.35467926
0.027510215
0.042044345
-0.08087518
-0.022312026
-0.026400203
-0.00694419
-0.115117624
-0.057587944
-0.04719656
-0.04746184
-0.20328929
-0.11052049
-0.11461564
-0.16355258
0.5901123
0.048260827
-0.20681053
-0.047616027
-0.040145583
-0.022407757
-0.050061263
-0.19692458
0.038312793
-0.08066439
-0.022531306
-0.08777547
-0.04167206
-0.08201359
-0.047672987
-0.10968992
-0.003914479
-0.08727123
0.0375373
-0.07737356
-0.08579082
-0.03348927
-0.035953235
-0.0784874
0.08007973
-0.09184976
-0.019459879
-0.06787331
0.0031237605
0.010872443
-0.07742246
-0.023690315
-0.043565728
-0.032319684
-0.10014534
0.004636511
0.008698626
-0.014848674
-0.11169486
-0.007782146
-0.009984983
-0.077704735
-0.07793838
-0.13365729
0.0014030206
-0.011590706
-0.6785476
-0.015627729
0.01796303
-0.03986941
-0.14588293
-0.042866588
-0.024624038
-0.0870088
-0.036879145
-0.1544725
-0.121229656
-0.067124605
-0.117964074
-0.07829081
-0.02171605
-0.021075612
0.0022634258
-0.005320133
-0.10111173
0.04023791
-0.09987444
-0.064999245
-0.087052025
-0.10235999
-0.0647541
-0.0026719514
-0.07034455
-0.09453981
-0.023142418
-0.1291713
0.0011793358
-0.122320876
-0.023091344
0.027551886
-0.068664975
-0.030573646
-0.11447036
-0.07706908
-0.14463994
-0.026466703
-0.10951841
-0.08290524
-0.064403966
0.006700564
-0.04069436
-0.07300978
0.004616145
-0.052308217
0.009840605
-0.07932966
0.0056136535
-0.12085438
-0.0057846303
-0.070760846
0.02237985
-0.031444132
-0.007643716
-0.031941507
-0.04599862
-0.11730115
-0.10465045
-0.08126577
-0.010869756
0.03351154
-0.05613675
-0.02519808
0.18007523
-0.09126055
-0.023405366
-0.55044353
0.02373227
-0.017114503
0.041146852
0.22548805
-0.02367907
-0.28769383
-0.05783512
-0.058663633
0.015068095
-0.08554789
-0.122620076
-0.083110124
-0.06949022
-0.049943104
-0.054909553
-0.04570345
0.0183409
-0.05663728
-0.09275825
-0.09111384
0.006877187
0.0003520246
-0.06943849
0.017041681
-0.07221941
-0.107470386
-0.07325173
-0.08664633
-0.07223615
-0.07295207
-0.064747415
-0.05745097
-0.11142075
-0.066798285
0.028469194
0.040542006
-0.0032449
-0.058940977
-0.067194596
-0.11261088
-0.07941491
-0.15979415
-0.036495086
-0.10471064
-0.008342989
-0.07751417
-0.07579375
-0.060728725
0.031164577
-0.10885577
-0.055472005
-0.13274838
-0.049458403
-0.1419533
-0.00937265
0.07666813
-0.07334845
0.0397897
-0.19351852
-0.06051091
-0.06347178
-0.08123405
-0.0730813
-0.071571834
-0.20676582
-0.11351674
-0.0041203336
-0.048645426
-0.13285021
-0.030347321
-0.11528038
-0.04634486
-0.0005126545
-0.12604009
-0.22524154
0.0184397
-0.04062343
-0.08485141
-0.09383043
-0.008773143
-0.07341474
-0.05445841
-0.023400865
-0.0011063326
-0.06670625
-0.022922233
-0.09906222
-0.03893936
0.014277303
-0.0145399645
-0.013481592
0.023332188
-0.40052706
-0.079595156
-0.06328006
-0.019199474
-0.043116074
0.030462028
-0.050123733
-0.028433578
-0.024946338
-0.020677723
-0.07280181
-0.033482503
-0.028398683
-0.33613095
-0.088834256
-0.07762937
0.037496183
0.0517281
-0.04361566
-0.094090044
-0.0959972
0.02878077
-0.03116185
-0.08527474
-0.112821676
0.024988933
-0.006300881
-0.05131753
-0.08710013
-0.09765639
0.03049165
0.005572635
-0.09956673
-0.117980056
-0.016953606
-0.20483477
-0.030401966
-0.020978922
-0.22594118
0.0009793418
0.051581755
-0.13945055
-0.15682538
0.027721051
0.08875868
0.032767285
-0.06554672
-0.04052748
-0.40368322
-0.017614828
-0.0008053124
-0.0052793673
-0.0070796483
-0.051003717
-0.64197564
-0.10322943
-0.13125385
-0.45956814
-0.08059097
-0.15795127
-0.028030278
-0.061717656
-0.029952338
-0.11586994
-0.026805274
-0.047205325
0.021694917
-0.00958364
-0.17068236
-0.051903777
-0.118896335
0.041246172
-0.031194977
-0.017471973
-0.054824725
-0.05619205
-0.17222956
-0.041732766
-0.013181714
-0.123748176
-0.100606404
-0.03978222
-0.07864149
-0.15716448
-0.07620462
-0.0078081307
-0.009125428
0.026153492
-0.077281944
-0.080747575
-0.043609995
-0.09122454
-0.028870018
-0.028888302
-0.045615703
0.012556126
-0.054430064
-0.02034141
-7.5677875e-05
-0.027668497
-0.041053254
-0.041883785
-0.06455682
0.0015052379
0.022456931
-0.0092171505
-0.10606639
-0.12582225
0.051036753
-0.16772662
-0.1475003
0.024195574
-0.08644599
0.014529217
0.02300023
-0.21949509
-0.09148021
0.03926071
-0.035707448
-0.011861797
-0.015335978
-0.040580187
0.03207375
-0.06500272
-0.025012387
-0.060553677
0.23503394
-0.043092817
-0.10252843
-0.038385317
-0.0051513393
-0.03215578
-0.016728908
-0.009575163
-0.020121183
-0.1291794
-0.10357306
-0.0260856
-0.0697517
-0.08356799
-0.41124445
-0.076658405
-0.06533819
0.020165527
-0.038918987
-0.09541665
-0.0806393
-0.08064457
-0.0009470628
-0.042832375
-0.07548194
1.1430242
-0.0121560255
-0.077240385
-0.07460137
-0.15440486
-0.07370086
-0.027605869
-0.066477686
0.022503762
-0.13251705
-0.050932754
-0.035202987
0.020304041
-0.041574568
-0.023753861
-0.01362799
-0.043161582
-0.29068545
0.024450056
-0.04593287
-0.054143257
0.015745262
-0.027345605
-0.36692798
-0.025507404
-0.12503968
-0.106445044
0.002126791
-0.0033268721
0.51570904
-0.055967987
-0.07779604
-0.06610227
-0.068397865
-0.035012737
-0.016236857
0.040473823
-0.0010788288
0.060704798
-0.02413335
-0.05475804
0.027631568
-0.07086246
-0.03584499
-0.1891364
-0.092586786
0.01813808
-0.053458832
-0.10634478
-0.08536591
-0.09289534
-0.06846948
0.03519344
-0.03882108
0.012344503
-0.03899359
-0.029901255
-0.030894654
-0.046671145
0.0257809
-0.054815665
-0.0750112
-0.055925813
-0.11759965
-0.07145436
-0.01319541
-0.102683984
-0.068978325
-0.21276002
-0.086512454
-0.050443113
0.0053107403
-0.008211972
0.0015910283
-0.05243319
-0.043790195
0.36336416
-0.0791115
0.008872401
-0.0025560593
-0.0810911
-0.081798166
-0.22833735
0.0970166
0.022418268
0.04296517
0.20445603
0.030518657
0.005361335
0.3290898
-0.16008437
-0.094161384
0.044021387
0.07072819
0.17984721
0.022488726
-0.09800455
-0.1709954
-0.15244524
-0.067020066
0.1696796
0.057001587
-0.22500679
0.04664537
0.21966484
0.025772003
-0.025726106
-0.04878961
-0.24585502
0.010729438
-0.19171217
0.06155901
0.031088328
0.0727419
-0.18755704
-0.020639166
0.054316804
-0.031935483
0.048592806
0.038415696
0.051542174
0.0037507298
0.06294863
-0.37074947
0.037874203
0.04835964
0.04456839
-0.02748083
-0.011437653
-0.2506754
-0.24198315
-0.07032258
-0.16351825
-0.23542257
-0.047521394
-0.09373291
0.07897033
-0.13077459
0.31327507
-0.054946676
-0.1840461
0.094019376
0.040467843
0.07242714
0.033944663
-0.28155887
-0.18097933
0.039707523
0.1133299
0.49623054
0.0839589
0.17639272
0.002115615
-0.37659648
0.11485244
0.10029934
-0.115335
0.022783568
0.3198029
0.04748429
0.13408609
0.03435587
-0.1442729
0.28637418
0.057641584
-0.0830578
-0.11862019
-0.15860994
-0.50218225
-0.040047064
0.110329725
-0.012803209
0.014774563
-0.013064603
-0.11617265
-0.12902611
0.044342093
-0.18668692
0.34070823
-0.002035209
0.26003456
0.1647078
0.004893159
-0.0040795286
-0.03996682
0.047515303
-0.14105563
0.104477294
-0.024973607
-0.20843162
0.002705942
-0.11083308
0.09061318
-0.1026912
-0.04910511
-0.09722456
-0.21554346
0.026041768
0.17594375
-0.28927422
-0.23617296
0.020802991
0.018664056
0.24688366
-0.13120948
0.0038819402
-0.18185604
0.17846666
0.14200543
0.1315975
0.03022215
0.04965408
-0.009104792
0.08186402
0.066573136
0.0681374
-0.0013764108
0.09183584
0.09914521
0.3045836
-0.12043082
0.25574186
-0.005242732
0.014137849
0.18394066
0.34580582
0.19393606
0.2155274
0.049223874
0.01859456
0.08561043
-0.011525013
0.06965669
0.08022294
-0.009564886
0.3939911
0.052747548
0.04487706
-0.010341315
0.1225007
-0.19473927
-0.02462279
0.14953755
-0.007004044
0.11681266
0.012439615
-0.18190897
0.059305806
0.1692723
-0.28907293
0.054741353
0.04720308
0.10604914
0.05986094
-0.15287136
0.028982092
0.25701064
0.0722481
-0.14739703
0.04689889
0.0033192297
0.20250551
0.0044458946
0.09324849
-0.26542002
0.15070385
-0.1312101
0.04778761
-0.0018111358
0.12288981
-0.007309749
0.12731448
0.04108308
0.029152106
0.017674332
0.037695058
0.14907087
0.054930355
0.029158574
0.5061967
-0.2502622
-0.13015452
-0.09805641
-0.142903
-0.1682081
-0.1451084
0.033880524
-0.018253388
-0.14801984
-0.044695072
0.04414252
0.026386553
-0.1828937
0.09281534
0.11581233
0.3555479
-0.015882932
-0.035937026
0.037426338
-0.11431367
0.038140308
-0.008005557
0.052992355
0.058201753
0.40993455
-0.008515287
0.038006295
0.04155936
-0.15265825
-0.21657749
0.1889072
0.039731987
0.05189758
-0.02224132
0.02533826
0.03573764
-0.10825761
-0.1830974
0.037730146
0.048254214
0.09925484
-0.18412222
-0.058107067
0.51327366
0.0911949
0.12551124
-0.30937228
-0.053390626
0.06589522
-0.110652834
0.2558549
-0.0026502376
0.07898222
0.06239312
-0.10449096
0.037129227
0.07972857
0.07162583
-0.009593105
-0.17323036
0.22142611
0.09746477
-0.085157104
-0.029707486
0.043187678
0.06436875
0.01695606
-0.09869777
0.1607765
0.07715553
0.08347161
-0.2600215
-0.2139087
0.05578075
0.031697392
-0.22775008
-0.15245293
-0.07999968
0.04534768
-0.08454516
0.26177564
0.1234755
-0.04133894
-0.07912016
-0.01891916
0.022202702
0.22202541
0.07311762
0.116423
-0.06507922
-0.19147682
0.008980181
0.15542875
0.056228302
0.027101353
0.1937608
-0.03708926
-0.02967146
0.004028959
-0.5919092
0.031749584
0.036392078
0.027486635
0.017694574
0.09040136
0.115649424
-0.03700821
0.07292219
-0.18156187
-0.02114008
0.33445573
0.047061555
-0.1323712
-0.39344433
-0.05601149
0.05692596
-0.036187377
-0.0839576
-0.41935092
-0.093935266
0.07582099
-0.016565632
-0.14755267
-0.31045088
0.023434363
0.15930916
0.2506127
0.061821464
0.059941333
0.22011365
0.098027885
0.1815681
0.08726166
0.24769375
0.11030593
0.10448781
0.012474266
0.039044935
-0.112086125
0.062262554
-0.071415804
0.07482696
-0.20830445
0.17927712
-0.17362739
0.13306196
-0.3077371
-0.10830188
0.000129047
0.35877228
0.094258614
0.21426488
-0.14111497
-0.103418835
0.73424405
0.1535457
-0.1722777
0.06457627
0.054082546
0.13453496
0.32438102
0.0604215
0.095615745
-0.009474141
-0.12458386
0.3377886
-0.074221
-0.018610576
0.6359522
0.020849202
0.09824147
-0.36035627
0.05376639
0.05890237
0.032024026
-0.02888896
0.03949823
0.053456802
-0.16292867
0.03406537
0.032463085
0.13473992
-0.2853181
0.058573045
0.05551261
0.09944747
0.063426614
0.23344536
-0.0027605304
-0.0076187146
0.090266466
0.16386852
-0.13914566
0.044551153
0.01398463
-0.35873732
0.3178055
0.11701245
-0.014441019
0.2647595
-0.1773611
0.42397404
0.22502205
0.0626498
0.4099785
-0.013546905
-0.03490457
-0.03742983
-0.0027520924
0.27911744
-0.051194843
0.033495393
0.07611654
-0.3768799
0.039948773
-0.19316803
0.006381155
0.005417788
0.10564968
0.18473779
0.042821784
0.2090718
0.12073315
-0.05925678
-0.1843014
-0.07041603
-0.053244684
0.043945324
-0.009143806
-0.2402692
-0.023371072
0.0001701976
0.16499925
0.018026838
0.01915404
0.1836314
0.15798756
0.078735024
0.0370521
0.04167919
0.058159415
0.053507812
-0.3811203
0.0857683
-0.014746506
-0.096813664
0.022238221
0.04150355
0.40774527
0.071110226
0.11785238
0.070698634
0.3962399
0.007879369
-0.019244116
-0.0040748958
0.05027991
0.0171311
-0.15910009
0.15734777
-0.028760187
0.3220156
0.29047713
-0.006180941
-0.18004708
0.046199918
-0.12329423
0.08565884
-0.01371556
-0.13478501
-0.28948468
-0.15037131
-0.052818894
0.80520296
-0.19870615
-0.15885203
-0.05414181
0.12905982
0.067075826
0.20226423
0.008924911
0.07774173
-0.057651337
0.003941645
0.0017871159
0.37091714
0.047043283
-0.33554173
0.01968143
0.23385224
-0.31090072
-0.3794464
0.051822815
0.02976886
0.012274527
-0.0697977
0.047030654
0.22332281
0.026420536
-0.29981548
0.061141767
-0.008643655
-0.03616708
0.021901647
0.009967468
0.14225785
0.036608476
0.26485303
-0.109942935
-0.20627661
0.019843237
0.14136697
0.34716725
0.0011009007
-0.03351804
0.15257047
-0.0032900283
0.090232946
-0.024621585
-0.4581618
0.38081956
0.17955445
-0.040238634
-0.022845283
0.05333545
-0.064401336
0.01637841
0.1490519
0.20431915
0.27190748
0.13186927
-0.009291496
-0.15342632
0.015111778
-0.0049327323
-0.013794906
-0.46988097
0.019785902
0.1337596
0.044606388
0.05658704
0.5283527
0.2585233
-0.1603522
-0.1876836
0.024298249
0.052284975
0.6693918
-0.026207501
-0.16727012
-0.27018678
0.089541934
-0.06889598
0.23734902
0.057605524
-0.013142044
-0.2500586
-0.012500926
0.59938
-0.02356536
-0.1694872
-0.11359936
0.39107177
0.41532266
-0.47339016
0.25096086
0.059159253
0.06587219
-0.057094827
0.04131499
1.1594865
0.03453725
0.14982294
0.11142358
-0.42215466
-0.25103423
-0.031005252
-0.046714675
0.0514178
0.18025553
-0.047918554
0.010403513
0.026302936
0.017022856
-0.03128093
-0.0061972104
-0.012689521
0.019481516
-0.0005849547
0.022299357
0.035724312
0.039325304
0.1460102
-0.196023
0.0060028904
0.15126622
-0.039921377
0.065315194
0.01540221
0.022144571
-0.118632875
-0.057375334
-0.0005092394
0.02502916
0.00042964178
-0.008472515
-0.02218734
-0.077306315
-0.06747273
-0.018106097
-0.020389246
0.028563503
-0.02366415
-0.01777829
0.0012733035
-0.016253926
0.028113777
0.019557994
0.018440416
-0.1867295
-0.02348624
-0.07322274
0.03166218
0.008875325
0.012521662
0.041547544
-0.0130304685
-0.008498298
-0.017527755
0.008646168
0.09498464
-0.026451966
-0.008720024
0.034196418
0.045849424
-0.015897196
-0.0109611275
-0.012181205
0.12387122
-0.03156535
-0.03574027
-0.0746941
0.03903906
0.119853735
-0.029722689
0.10278335
-0.05833188
0.20455058
-0.041195754
0.033875298
-0.011640163
0.031551246
-0.103900984
-0.044379964
-0.02231499
-0.07232481
0.19203942
-0.058293432
-0.014655357
-0.055690896
-0.012670736
-0.05268122
-0.058802765
0.021775335
-0.014467444
0.046473436
-0.017292766
-0.016706375
0.026524274
-0.0059020077
-0.031956844
0.031576585
-0.055618092
-0.017771792
-0.027194995
0.0024959487
0.009863881
-0.031987526
-0.04358838
0.05125435
-0.019901887
0.0115812225
0.05442634
0.026361424
0.010561963
-0.06406586
0.09731115
0.074935526
0.0052216765
-0.027687514
-0.008863369
-0.025375677
-0.20396173
0.2501732
-0.02571475
-0.061034076
-0.076761305
-0.7916956
-0.043718215
-0.014068841
0.02533947
0.0006461617
-0.5240556
-0.06521344
-0.07466221
-0.0415604
0.03750464
0.035506614
-0.014182648
-0.008053053
-0.049922716
-0.0040691444
-0.010101836
-0.08114322
0.113739334
0.02753776
-0.04515442
-0.72194666
0.017478656
-0.05574304
-0.029526094
0.0065905545
0.0018589894
0.4226294
0.01675965
0.014241236
-0.028908448
-0.004907107
-0.008104015
0.027135842
0.03844512
0.015534636
-0.0108797215
-0.020143367
-0.00038922293
-0.04114994
0.07992888
0.015370247
-0.08140251
-0.007010745
0.0064025125
-0.0055143195
-0.031501338
0.024802081
0.17275038
0.02372941
0.032020446
-0.032125827
0.15270555
0.036564715
-0.013948885
-0.024571458
-0.008416501
0.0019748416
-0.04800123
0.059658714
0.036785334
-0.07827939
0.02021277
-0.017504476
-0.026050765
-0.0017599986
0.09770473
-0.03765041
0.09522681
0.0038506445
0.0006670485
-0.10931815
-0.007311445
0.1618948
0.03900791
0.029491978
0.048634216
-0.033345662
0.0213279
0.02397665
-0.036190912
0.00055824744
0.18524504
0.021542216
0.013245607
0.1143055
-0.0039233495
0.009120261
-0.03348234
0.010020306
0.026988078
-0.035297345
0.018651068
-0.0019827355
0.06717083
-0.0079000965
0.028507825
0.021781947
-0.024999103
0.03666666
-0.016180975
0.023589792
0.00074862456
-0.033222377
-0.0061427937
-0.0042300797
-0.007976358
0.0169543
0.021122836
0.035340376
-0.060600188
-0.005574274
0.01881969
0.009403519
-0.0050157732
-0.023656335
-0.019727392
-0.035790432
0.030349856
-0.015364268
-0.015794247
-0.025735155
0.02211814
-0.099256456
-0.045067206
-0.024293475
0.03911545
0.003728511
-0.019457305
0.013029599
0.026725644
0.026456043
-0.026076589
-0.5427205
-0.02752518
0.01621942
-0.44182622
-0.004878906
0.016346252
-0.03215884
-0.112535775
0.02367248
0.21656623
-0.011820198
0.011362474
-0.02129146
0.002511483
0.03345953
2.5881418e-05
-0.04324614
0.004865556
0.023304543
0.03295077
-0.03259806
-0.015406046
-0.033886164
-0.026233615
0.007764543
0.047274496
-0.07314441
0.047173545
-0.005977864
-0.028193032
-0.02610529
0.0037125384
0.08615958
-0.067784764
-0.01085637
-0.008391007
0.019438703
0.0020105909
-0.04372479
0.02738639
-0.05796349
0.014065504
0.0034275737
0.02495845
0.04785224
0.05036027
0.010192158
0.0057510687
-0.40168235
-0.030354029
-0.029439608
0.020262351
-0.06280768
0.007834734
-0.033956
0.046708003
-0.02062486
0.22400627
0.014238933
-0.07411071
0.037303157
-0.04009937
0.03729546
-0.015762608
-0.036273144
-0.017588492
-0.04930106
0.061085526
-0.055528894
-0.01714243
-0.002753737
0.025473926
-0.08316964
-0.012966096
0.014958791
0.020163635
-0.0050881216
-0.006948354
-0.02238954
-0.017314425
-0.020739088
0.022105195
-0.0148156965
-0.03301552
-0.036101446
0.0041940534
-0.023230596
0.00222661
0.09355415
-0.007981871
-0.05071172
0.012815483
-0.042218216
0.013019637
0.03626346
-0.026736872
-0.35553885
0.024019813
0.0007192021
0.03636964
-0.027729748
-0.034141567
-0.068738796
0.046030022
0.023983689
0.031906713
0.03851448
0.02701513
-0.019175861
0.06290074
-0.016108414
-0.011480228
-0.06882701
-0.059179675
0.014755486
-0.08073981
0.16392232
-0.036309183
0.0038089023
-0.07405047
0.15383798
-0.011251959
0.011246534
-0.00042277324
0.05168406
-0.023259524
-0.012274711
0.0140539035
0.030810017
0.012144328
-0.011037937
0.03399221
0.041515764
0.0123337535
0.10886698
-0.01769077
-0.107552655
0.0377643
0.03579733
-0.019539602
-0.059627403
-0.013527289
0.01010618
0.014349312
-0.05319248
-0.053727623
0.0636477
0.035178546
0.012645111
0.061142087
-0.41793984
-0.09036735
-0.029616488
0.04685962
0.02155612
-0.35738048
0.0014502399
-0.052933294
-0.026556948
-0.03290755
0.0039022893
-0.0044082412
-0.052405834
-0.0026472365
0.08917936
-0.014387272
0.049493276
-0.022352533
0.00914675
-0.021285612
-0.006045519
0.008738612
0.014216896
0.025471682
0.068167344
0.120575234
0.004851676
-0.033618305
0.074367754
0.103351735
-0.010857162
-0.020222293
-0.0014739402
0.008726219
-0.029873574
-0.023020867
0.010185117
0.0561415
-0.032095414
-0.026636992
-0.06649189
-0.035231914
-0.0072248583
0.030639898
-0.023474127
0.030518154
-0.049129702
0.0085468795
0.012640189
-0.0069805356
-0.024431368
0.015308504
-0.013478687
0.0053058737
-0.018622903
0.012332188
0.0027796675
-0.03787665
0.028445452
-0.0031510869
-0.013034231
-0.30353963
0.037444618
-0.017431535
0.032980356
-0.037779145
-2.7554375e-05
-0.01840891
-0.037334032
-0.086342655
-0.00302375
-0.022235848
-0.15466289
0.024140537
0.0123278
-0.03783043
0.019281512
-0.014868984
-0.037519693
0.038529314
-0.04110427
-0.024673121
-0.05963043
0.001237548
-0.0138073005
0.06484667
0.0067195822
0.013437716
-0.010540772
-0.03153853
-0.0116758365
-0.006408996
0.02940519
0.029629495
-0.014711348
-0.0020278355
0.035002805
-0.69564307
-0.053989023
-0.0013990131
-0.011363761
0.031458713
-0.012309977
-0.014094069
0.004379286
0.009206276
-0.08772525
0.0835377
-0.000743284
-0.017161442
-0.014265581
0.0053828466
-0.04553805
0.0024876688
0.27395213
-0.06533391
-0.03251881
0.037948582
-0.010731788
-0.0043948116
0.2274247
-0.015224941
-0.0128863305
0.010831439
-0.00543855
-0.030116098
-0.54602647
-0.026785042
-0.037058648
-0.2423907
-0.007465696
-0.013905904
0.011052383
0.014148885
-0.036728654
0.13605186
-0.046885833
-0.014378556
0.007719976
0.0071772146
0.03269532
0.01164281
0.0035341354
0.018514905
-0.004750804
0.044734515
0.038433526
0.13369702
0.034401387
0.06350811
0.009440307
-0.012442535
-0.014080277
0.04095357
-0.01486277
-0.019851895
-0.05454636
-0.029683558
0.10550185
-0.030971356
-0.0076077357
0.00083819753
0.035210975
-0.605911
0.13334353
0.21054839
0.013315337
0.040674735
0.035145827
-0.012686059
-0.061612103
-0.03152657
0.047523346
-0.16144353
0.0009351791
-0.036203295
0.0049671084
-0.035850465
0.03606911
-0.24061958
-0.19163841
-0.060812745
0.052721914
0.18762545
-0.027941583
-0.037090488
-0.3246557
-0.20591357
-0.047246743
0.030081946
-0.60711557
-0.15690833
0.13858628
-0.10069558
0.2864199
-0.11224681
-0.04180763
-0.13548581
0.40764955
0.20988081
0.049449112
0.43759835
0.2552624
-0.15508093
0.07451153
-0.20014744
0.27848125
0.052440867
-0.1969382
0.0032612723
-0.08710207
0.19690283
0.2117216
0.0516719
0.054546278
0.0744562
0.06361591
-0.5836542
0.45896837
0.106538124
0.36286652
0.07872808
-0.14807984
-0.008928875
-0.15881619
-0.16076471
-0.29928267
-0.46533436
0.2895899
0.4213119
0.014445923
-0.12861504
-0.13680942
-0.08607027
0.411492
0.651304
0.22809607
-0.06721563
0.15575348
0.044626027
0.028296968
-0.010003834
-0.04471632
-0.00589385
0.018049605
-0.5319417
0.07733232
0.20611592
0.035807896
0.15615527
-0.21015428
-0.12008713
-0.1674428
-0.040320076
-0.07286831
-0.057507087
0.6188882
0.44603553
-0.006077183
-0.4172759
-0.027228352
-0.43947634
-0.030207688
-0.06452431
0.21101847
0.63710755
0.39885557
0.08397172
0.61167246
-0.23956119
-0.017345227
0.075484484
0.16957487
-0.2148556
0.32482556
-0.40009952
0.12433121
-0.26849186
0.0329328
0.05291207
-0.031926304
0.02071546
0.015773147
-0.4627335
0.25852844
0.19637941
0.041240957
0.03951729
-0.114641875
-0.2477019
-0.1417555
-0.32532805
-0.08960042
0.038103763
0.015313593
0.41934773
0.92021877
0.085605435
-0.01670518
0.06288569
-0.3892663
-0.5248928
0.093768045
0.107221074
0.3469513
-0.10985109
-0.5085675
-0.047568843
-0.39875045
-0.519908
0.36096045
0.18664205
-0.5248444
-0.38209388
-0.40406537
-0.18072268
0.41969994
0.17902601
0.25281566
0.033894587
-0.5226917
0.29916158
0.055428956
0.5963081
0.14291349
0.017638242
0.03724032
0.0884447
0.03269496
-0.44900793
0.31109127
-0.17672908
0.19899982
-0.009103357
0.086714916
0.06564354
-0.048150267
0.23571807
0.30651206
-0.34705338
0.42832518
-0.101595834
-0.0055574435
-0.24467796
0.53002065
0.31120548
0.14226256
0.04912096
0.09566621
0.049949456
0.03127131
0.123353235
-0.17464955
0.35475025
0.06968875
0.24497642
0.65280443
0.112018675
0.2174889
-0.042934958
0.12335119
0.009619899
0.31641272
-0.10720084
0.0647289
0.16679052
-0.18300246
-0.24735531
0.0809872
0.039198358
-0.33275923
-0.022504024
-0.10164519
0.022527914
0.021212328
0.040555958
0.24637115
-0.22719353
0.39596662
0.0849162
0.13956958
0.14847448
-0.106217675
0.03814748
-0.15793933
0.16561964
0.29209426
0.12026831
0.040264692
-0.07891415
0.15130052
0.08731059
0.35930458
0.056021467
-0.19277729
0.1156974
-0.38894498
0.002952758
-0.2731751
-0.3123375
-0.3535249
0.43295395
-0.17455134
0.071068816
-0.23617877
0.32104716
-0.26122865
-0.021289483
0.0023470293
0.12987837
0.32471007
-0.0025746464
0.05056362
0.44695255
-0.38086376
-0.37330094
-0.029823938
0.2969455
0.37281522
-0.26819673
0.3881116
0.0012376392
-0.2355459
-0.29925975
-0.3844203
0.14972094
0.036540233
0.22289148
0.52797884
-0.0014464493
0.19799471
0.18876562
-0.008082578
-0.21144879
0.009554058
0.3919268
-0.067289576
0.26436582
0.23655961
-0.12940195
0.03128839
-0.36705282
-0.16656138
0.030173624
-0.061346225
-0.547432
0.09694917
-0.10582035
0.006736785
-0.09682494
-0.005300801
-0.23454003
-0.16706295
-0.30614063
-0.41256082
0.022057522
-0.2675015
-0.3256632
-0.16501468
-0.32525086
-0.14078058
0.10661781
-0.022615492
-0.24662985
-0.53630084
0.09475223
-0.2707379
-0.39605382
0.015197932
0.10907821
-0.05578681
-0.21021691
-0.17629784
0.079706505
0.17170365
-0.032283798
0.108313784
-0.0411346
-0.17845541
0.15086126
0.04786791
0.015909636
0.062773265
0.16592313
-0.2521119
-0.058743153
-0.22950794
-0.08288439
-0.10802693
0.10419254
-0.36114576
-0.019515842
0.18514664
-0.2058899
-0.07477416
0.19864722
0.09093413
-0.16478038
0.02631157
0.06676427
0.80376774
0.035319846
0.0065659736
-0.22009227
0.23089512
-0.09458755
-0.02451762
-0.38885665
-0.11654297
0.21331626
-0.041928772
-0.40091553
-0.07151468
-0.28867528
-0.11079113
0.015925582
-0.19490412
0.5980817
0.033824522
0.44037032
0.22639765
-0.05933919
-0.25024366
-0.24549605
-0.7955668
-0.01569628
0.069368094
-0.25211075
0.0079961
-0.017788082
0.057715427
-0.15624082
0.037060853
0.12736255
0.05537545
-0.0046119266
0.41008845
0.54516464
-0.14122124
0.17069021
0.10501748
-0.031489335
0.6091546
0.09585522
0.30624172
-0.051937424
-0.13394906
-0.037217934
-0.113804676
0.073437095
0.11106994
-0.16486757
-0.23685628
0.017453695
-0.0096267145
0.17121261
-0.32620975
0.083064176
0.43027875
-0.20590952
0.0395287
0.14784706
-0.23074202
0.007543851
0.51404196
-0.20403142
-0.18271992
0.37063873
-0.08727219
0.11368035
-0.3751105
-0.087249324
0.62045467
0.11861367
0.16677347
-0.3638495
-0.59804016
-0.10520922
0.4528721
0.27189624
0.097315
-0.017819084
-0.04533028
0.33150482
-0.23932274
0.004013149
0.13058953
0.06262043
-0.010562996
0.06722731
0.23513763
0.026328627
-0.20220107
-0.1665473
0.025642335
0.3305106
0.34482333
0.05590461
-0.04960732
-0.07555869
-0.33148074
0.15635397
0.06299219
0.22999866
-0.10612914
0.019574242
0.026954541
-0.48836812
0.008670946
-0.47504765
-0.2393239
0.029780068
0.114759825
0.09362618
-0.1168947
-0.12504247
-0.0014192732
0.2758045
-0.23209858
0.013365299
0.07783346
-0.19756421
0.3451271
0.12596017
-0.08617047
-0.054771516
-0.05604822
0.13625957
0.10806147
-0.19589613
-0.040167578
-0.15217447
-0.016452862
0.1324086
0.018409695
0.16747679
-0.38629028
-0.0046947813
0.35938525
0.24762557
-0.041391697
0.23196277
0.16724066
0.2702271
-0.0084222425
-0.0046467423
0.018765468
-0.08953553
-0.3615765
0.019551177
0.1181844
0.22669707
-0.2473429
0.3767674
-0.4237869
-0.0152210845
0.06696204
0.21093501
0.12514372
-0.39571363
-0.03418511
0.01031078
0.43173942
0.46796218
0.022412144
-0.229136
-0.123855576
0.108068615
-0.22810777
0.047334958
0.046272248
-0.24037135
-0.09913339
-0.12881786
0.032108877
0.80335337
-0.09571245
-0.25996587
-0.090989634
-0.22935839
0.13711834
-0.26699895
-0.22720774
0.04366606
0.43035376
0.12750235
0.13057134
0.44942495
-0.21501039
0.6483219
0.05235834
-0.038647
0.07570624
0.109056056
0.15681249
-0.16193971
0.301601
0.23204044
0.1332419
-0.014523585
0.07273777
0.16225219
-0.0070334245
-0.013917685
0.64813006
0.059976067
-0.027355352
0.5630792
-0.052632447
-0.05244471
0.10566044
0.03767429
0.20791331
0.32416332
0.16402951
-0.15225835
0.026621183
0.012438984
0.6545715
0.19072755
-0.23822396
-0.16398163
-0.2122576
0.21256867
0.21540718
0.058627084
-0.051918384
-0.13223465
0.16315976
0.104875125
-0.5436983
-0.14770366
-0.05439525
0.53575516
0.2598413
0.463526
0.29939994
0.19232218
-0.17674506
0.05321058
-0.008728804
0.0091487365
0.3902173
-0.043114327
0.03280419
-0.18243438
0.04451092
-0.33632702
0.006552114
-0.10455915
-0.08741096
0.3110142
-0.039285645
0.062469203
-0.2794232
-0.1685104
-0.47904816
0.060574934
0.014288479
-0.024425596
0.046958283
0.053890787
0.00812284
0.069747336
0.046433914
0.06393604
0.08808401
0.10296926
-0.06704119
-0.07792036
-0.65450245
0.07998844
-0.50805503
-0.027719628
0.038321026
0.046329755
-0.13603653
0.03733433
0.05543931
-0.06884474
-0.061590724
0.1564147
-0.06302974
0.16720217
-0.2940144
-0.045338355
0.124457255
0.066046014
0.03164162
-0.010464097
-0.07855849
0.033096865
0.07507755
0.19951586
0.02462175
-0.029793857
-0.16738935
0.071279235
0.22103722
-0.003573231
0.078933015
0.0045303274
-0.18164562
0.09849816
0.13597672
0.16794717
-0.00067226565
0.018910142
-0.19233564
-0.134722
0.19153671
-0.018832056
0.25176352
0.5699135
0.04966069
0.16284783
-0.088829085
0.020974621
0.06096059
-0.0040488755
-0.053161103
0.046872303
-0.10907781
0.054442238
-0.002573071
0.04126779
-0.10131629
-0.019005433
-0.012650455
-0.00605032
-0.00634443
0.19062406
0.06627642
-0.13357756
-0.10457076
0.09266197
0.112302035
0.15996288
-0.10993025
0.011408608
-0.03007593
0.009497758
0.05155939
-0.38683096
0.14495704
-0.08863975
0.024644649
-0.014539076
0.067189574
-0.06694738
-0.540647
0.101032265
0.2388022
-0.06548619
-0.04543215
0.05320883
-0.2662546
0.20934899
-0.025161885
-0.16047393
-0.07182483
-0.047638685
0.19475546
-0.010322145
0.115512714
-0.02171501
0.19541822
-0.13307224
-0.11899456
-0.24900831
0.14843877
-0.16551876
0.060937196
-0.02050321
-0.28502217
-0.054886438
0.1709457
0.08051491
-0.020768203
-0.46573296
0.025799477
-0.36762652
0.24898678
0.0785811
-0.012814156
-0.020747319
0.07909197
-0.019182755
-0.08367235
0.012616679
-0.22639433
-0.28264534
-0.05328892
0.17343879
-0.6114285
0.3342204
-0.35258654
-0.03676118
0.10752722
0.007874263
-0.26978603
-0.6123498
0.058895722
-0.00043767522
0.038803883
0.071152955
0.05915752
-0.08982358
0.16520947
0.0548323
-0.043329988
0.054083332
0.102867305
0.043887064
-0.004480785
-0.0013359835
0.027062047
0.0023499024
0.06681149
0.10363444
0.11409452
-0.078746736
-0.01956582
-0.106509045
0.26469076
-0.18396516
0.075586915
0.0067565064
0.122540936
0.07526444
-0.05312821
0.32353914
-0.16504562
-0.0756246
-0.26666984
0.01745329
-0.056861743
-0.0356525
-0.07781109
0.14472081
-0.5322408
0.028818367
0.051115878
0.034569252
-0.53443116
0.107011296
0.31841248
-0.034927595
-0.052016847
0.07705685
0.026320392
0.05755195
0.031676155
0.08623139
0.10427283
0.14838971
0.06450293
-0.113511495
0.093774736
-0.10156507
0.16028884
0.10813548
0.010468526
0.10368317
0.008577533
0.07360248
-0.02219892
0.12317385
0.18823849
0.17560744
-0.18634894
-0.016213987
-0.0066266935
-0.025754845
0.044852532
0.026812267
-0.038122423
0.013595862
0.08178327
0.19582431
-0.003947026
0.045384403
0.015337209
0.3017861
0.0062899124
-0.05415837
0.090006836
0.032950193
-0.17213018
-0.014995339
0.076529145
0.28458843
0.011185256
-0.031189907
0.10893413
-0.11639738
-0.03753402
-0.06136562
-0.016556755
0.16309586
0.08133391
-0.25012672
0.04166743
0.058812056
0.10739418
-0.02136874
-0.1193674
0.045438375
-0.22991876
-0.25080186
-0.008975454
0.09689725
0.05675599
-0.2351765
-0.1280739
-0.019926896
-0.17958227
0.069517635
0.014795344
-0.007487287
0.18066955
0.04800555
-0.0063008415
0.23465492
0.11598846
-0.030984648
-0.13683611
0.079034664
0.038804643
-0.023537038
-0.2798217
-0.17550448
-0.33003247
-0.059624225
-0.088976584
0.034704044
0.13876912
-0.048439436
-0.015411206
0.25516602
0.070126146
-0.07918767
0.08064023
0.02473078
-0.04673457
-0.075082056
0.0039029934
-0.13075696
0.123967506
-0.00201316
-0.18483914
-0.17112848
-0.04912041
0.010549874
0.10271056
-0.09782628
0.042001694
-0.056622382
0.0666341
-0.03365565
-0.07668092
0.05427301
0.06310034
0.14160694
0.010516088
-0.3221346
0.013017636
0.06431708
-0.1768246
-0.20433153
-0.08714926
0.032572612
0.05714311
0.33149993
-0.24638604
0.053845804
0.02189531
-0.069375604
0.17674242
0.053484604
0.091286965
-0.11354316
0.25613058
0.12756255
-0.20720057
-0.10889272
-0.03989304
0.08017451
-0.15702483
-0.07877232
-0.027352434
-0.008825306
0.07930158
0.042334855
0.044303194
-0.15814121
-0.08966901
0.13335893
0.05160184
0.12631688
-0.078930356
0.21897505
-0.14127673
0.0027019512
0.17598455
0.12296467
-0.075761095
0.088451594
0.29513437
0.06613971
-0.18368007
-0.24143727
0.15190077
0.054178383
0.11491249
0.28384188
0.11596013
0.042193744
