-0.01299780
0.02483813
-0.04768319
0.19919163
-0.07527024
0.07498269
0.05535677
0.07396590
0.05203418
0.14355581
0.06338025
0.13861339
0.11649700
0.09174575
-0.03238421
-0.05431026
0.12130364
-0.09523191
0.03752034
0.00796230
0.00460891
-0.07740616
0.00077181
0.14917377
0.00980657
0.09387211
0.00003401
0.00517128
-0.06201768
0.10071029
0.00982536
0.02132694
0.11812134
0.01843649
-0.03824301
0.11109867
-0.05058397
0.04309487
0.01966047
-0.09838483
0.01420778
0.10848130
0.01506054
0.00023263
0.03572871
0.17004582
-0.02213799
0.08639895
-0.01196674
0.00652104
0.00094375
-0.06268476
0.03079497
0.02423522
0.07997152
-0.02602920
0.00880710
-0.05303645
0.01506029
0.13579999
-0.15616854
-0.01485043
0.03220864
-0.02781729
0.02979149
0.05948399
0.06729986
-0.02933236
-0.02007890
0.07214770
-0.02566092
-0.01007671
-0.01695970
-0.00403951
-0.05871013
-0.01821215
-0.07184152
0.08399652
0.14282988
0.00331903
0.09677382
0.02067675
0.13521710
-0.08815566
0.06472037
0.04730345
0.07382446
0.09853841
0.10213227
0.02299942
-0.08043031
-0.06888875
-0.04186062
0.02630443
0.09619204
-0.03289455
0.00677769
0.08670357
-0.00218029
-0.06456238
-0.00123167
0.04450493
0.02788169
-0.10636548
-0.07294960
0.15855333
0.14090107
-0.05189131
-0.03648653
-0.04167498
-0.03648616
-0.03101690
0.11997437
-0.02327344
-0.03685564
-0.07813919
-0.02914692
-0.03253862
0.09974895
-0.03677714
-0.01159442
0.02118017
0.16435432
0.03720602
0.00919246
0.06860783
0.00963015
0.06591943
-0.02061035
0.07068483
-0.01128838
-0.05766965
0.08567865
0.03830937
-0.31141096
0.08386183
-0.00130500
0.01873664
0.00238433
-0.01346297
0.11340576
0.02227822
-0.13101858
-0.04906768
0.07923111
-0.03771877
0.07304643
-0.01824017
0.00376153
-0.01923760
-0.07069051
0.02921289
-0.08029128
0.03655327
0.00358069
-0.09134348
-0.05333564
0.18554731
0.15790075
0.04814161
0.01145183
-0.00201560
0.17741598
-0.00642470
0.03641332
0.00961097
-0.04601981
0.06812607
0.06947739
-0.04982382
0.00582230
0.05148036
0.01807295
0.07947289
0.00017341
-0.02361429
-0.03085961
0.06657782
0.10008138
0.10500982
-0.01107014
-0.07178415
-0.05964295
-0.02999754
0.07623873
-0.12584564
-0.03270276
0.07926612
-0.00018186
0.06054273
0.13444002
-0.05952132
-0.01586873
-0.04135787
0.19945481
0.01641924
0.00327743
-0.05574953
0.05623416
0.07006327
0.09079438
0.05103227
0.14666773
-0.03582322
-0.11490683
-0.00196050
0.07077800
0.09394716
-0.00288244
0.07900774
0.10425325
0.12280804
0.13889284
0.07103745
0.06549777
0.11199807
0.05170465
-0.01630978
-0.00477197
0.04019841
0.17024881
0.01599723
0.02099466
0.03132481
0.10224628
0.16801617
0.01029305
0.03908759
-0.07985353
0.01908347
0.23240590
0.00391541
-0.07757143
0.03553938
0.13560142
0.06402974
-0.06171792
-0.01914735
-0.00245651
-0.04644042
-0.04687476
-0.04722401
0.00374692
0.12998199
-0.03524552
0.03824004
0.00796549
-0.02597155
-0.05156768
0.04175758
0.06651298
-0.06600705
0.12372913
-0.03532889
-0.05185153
0.11981238
0.14881745
-0.07331347
-0.02372263
0.13777971
-0.05033992
0.00862850
0.03828208
0.16581410
-0.03873791
0.01342577
0.01163101
0.10393617
0.09211133
0.10724634
-0.04232012
0.07173697
0.00427247
-0.01315076
0.07718441
0.07691842
-0.00768363
-0.00954459
-0.01729108
-0.05047982
0.01091019
0.05801250
0.21081910
0.05642657
0.07016611
0.09371544
-0.02291940
0.06302711
0.00548205
0.04486487
-0.00055457
0.12516598
0.06856614
-0.04543685
0.00564616
0.04381470
0.00180021
0.04238566
-0.05160431
0.10238998
-0.06635528
0.00425267
-0.04523332
-0.00046038
-0.01424508
0.05646461
-0.09827920
0.01466818
-0.04810846
-0.09861542
-0.01195810
-0.05602750
-0.08289935
0.06026895
0.04918172
-0.03450595
-0.06918898
0.04726715
0.12497898
0.07525357
0.10312252
0.12065413
0.11984959
-0.12240444
0.14887787
0.12654449
-0.01602005
0.06203083
0.02960631
0.11170690
-0.03829249
0.05801773
0.04465470
-0.04133683
-0.00610336
0.01127524
-0.04885956
-0.02640689
0.02352378
-0.00257644
0.01982890
0.16553576
0.02243490
-0.06747027
-0.25683922
0.09658536
0.11344605
0.16567250
0.02771474
-0.02293229
-0.02555577
-0.03082751
-0.04862920
0.09581611
0.01809880
0.02037844
0.03874993
0.00591909
-0.00360243
-0.00666314
0.09774254
0.03784478
0.03645146
-0.01182957
0.05867365
0.02512653
0.02519335
-0.02695342
-0.01693494
0.09098562
-0.00963047
-0.00600527
0.05966183
-0.05452130
-0.08356434
0.08357951
0.08456739
0.09085855
-0.08572802
-0.03750523
-0.02233340
0.00920048
0.03180281
-0.03639574
-0.06480685
0.18754493
0.21272847
0.07728884
-0.04569034
-0.08548597
-0.00957216
0.07485344
0.06399310
0.08555298
-0.10697123
-0.03999046
-0.03077922
0.08529027
0.09962136
0.08439898
-0.03660991
-0.00000231
-0.03127855
0.14917305
0.04595952
-0.00376154
-0.02309079
-0.02535439
-0.00331663
-0.04581605
-0.03459638
0.01589818
-0.03322373
0.02314566
0.11725377
0.01315072
0.02240974
0.01683187
-0.02570185
0.04634486
0.00485258
0.06210857
0.16801544
0.08058916
0.10869592
0.03237628
0.07171951
-0.00345229
0.05264318
-0.12475871
0.14830869
-0.00805715
-0.00697059
0.08757520
0.11753713
-0.00882429
-0.04665531
-0.03454099
0.04287688
0.08673362
0.04126661
0.13280411
0.06393906
-0.01709392
-0.00822677
0.04143846
0.10481967
-0.00260332
0.04793611
0.05813275
-0.03389003
0.20760098
-0.01165203
0.11709320
-0.00612775
-0.02176589
-0.04577065
0.14954561
-0.03247862
-0.06098886
0.06097692
-0.00003255
0.03384097
0.13598981
-0.07434259
0.03049894
0.00449022
-0.03021352
-0.05387359
0.10634311
0.01864458
-0.06695879
-0.03624730
-0.00564007
0.04826243
0.02734309
0.09295668
-0.04038823
-0.00288800
0.03759557
0.15166174
0.05887356
-0.13745537
-0.07648658
0.00935906
-0.03262793
0.11048468
0.09268389
-0.04854352
0.12108875
-0.07082340
0.11955953
0.10270693
0.01979946
-0.02204042
0.14824073
0.08915070
0.02545508
-0.00348479
0.04252712
-0.02801938
0.00068129
0.00655373
0.14724526
0.06854901
0.11003722
0.09676305
0.07854118
0.07456630
0.02540564
0.02217190
0.01127076
-0.03824459
-0.11261103
0.04111896
-0.03579054
-0.01846473
0.02261553
-0.01163960
0.01262130
0.06365897
0.11262356
0.01090846
-0.03747673
0.04219384
0.07830708
0.07431174
0.04860492
0.05987530
0.03973951
0.06287302
0.00632450
0.00081741
0.08078384
-0.05561664
0.04350822
0.07728957
0.01142890
-0.02360197
-0.00695905
0.11504550
0.02179694
0.11862383
-0.07289058
0.12868278
0.08059046
0.08228108
0.04662594
-0.05208951
0.09301689
0.08310945
-0.04389847
0.04414387
0.00355621
0.04048725
-0.01875102
-0.07785417
0.07104360
0.09539059
-0.04856824
0.09952170
-0.01033209
0.26908472
-0.01408081
-0.05860972
0.01965488
0.05032254
0.04433860
-0.05945105
0.25368711
0.12665752
-0.03786943
-0.08476046
-0.01956036
-0.03231233
0.11774050
0.08275406
-0.00122420
