-0.02765420
0.05649974
0.04319012
0.02177245
0.09825847
-0.03723924
0.17559777
0.10683392
0.06784831
-0.00747950
0.18298027
-0.02913138
0.04298931
0.04952892
0.04802931
-0.06241053
-0.06591904
0.05540324
0.01044150
0.02287978
-0.01551444
-0.01134516
0.00400576
-0.03717006
-0.03071275
-0.06469482
0.02754096
-0.00957997
-0.02761773
0.03537597
-0.03187167
0.09868672
0.10687357
-0.01578659
0.03517579
-0.01756126
0.03154592
0.05322165
0.14608231
0.02839604
-0.06079796
0.18311334
-0.03429009
-0.03345729
0.06400680
-0.08784581
-0.01263271
-0.08054536
-0.05832383
0.15097691
0.12827452
0.08699972
-0.00458022
-0.00253404
0.06579502
0.08003912
-0.00202705
-0.01820579
0.01262886
0.01398759
0.10935687
-0.08491998
0.03764826
0.00859510
0.13144237
-0.07886772
0.13487051
-0.10080986
-0.06626939
0.08949246
0.01066999
-0.07144012
-0.04951870
0.03514532
0.11841787
-0.03106801
-0.04300853
0.02392804
0.05644390
0.03983740
-0.02817499
0.00667020
-0.07445663
-0.00195155
0.04054333
0.02117274
0.02429384
-0.06969294
0.15599747
0.02953174
0.04069304
0.05557176
0.13286528
0.02569641
0.02080643
-0.01738995
0.18428203
0.10222255
-0.04471141
0.05206107
-0.08413819
0.11059873
-0.08045912
0.05886558
-0.00913830
0.09062622
-0.02159210
0.08898161
-0.05677425
0.09180682
-0.07116195
0.10982164
0.09097767
0.15814446
0.05337910
0.09331910
0.01846871
0.06420644
0.09027568
0.00304579
0.12256829
-0.03364852
-0.02601802
-0.07522241
0.05218383
0.06407664
-0.03497355
0.08644222
-0.01272430
0.05500111
0.02589015
0.01224491
-0.04144521
-0.05805545
0.11337649
0.03231110
-0.04663630
0.00760509
0.05042552
0.18520528
-0.01175922
0.03319708
0.00269676
0.08076069
-0.07017745
-0.07992194
-0.03917344
0.08725761
0.14015189
0.03104993
0.04103056
0.10126189
-0.00768302
0.01681677
0.13147897
-0.02696088
0.10624409
-0.02400527
-0.04280528
-0.08728631
-0.03779222
-0.02191698
-0.02977607
0.12645324
0.16434132
0.04134840
0.00363656
-0.06817324
0.08478055
0.04655168
0.06447638
-0.02677700
0.02961422
0.08132954
0.03084285
0.05595026
-0.06818757
-0.05204887
0.18944447
0.02191519
0.12964107
0.07521952
0.07997518
0.01383538
-0.08223158
-0.02792888
0.12449631
0.07214071
0.06860425
0.17044912
0.07796942
0.18758839
0.17761821
-0.02643845
-0.03958195
-0.02763023
0.20471422
0.05073566
-0.06271974
-0.02092325
0.02332901
-0.03047419
0.17923725
0.01341469
0.01766314
0.02326572
-0.03836723
-0.04230142
0.00194679
-0.10576686
0.01750935
-0.03704008
0.02948773
0.11696110
-0.00958723
-0.03541672
-0.08984505
0.01379667
-0.04812470
0.03000137
-0.05936588
-0.19800943
0.10417043
0.00894802
0.08589098
-0.08571282
0.15977086
0.02579349
0.04075752
-0.06305005
0.06235158
0.11292402
-0.00571814
0.02663548
-0.08570348
-0.12206189
0.07479356
-0.07344345
0.07174746
0.06067177
-0.02852614
-0.01785640
0.04520177
-0.03385562
-0.01504567
0.02342765
-0.09982111
-0.11868546
0.02639914
0.01689710
0.05396331
0.11996607
0.02192482
0.15988958
-0.00801545
0.04796418
0.13595490
0.13840312
-0.08702808
-0.03277431
0.01051900
0.21916482
0.08216236
0.06426806
-0.04535851
0.01332019
0.09213553
-0.00297973
0.14092527
0.11236086
0.03865286
-0.02980141
-0.01451763
0.03345888
-0.00708843
-0.03202672
0.16809106
-0.00606929
0.01961000
0.10898793
-0.00761444
0.03938419
-0.09996368
-0.01311595
0.10372407
0.15594152
0.19742115
0.10264111
0.06375585
